\data\
ngram 1=28
ngram 2=615
ngram 3=9580

\1-grams:
-2.6404552	<unk>	0
0	<s>	-4.9626927
-2.5084317	</s>	0
-1.3754512	#	-1.187111
-1.3925465	i	-1.151426
-1.3925465	n	-1.0474669
-1.3925465	c	-1.0210146
-1.3925465	p	-0.9806078
-1.3925465	t	-1.0251905
-1.3925465	r	-1.0494365
-1.3925465	e	-1.1681904
-1.3925465	g	-0.90370125
-1.3925465	s	-1.0394979
-1.3925465	u	-1.135603
-1.4103427	l	-1.0157375
-1.3925465	a	-1.1435865
-1.3925465	m	-0.969862
-1.4103427	d	-0.919888
-1.4103427	b	-0.9327121
-1.3925465	x	-0.8254527
-1.3925465	h	-0.8753059
-1.3925465	o	-1.136408
-1.4288992	f	-0.84682894
-1.4288992	k	-0.70643634
-1.4103427	w	-0.8280647
-1.4482841	q	-0.59009075
-1.3925465	y	-0.9416831
-1.4103427	z	-0.975723

\2-grams:
-1.4148419	# </s>	0
-0.000004530068	<s> #	-3.5631738
-2.4171016	# #	-0.31537047
-1.3480176	i #	-4.020456
-1.2617267	n #	-3.6968784
-1.2176061	c #	-3.173821
-1.1724582	p #	-1.7807131
-1.221782	t #	-4.0518427
-1.2636963	r #	-3.3172932
-1.3647819	e #	-4.1555963
-1.1757371	g #	-1.7762479
-1.2360895	s #	-4.221796
-1.3321946	u #	-3.595329
-1.2299974	l #	-3.0872145
-1.3401781	a #	-3.8704598
-1.1664536	m #	-3.909857
-1.1525655	d #	-3.3647466
-1.182316	b #	-2.8666215
-1.0161684	x #	-2.6781387
-1.1272168	h #	-1.6367725
-1.3329995	o #	-3.8692772
-1.1804384	f #	-2.0850327
-0.9262896	k #	-0.6542868
-1.0392853	w #	-1.2193385
-0.83169794	q #	-0.5319053
-1.1807038	y #	-1.3114074
-1.2084005	z #	-1.5672939
-1.3882347	# i	-3.9061992
-1.3853118	i i	-3.4044225
-1.2451704	n i	-3.683526
-1.2549003	c i	-3.588543
-1.2133082	p i	-3.2595246
-1.2406085	t i	-3.9259758
-1.2471399	r i	-3.862766
-1.3658937	e i	-3.1554077
-1.1982292	g i	-3.0069075
-1.292672	s i	-3.6382647
-1.3510209	u i	-3.6950932
-1.2311554	l i	-3.9223714
-1.34129	a i	-2.6086366
-1.18528	m i	-3.3370683
-1.1730621	d i	-3.7874513
-1.162232	b i	-3.2901058
-1.1190597	x i	-2.735591
-1.1486648	h i	-3.0040007
-1.4097669	o i	-3.122695
-1.0897198	f i	-3.2415357
-0.95285463	k i	-1.223836
-1.0404353	w i	-1.7409657
-1.4314966	q i	-0.44829923
-1.3485445	y i	-0.39360225
-1.2702509	z i	-1.5286055
-1.3882347	# n	-3.5972538
-1.3491294	i n	-3.911924
-1.300641	n n	-3.2073925
-1.3860481	c n	-1.9173113
-1.3605505	p n	-2.1721928
-1.4165214	t n	-1.0043495
-1.3227954	r n	-2.600034
-1.3836082	e n	-3.8950481
-1.1982292	g n	-3.030653
-1.3797358	s n	-2.324409
-1.3333064	u n	-3.2102082
-1.4350616	l n	-1.7835747
-1.3590045	a n	-3.7968178
-1.2866437	m n	-2.2412207
-1.3691347	d n	-2.415946
-1.4075404	b n	-0.8160937
-1.3195763	x n	-1.0698901
-1.4291213	h n	-2.1704216
-1.3341113	o n	-3.8351223
-1.5708807	f n	-0.46288025
-1.7567877	k n	-0.5399899
-1.3441283	w n	-0.4362487
-1.3186256	q n	-0.67674786
-1.1625984	y n	-1.9757589
-1.2925048	z n	-1.1385611
-1.3882347	# c	-3.897914
-1.3853118	i c	-3.6968021
-1.3642486	n c	-3.1278698
-1.3155425	c c	-3.3450036
-1.4966714	p c	-0.5834388
-1.4165214	t c	-2.1989691
-1.3227954	r c	-3.0080147
-1.3836082	e c	-3.6838543
-1.2950323	g c	-0.890219
-1.2733839	s c	-3.2968888
-1.3694888	u c	-2.9265397
-1.3325193	l c	-1.8367914
-1.3774724	a c	-3.4084837
-1.389186	m c	-1.5903503
-1.4012723	d c	-2.8366482
-1.5342532	b c	-0.7272414
-1.2522631	x c	-2.708314
-1.3913975	h c	-0.5564267
-1.3518258	o c	-3.3171132
-1.4141562	f c	-2.4714816
-1.5096223	k c	-0.5781684
-1.484439	w c	-0.85791194
-1.6540027	q c	-0.33214456
-1.3485445	y c	-1.3871944
-1.367054	z c	-0.9437016
-1.3882347	# p	-3.997328
-1.3668439	i p	-3.328461
-1.5635585	n p	-0.94302255
-1.5748299	c p	-0.49807802
-1.2346367	p p	-2.7485967
-1.474437	t p	-1.7194792
-1.5308207	r p	-2.3773737
-1.3836082	e p	-3.335924
-1.4988316	g p	-0.32111594
-1.3797358	s p	-3.164269
-1.4089619	u p	-3.0945363
-1.5318291	l p	-1.95701
-1.4169455	a p	-3.3240964
-1.361193	m p	-3.1633382
-1.560681	d p	-0.5966681
-1.4458121	b p	-1.0324277
-1.445371	x p	-2.8653612
-1.8670963	h p	-0.44829923
-1.389582	o p	-2.8417804
-1.5708807	f p	-0.49536785
-1.8195099	k p	-0.29350182
-1.7929122	w p	-0.2721058
-1.7511959	q p	-0.31537047
-1.3485445	y p	-1.4306011
-1.616516	z p	-0.48130357
-1.3882347	# t	-3.4837732
-1.3668439	i t	-3.8604755
-1.3419948	n t	-3.7756774
-1.2741886	c t	-3.6304264
-1.2807189	p t	-3.0940309
-1.2985494	t t	-2.9315615
-1.3227954	r t	-3.252842
-1.3658937	e t	-3.85232
-1.5444943	g t	-0.8612499
-1.2549158	s t	-3.5923204
-1.3510209	u t	-3.404188
-1.3325193	l t	-2.783251
-1.34129	a t	-3.87689
-1.4191086	m t	-2.623767
-1.5150185	d t	-0.7357818
-1.37237	b t	-2.6298232
-1.3195763	x t	-2.7901874
-1.3566902	h t	-1.7209995
-1.3341113	o t	-2.9598935
-1.3342682	f t	-1.0657369
-1.8195099	k t	-0.27713835
-1.5434865	w t	-0.37695292
-1.4314966	q t	-0.40225774
-1.3204602	y t	-1.2554567
-1.3159609	z t	-0.73260534
-1.4059396	# r	-3.487243
-1.3668439	i r	-3.0759673
-1.3208258	n r	-2.9184897
-1.2943735	c r	-2.873679
-1.1929785	p r	-3.7564654
-1.2783645	t r	-3.4360607
-1.3227954	r r	-2.8765888
-1.3658937	e r	-3.9122646
-1.1568754	g r	-3.042455
-1.4045315	s r	-1.7219031
-1.3333064	u r	-3.3307338
-1.3325193	l r	-1.8304143
-1.3590045	a r	-3.6689346
-1.389186	m r	-1.1833633
-1.3392122	d r	-2.4673417
-1.1418915	b r	-3.0562403
-1.3992709	x r	-1.5519303
-1.3245525	h r	-2.2325587
-1.3341113	o r	-3.729941
-1.1570017	f r	-3.1855004
-1.5096223	k r	-0.41057545
-1.2707565	w r	-1.054351
-1.2291205	q r	-0.4144509
-1.2456948	y r	-1.6823629
-1.2925048	z r	-0.6898752
-1.3882347	# e	-4.048959
-1.3668439	i e	-3.5040221
-1.2628849	n e	-3.6253598
-1.2364324	c e	-3.566719
-1.1929785	p e	-3.6214824
-1.2406085	t e	-3.7599907
-1.2648544	r e	-3.8996532
-1.3658937	e e	-2.1454914
-1.1375871	g e	-3.0654912
-1.2733839	s e	-3.4811218
-1.3510209	u e	-3.6110377
-1.2496233	l e	-3.4589553
-1.3590045	a e	-3.0695798
-1.2037479	m e	-3.1210854
-1.1537739	d e	-3.7808788
-1.162232	b e	-3.2064266
-1.1426306	x e	-2.5109057
-1.1091918	h e	-2.6490045
-1.3518258	o e	-3.0990393
-1.0500364	f e	-2.948549
-0.8807409	k e	-1.370536
-1.0607651	w e	-1.551955
-1.3186256	q e	-0.59686387
-1.2021623	y e	-1.3527982
-1.2096089	z e	-1.5977949
-1.3882347	# g	-3.0103278
-1.3853118	i g	-3.04847
-1.4667909	n g	-2.8015957
-1.6161449	c g	-0.49968344
-1.6369822	p g	-0.42214543
-1.6203208	t g	-0.9156276
-1.4687605	r g	-2.5617056
-1.4020761	e g	-3.1526551
-1.4575167	g g	-1.5080354
-1.5555896	s g	-1.1366946
-1.4089619	u g	-2.5366516
-1.5318291	l g	-2.6561892
-1.3590045	a g	-2.9288523
-1.5236773	m g	-0.55545807
-1.6117148	d g	-0.5164815
-2.025834	b g	-0.30273962
-1.6231796	x g	-0.6022633
-1.8670963	h g	-0.3390967
-1.389582	o g	-2.4179668
-1.9470515	f g	-0.29778835
-1.7567877	k g	-0.29778835
-1.6930096	w g	-0.29778835
-1.2291205	q g	-0.3390967
-1.3785713	y g	-0.68051344
-1.4249697	z g	-0.62952673
-1.3882347	# s	-3.873438
-1.3491294	i s	-3.9811697
-1.2813528	n s	-3.299446
-1.4403386	c s	-2.2131135
-1.3057337	p s	-2.551805
-1.3197184	t s	-1.5502088
-1.41447	r s	-2.908221
-1.3836082	e s	-3.6796174
-1.4197929	g s	-0.6177426
-1.2733839	s s	-3.3732243
-1.3333064	u s	-3.761071
-1.3807709	l s	-1.8781871
-1.3590045	a s	-3.4882822
-1.3348955	m s	-1.9342577
-1.311219	d s	-1.328781
-1.3398355	b s	-2.8535218
-1.4969523	x s	-1.3485693
-1.29463	h s	-0.65008086
-1.3341113	o s	-3.433238
-1.4603854	f s	-0.8112176
-1.3530804	k s	-0.28122395
-1.2382497	w s	-0.75163174
-1.6540027	q s	-0.2726818
-1.2021623	y s	-1.7052318
-1.2096089	z s	-1.0431347
-1.3882347	# u	-3.696672
-1.3491294	i u	-3.5014803
-1.2813528	n u	-3.3640807
-1.2741886	c u	-3.390846
-1.2346367	p u	-2.888898
-1.2590764	t u	-3.6193824
-1.2833223	r u	-3.56799
-1.3836082	e u	-3.0026128
-1.2204831	g u	-2.8328464
-1.2733839	s u	-3.447245
-1.3333064	u u	-2.5146194
-1.2311554	l u	-3.1070256
-1.3590045	a u	-3.2846067
-1.2643899	m u	-3.040373
-1.1932471	d u	-3.2580962
-1.1418915	b u	-3.417435
-1.1939965	x u	-2.1052544
-1.1486648	h u	-2.8201146
-1.3341113	o u	-2.9206228
-1.1333971	f u	-2.729165
-1.3530804	k u	-0.54296476
-1.1797347	w u	-0.764859
-0.6292503	q u	-3.7652483
-1.2940822	y u	-0.7582351
-1.2702509	z u	-1.0717732
-1.3893583	# l	-3.3158395
-1.3865236	i l	-3.4670138
-1.4686495	n l	-2.231568
-1.3392632	c l	-3.4198265
-1.235906	p l	-3.2593923
-1.3434392	t l	-1.6084794
-1.284534	r l	-2.1837118
-1.3847694	e l	-3.2863793
-1.3872303	g l	-2.4078016
-1.4061711	s l	-2.2235136
-1.3344212	u l	-3.4108324
-1.2701784	l l	-3.3555782
-1.3601657	a l	-3.495503
-1.453391	m l	-1.4658539
-1.3410707	d l	-1.053431
-1.3112545	b l	-2.6354177
-1.4019258	x l	-1.43405
-1.4316564	h l	-0.9536639
-1.352987	o l	-3.2056637
-1.1584466	f l	-2.359426
-1.3562217	k l	-3.2418532
-1.9317597	w l	-0.63198453
-1.2707187	y l	-1.6228688
-1.3969057	z l	-0.8361811
-1.3882347	# a	-3.9228144
-1.3491294	i a	-3.6711032
-1.2628849	n a	-3.4663687
-1.2364324	c a	-3.6192703
-1.2133082	p a	-3.2483885
-1.2590764	t a	-3.7017767
-1.2648544	r a	-3.6584532
-1.3836082	e a	-3.1076207
-1.1982292	g a	-2.8211129
-1.2733839	s a	-3.1677966
-1.3510209	u a	-3.4603164
-1.2311554	l a	-3.3333626
-1.3967607	a a	-0.98827857
-1.223036	m a	-3.4158392
-1.1730621	d a	-3.1979973
-1.1835724	b a	-2.8809335
-1.3195763	x a	-2.367567
-1.0730094	h a	-2.8928146
-1.389582	o a	-1.8005598
-1.1110096	f a	-2.9816418
-0.95285463	k a	-1.4705008
-1.0820936	w a	-1.6288524
-1.584414	q a	-0.28110477
-1.2940822	y a	-1.2567049
-1.2925048	z a	-1.9378712
-1.3882347	# m	-3.6366892
-1.3668439	i m	-3.3132954
-1.3642486	n m	-1.5362798
-1.3612524	c m	-2.5465333
-1.5850104	p m	-2.9066582
-1.3419722	t m	-2.5017207
-1.41447	r m	-2.9664922
-1.3836082	e m	-3.4797785
-1.4197929	g m	-1.5127653
-1.458822	s m	-2.101473
-1.3510209	u m	-3.6475327
-1.5318291	l m	-2.470557
-1.3590045	a m	-3.4053533
-1.2866437	m m	-2.8741937
-1.4737034	d m	-2.508198
-1.6454341	b m	-1.6154665
-1.555496	x m	-0.63424474
-1.4704363	h m	-0.630093
-1.3518258	o m	-3.3390286
-1.7194507	f m	-0.53358704
-1.7567877	k m	-0.2864504
-1.3058947	w m	-0.82736164
-1.4314966	q m	-0.28524303
-1.2456948	y m	-2.1091602
-1.3159609	z m	-0.68795043
-1.3893583	# d	-3.8809128
-1.3865236	i d	-3.3070827
-1.3433883	n d	-3.505358
-1.4140878	c d	-2.3982024
-1.4252611	p d	-0.75639087
-1.5087194	t d	-0.95404345
-1.470619	r d	-3.2007208
-1.3847694	e d	-3.4797022
-1.5475934	g d	-2.3781219
-1.4061711	s d	-2.8860166
-1.3344212	u d	-3.0733006
-1.4669755	l d	-2.4931188
-1.378684	a d	-3.2882118
-1.6137542	m d	-2.400392
-1.4383032	d d	-2.471735
-1.409653	b d	-2.131306
-1.4483243	x d	-0.83644634
-1.6289585	h d	-0.43140087
-1.352987	o d	-2.8471053
-2.0132148	f d	-0.39704454
-1.698215	w d	-0.6037299
-1.7615516	q d	-4.2045436
-1.3221526	y d	-2.2327971
-1.5320735	z d	-1.021238
-1.3893583	# b	-3.2198305
-1.3865236	i b	-3.6022332
-1.4405401	n b	-1.4473108
-1.577365	c b	-0.58380634
-1.4989948	p b	-2.686816
-1.5436057	t b	-0.8667044
-1.5006744	r b	-2.8647456
-1.4032879	e b	-3.115387
-1.7247632	g b	-0.35580546
-1.4606805	s b	-1.6418247
-1.3707005	u b	-2.87739
-1.43692	l b	-2.2212954
-1.3601657	a b	-3.2562375
-1.453391	m b	-2.7229064
-1.403417	d b	-1.0004337
-1.4481198	b b	-3.014049
-1.6276348	x b	-1.6216981
-1.4732252	h b	-0.4895673
-1.4110941	o b	-3.2075737
-1.7247497	f b	-0.2864504
-1.514134	k b	-0.30066976
-1.7994742	w b	-0.4773994
-1.4860331	y b	-1.149714
-1.4941382	z b	-1.076826
-1.4059396	# x	-2.6206198
-1.4046001	i x	-2.119314
-1.6425973	n x	-1.412055
-1.6618074	c x	-1.3139175
-2.1321235	p x	-0.4532296
-1.9204971	t x	-0.40225774
-1.6445669	r x	-0.7677593
-1.3836082	e x	-3.236416
-1.8954917	g x	-0.2756478
-1.7313248	s x	-0.44421256
-1.4523847	u x	-2.6982985
-1.5318291	l x	-1.5731665
-1.4603683	a x	-2.3796034
-1.7195283	m x	-0.5491679
-1.7362978	d x	-0.31444263
-2.1593347	b x	-0.31537047
-1.2522631	x x	-1.8728
-1.6917157	h x	-0.3522089
-1.555732	o x	-1.9109259
-1.9470515	f x	-0.28110477
-1.8195099	k x	-0.31537047
-1.9795804	w x	-0.29350182
-1.7511959	q x	-0.31537047
-1.8274498	y x	-0.5290963
-1.4918146	z x	-0.5357819
-1.3882347	# h	-3.2569366
-1.4459538	i h	-1.5623003
-1.5288512	n h	-2.1801984
-1.2943735	c h	-3.017134
-1.3322779	p h	-2.4798448
-1.3419722	t h	-2.6282012
-1.4687605	r h	-1.5703493
-1.4020761	e h	-1.6034722
-1.4197929	g h	-1.6302736
-1.4308289	s h	-1.0916036
-1.554927	u h	-0.6431959
-1.4070685	l h	-1.3379886
-1.4838244	a h	-2.0644383
-1.6616888	m h	-0.55423033
-1.560681	d h	-2.1062496
-1.4877852	b h	-0.8083616
-1.7033944	x h	-2.5623314
-1.7706125	h h	-0.5398824
-1.4766458	o h	-2.8003292
-1.7194507	f h	-0.6709565
-1.5096223	k h	-0.5407867
-2.0557692	w h	-0.4532296
-1.6540027	q h	-0.31537047
-1.7478218	y h	-0.47399986
-1.7253892	z h	-0.5311014
-1.3882347	# o	-3.3082705
-1.3491294	i o	-3.5598469
-1.2451704	n o	-3.6104667
-1.2364324	c o	-3.676406
-1.1549687	p o	-3.4178593
-1.2590764	t o	-3.6623328
-1.2648544	r o	-3.541318
-1.3836082	e o	-2.9016538
-1.2439392	g o	-2.6553226
-1.3128569	s o	-3.0698464
-1.3333064	u o	-3.241475
-1.2689116	l o	-3.0196662
-1.4169455	a o	-1.7468683
-1.2037479	m o	-3.330785
-1.1932471	d o	-3.0595293
-1.1224611	b o	-2.6893406
-1.3195763	x o	-2.054069
-1.0907239	h o	-2.870871
-1.4309359	o o	-1.0195144
-1.1333971	f o	-2.6451166
-1.0725212	k o	-0.69037896
-1.1531906	w o	-1.0289785
-1.4314966	q o	-0.2933587
-1.3485445	y o	-1.6279718
-1.3159609	z o	-1.559061
-1.3904848	# f	-3.5471375
-1.3877387	i f	-2.4492946
-1.5331511	n f	-3.0543544
-1.6217408	c f	-1.6686509
-1.5907278	p f	-0.34846908
-1.5108747	t f	-0.94285333
-1.6964501	r f	-1.8449234
-1.4442078	e f	-3.0125513
-1.9095765	g f	-0.28848916
-1.5983984	s f	-2.279927
-1.4789435	u f	-2.2218812
-1.574638	l f	-2.0709004
-1.440906	a f	-2.1242008
-1.5705882	m f	-0.8465487
-1.6187174	d f	-0.48743665
-1.8056674	b f	-0.6974983
-1.5631485	x f	-0.5772734
-2.0101774	h f	-0.29350182
-1.4337275	o f	-2.6612256
-1.2705481	f f	-2.828987
-1.8061368	w f	-0.61189485
-1.6883674	y f	-0.66023177
-1.3987721	z f	-0.716471
-1.4268428	# k	-2.6605842
-1.4711467	i k	-0.7986498
-1.8051426	n k	-1.2807858
-1.6217408	c k	-0.9932755
-2.2328513	p k	-0.5397928
-1.6259167	t k	-0.3638247
-1.6501627	r k	-1.0593433
-1.5365094	e k	-1.1699793
-1.9095765	g k	-0.48695612
-1.5602492	s k	-1.1865063
-1.5888414	u k	-0.96639395
-1.6164638	l k	-0.91446036
-1.538409	a k	-0.8425089
-1.6686915	m k	-0.4288296
-2.0547595	d k	-0.31537047
-2.183811	b k	-0.2726818
-1.8811812	h k	-0.28089043
-1.5896465	o k	-1.1717176
-2.0236988	f k	-0.6727289
-1.8382313	k k	-0.47784197
-2.080308	w k	-0.31537047
-1.6883674	y k	-0.56915134
-1.8014873	z k	-0.35542464
-1.40711	# w	-2.0006166
-1.5726086	i w	-1.1194956
-1.5309958	n w	-0.60969925
-1.7163286	c w	-0.5967298
-2.1422505	p w	-0.30273962
-1.5087194	t w	-0.74688166
-1.6057869	r w	-1.2954928
-1.5099767	e w	-1.0871149
-1.5016205	g w	-0.5625318
-1.5579132	s w	-0.98960036
-1.5567856	u w	-0.82583004
-1.6596296	l w	-0.6690112
-1.5948246	a w	-0.9768631
-1.7235146	m w	-0.3186821
-1.6152021	d w	-0.76681757
-1.7182025	b w	-0.28925723
-1.708759	x w	-0.3900461
-1.6289585	h w	-0.57306385
-1.4546567	o w	-1.1228629
-1.64324	f w	-0.36081982
-1.698215	w w	-0.644782
-1.7615516	q w	-0.31537047
-2.0602713	y w	-0.4773994
-1.5736423	z w	-0.8161019
-1.3916142	# q	-3.716943
-1.4963261	i q	-3.4330077
-1.7498405	n q	-3.165621
-1.5441146	c q	-2.4784408
-2.245661	p q	-0.2864504
-1.7275641	t q	-2.9985368
-1.6995941	r q	-2.0597901
-1.445543	e q	-3.2690408
-1.9167941	g q	-0.30066976
-1.4947462	s q	-3.3164506
-1.6970685	u q	-2.2846727
-1.8462557	l q	-1.9640774
-1.5135578	a q	-2.9662755
-1.5313275	m q	-3.3335407
-1.6816245	d q	-2.64122
-1.8224027	x q	-1.5941504
-2.0199192	h q	-0.7542596
-1.4813081	o q	-2.881764
-2.0106986	w q	-0.2864504
-1.6058441	q q	-0.5855503
-2.2168028	y q	-0.31537047
-1.9888159	z q	-0.3900461
-1.4243969	# y	-1.9878232
-1.6675177	i y	-0.3853001
-1.6012822	n y	-1.2074952
-1.6618074	c y	-1.2851627
-1.6369822	p y	-0.4299529
-1.5790058	t y	-1.3949187
-1.4687605	r y	-0.7563798
-1.3836082	e y	-1.5095315
-1.720111	g y	-0.69626766
-1.5555896	s y	-1.7423091
-1.4758408	u y	-0.6920866
-1.464984	l y	-1.4268538
-1.4169455	a y	-2.0941179
-1.6616888	m y	-0.57226646
-1.6117148	d y	-1.1799022
-1.3398355	b y	-1.0403767
-1.9847934	x y	-0.62694293
-1.3913975	h y	-1.5439966
-1.5014415	o y	-1.26317
-1.9470515	f y	-0.38215303
-1.5096223	k y	-0.53929555
-1.2382497	w y	-0.6603649
-1.7511959	q y	-0.31537047
-2.05109	y y	-0.2845203
-1.8710296	z y	-0.29311323
-1.5322387	# z	-1.6263957
-1.4058669	i z	-1.6058242
-1.3892533	n z	-1.8145292
-1.5045435	c z	-1.0353538
-1.6997124	p z	-0.7013288
-1.4463731	t z	-1.0988832
-1.3241227	r z	-1.4018009
-1.4226313	e z	-1.5374125
-1.4600518	g z	-0.6687022
-1.5958484	s z	-0.86917746
-1.4102892	u z	-1.1946094
-1.4669755	l z	-1.2330434
-1.378684	a z	-1.578924
-1.5262125	m z	-0.6351673
-1.4762385	d z	-0.74653697
-1.4903277	b z	-0.31451988
-1.5002794	x z	-0.627632
-1.5191981	h z	-0.6749501
-1.4110941	o z	-1.1427516
-1.4632957	f z	-0.34881964
-1.9166222	k z	-0.31537047
-1.5471692	w z	-0.2849649
-1.6257236	y z	-0.5133836
-1.3423963	z z	-0.9338558

\3-grams:
-0.2717662	# # </s>
-1.5398716	i # </s>
-1.2706052	n # </s>
-1.1988857	c # </s>
-1.04023	p # </s>
-1.229181	t # </s>
-1.4846203	r # </s>
-1.6007828	e # </s>
-0.8608012	g # </s>
-1.4968153	s # </s>
-1.5246811	u # </s>
-1.6678097	l # </s>
-1.5348005	a # </s>
-1.5943989	m # </s>
-1.8264256	d # </s>
-2.1464329	b # </s>
-2.126911	x # </s>
-1.1546384	h # </s>
-1.080806	o # </s>
-0.6871216	f # </s>
-1.2181003	k # </s>
-1.4036556	w # </s>
-0.888896	q # </s>
-1.0849111	y # </s>
-1.2185034	z # </s>
-5.336119	<s> # #
-1.9829764	# i #
-0.23699573	i i #
-0.6754741	n i #
-0.6789678	c i #
-0.46781683	p i #
-0.8576592	t i #
-0.704676	r i #
-0.28783625	e i #
-1.0347867	g i #
-0.95598775	s i #
-0.6375326	u i #
-1.053446	l i #
-0.9038516	a i #
-1.383558	m i #
-1.1703976	d i #
-0.56627214	b i #
-1.2997024	x i #
-1.3872039	h i #
-0.99177265	o i #
-2.1192684	f i #
-1.3373492	k i #
-1.8570123	w i #
-0.38284272	q i #
-1.2876887	y i #
-0.7321615	z i #
-2.0736356	# n #
-0.52431846	i n #
-1.3909305	n n #
-1.8599162	c n #
-2.4070365	p n #
-0.8268223	t n #
-1.9321134	r n #
-0.6694535	e n #
-3.161116	g n #
-2.689038	s n #
-2.097857	u n #
-1.6327828	l n #
-1.920398	a n #
-1.7928472	m n #
-2.4981406	d n #
-1.457174	b n #
-1.059235	x n #
-2.2205086	h n #
-1.008141	o n #
-0.92815346	f n #
-0.8493883	w n #
-1.1589992	q n #
-1.5870221	y n #
-0.9098424	z n #
-2.0725095	# c #
-1.8129665	i c #
-0.87500864	n c #
-2.59692	c c #
-0.9605982	p c #
-0.0353823	t c #
-2.445653	r c #
-1.3536339	e c #
-1.3721141	g c #
-2.5530496	s c #
-1.2886796	u c #
-1.0715224	l c #
-0.58579814	a c #
-1.8306715	m c #
-2.7332685	d c #
-1.7494068	b c #
-2.7320433	x c #
-0.3570493	h c #
-0.8497858	o c #
-2.804088	f c #
-0.1628313	k c #
-1.2629884	w c #
-1.08063	q c #
-2.2647703	y c #
-0.500471	z c #
-2.433307	# p #
-2.827133	i p #
-1.873668	n p #
-0.76186496	c p #
-1.8706692	p p #
-2.0084815	t p #
-2.1340213	r p #
-2.7433364	e p #
-1.2465929	g p #
-3.2384608	s p #
-2.643381	u p #
-2.2491465	l p #
-2.6714003	a p #
-2.761077	m p #
-0.9953879	d p #
-2.84708	x p #
-1.0849655	h p #
-2.5408413	o p #
-1.230705	f p #
-0.787117	k p #
-0.72532755	w p #
-0.5366419	q p #
-2.4510856	y p #
-1.9066616	# t #
-0.5246994	i t #
-0.62177104	n t #
-2.558285	c t #
-0.89376116	p t #
-2.1983309	t t #
-1.4379575	r t #
-0.13618737	e t #
-0.8407841	g t #
-1.1448299	s t #
-0.21886328	u t #
-1.9271728	l t #
-0.77798736	a t #
-1.1654189	m t #
-0.47653854	d t #
-2.7463703	b t #
-2.3191226	x t #
-0.22648838	h t #
-1.6437515	o t #
-0.7498855	f t #
-0.42670542	k t #
-0.53205955	w t #
-0.39980817	q t #
-1.5994666	y t #
-0.69439775	z t #
-1.8301437	# r #
-1.1961468	i r #
-1.1507323	n r #
-2.7661788	c r #
-3.3925555	p r #
-2.9019794	t r #
-1.5545864	r r #
-0.77617943	e r #
-1.3510957	g r #
-0.19499682	s r #
-1.188519	u r #
-1.7565051	l r #
-2.2700372	a r #
-0.35501912	m r #
-2.7162423	d r #
-1.4726615	b r #
-0.13062075	x r #
-2.0065215	h r #
-1.3345333	o r #
-1.2590797	f r #
-1.137997	w r #
-1.0679712	q r #
-2.0663457	y r #
-0.7855472	z r #
-1.6676806	# e #
-0.3742671	i e #
-0.54378027	n e #
-0.81951714	c e #
-1.4090111	p e #
-0.47830057	t e #
-0.6433899	r e #
-0.4559934	e e #
-1.4431399	g e #
-0.7546735	s e #
-0.5041253	u e #
-0.9342498	l e #
-0.15642425	a e #
-0.6166597	m e #
-0.3186081	d e #
-1.0102596	b e #
-1.917949	x e #
-1.3720522	h e #
-0.13515	o e #
-2.1182387	f e #
-0.8217984	k e #
-0.9881652	w e #
-0.2243247	q e #
-0.54706794	y e #
-0.6603178	z e #
-1.5171068	# g #
-2.8000963	i g #
-1.9593059	n g #
-1.12498	c g #
-1.3519193	r g #
-2.57814	e g #
-1.6800047	g g #
-1.593686	s g #
-2.088833	u g #
-3.0024805	l g #
-2.7897923	a g #
-1.2359692	m g #
-0.69373834	d g #
-0.9707051	b g #
-1.1455224	x g #
-0.48559523	h g #
-2.6593122	o g #
-0.6573402	f g #
-0.6573402	w g #
-1.5647027	y g #
-1.410169	z g #
-1.427107	# s #
-0.11291835	i s #
-0.7605134	n s #
-0.013593559	c s #
-0.16137482	p s #
-0.35028458	t s #
-1.3122351	r s #
-0.408763	e s #
-0.39517093	g s #
-2.1152644	s s #
-0.094161354	u s #
-0.7595654	l s #
-0.36899003	a s #
-0.6890033	m s #
-0.20721556	d s #
-2.086082	b s #
-1.6819086	x s #
-0.48896796	h s #
-0.32930237	o s #
-0.1518025	f s #
-0.7383053	k s #
-0.33941928	w s #
-0.30341235	q s #
-1.0246242	y s #
-0.25936326	z s #
-1.5733579	# u #
-0.4978438	i u #
-0.87824965	n u #
-1.2711649	c u #
-1.6883609	p u #
-0.59355843	t u #
-1.1247907	r u #
-0.5826763	e u #
-2.290688	g u #
-1.1993346	s u #
-0.4077061	u u #
-0.9031158	l u #
-1.6232439	a u #
-1.1707022	m u #
-0.6955294	d u #
-1.8553365	b u #
-0.35128942	x u #
-1.6469407	h u #
-2.0683951	o u #
-2.17589	f u #
-1.3982162	k u #
-0.8678321	w u #
-3.0123754	q u #
-0.9578129	y u #
-0.97085696	z u #
-2.1030362	# l #
-1.2435828	i l #
-1.5183699	n l #
-2.146735	c l #
-3.1361177	p l #
-0.9543956	t l #
-1.900132	r l #
-1.2239796	e l #
-2.729633	g l #
-1.8428212	s l #
-0.6132642	u l #
-2.5429645	l l #
-2.395227	a l #
-1.8310397	m l #
-1.1340982	d l #
-2.4327815	b l #
-0.572798	x l #
-1.598289	h l #
-1.838915	o l #
-3.378652	f l #
-0.00062842213	k l #
-1.5294881	w l #
-1.5207208	y l #
-1.4379853	z l #
-1.3604506	# a #
-0.36924964	i a #
-0.68083334	n a #
-0.88559127	c a #
-1.0687381	p a #
-0.6222687	t a #
-0.7605212	r a #
-0.76302946	e a #
-1.3542385	g a #
-0.7290699	s a #
-0.96352494	u a #
-0.84873235	l a #
-0.7498224	a a #
-1.0894185	m a #
-0.42479587	d a #
-1.4787287	b a #
-1.0804651	x a #
-1.4475505	h a #
-1.6825516	o a #
-2.4249563	f a #
-1.0747439	k a #
-1.6782643	w a #
-0.80371666	q a #
-0.34346426	y a #
-1.077548	z a #
-1.2724501	# m #
-0.5159043	i m #
-0.12271789	n m #
-0.0039054768	c m #
-0.00816887	p m #
-2.1810286	t m #
-0.518941	r m #
-0.27424902	e m #
-1.4461093	g m #
-1.0443692	s m #
-0.079115316	u m #
-1.1735157	l m #
-0.14928025	a m #
-2.2709682	m m #
-0.3971514	d m #
-2.2759194	b m #
-0.22921695	x m #
-0.8400599	h m #
-1.4739165	o m #
-1.0848477	f m #
-0.4608055	k m #
-0.12770428	w m #
-0.8184092	q m #
-1.9849317	y m #
-0.47925252	z m #
-2.2391052	# d #
-1.0298303	i d #
-2.746945	n d #
-2.3324795	c d #
-1.255349	p d #
-0.95662576	t d #
-1.7055075	r d #
-1.4176097	e d #
-2.5195642	g d #
-2.9882987	s d #
-0.46530026	u d #
-1.8160803	l d #
-0.22101764	a d #
-2.4144099	m d #
-1.5761533	d d #
-2.5314217	b d #
-1.2913281	x d #
-1.1385195	h d #
-1.5672088	o d #
-1.147342	f d #
-1.1764712	w d #
-0.000025187777	q d #
-1.4341878	z d #
-1.5459496	# b #
-3.2570963	i b #
-2.378994	n b #
-1.4218417	c b #
-3.6041052	p b #
-1.660284	t b #
-2.8287542	r b #
-2.967163	e b #
-1.2507594	g b #
-1.0312144	s b #
-0.7292238	u b #
-2.900711	l b #
-0.76089823	a b #
-2.8290043	m b #
-1.4205302	d b #
-3.1341	b b #
-0.5606016	o b #
-0.92074317	f b #
-0.97196144	w b #
-1.9262763	z b #
-0.7897498	# x #
-0.53388417	i x #
-1.181535	n x #
-0.9506068	c x #
-0.22496752	p x #
-0.38439307	t x #
-0.6448584	r x #
-0.6019809	e x #
-0.33785304	s x #
-1.2858311	u x #
-1.0013175	l x #
-1.2598745	a x #
-0.6453369	m x #
-0.9625332	d x #
-0.5160872	b x #
-0.9831208	x x #
-0.94099677	h x #
-1.2753732	o x #
-0.6086382	f x #
-0.6601746	k x #
-0.7809826	w x #
-0.24960843	q x #
-1.061595	y x #
-0.3417195	z x #
-2.1088283	# h #
-1.4499803	i h #
-2.2326798	n h #
-1.844052	c h #
-1.7573609	p h #
-1.765874	t h #
-1.3286816	r h #
-1.7252758	e h #
-1.1219306	g h #
-1.8431795	s h #
-1.0012959	u h #
-1.5487543	l h #
-2.596679	a h #
-1.1868327	m h #
-2.445004	d h #
-1.3558204	b h #
-3.4442368	x h #
-1.0298353	h h #
-2.323888	o h #
-1.112381	f h #
-1.1592938	w h #
-0.681577	q h #
-2.1084878	# o #
-0.458827	i o #
-0.50948954	n o #
-1.0480814	c o #
-0.7525667	p o #
-0.5891584	t o #
-0.5429676	r o #
-0.6232351	e o #
-0.74343276	g o #
-1.1754174	s o #
-0.7034923	u o #
-0.4812653	l o #
-0.20185544	a o #
-0.8474633	m o #
-0.36037832	d o #
-0.9157988	b o #
-1.0735263	x o #
-1.5268204	h o #
-0.75648665	o o #
-1.4937319	f o #
-0.43095666	k o #
-1.1237017	w o #
-1.2940488	q o #
-0.2591282	y o #
-0.66245323	z o #
-1.5603805	# f #
-2.1470776	i f #
-3.2033858	n f #
-0.028465373	c f #
-1.0845801	p f #
-0.9476554	t f #
-1.7337946	r f #
-2.2126698	e f #
-3.173108	s f #
-1.6918344	u f #
-2.6523235	l f #
-2.3499405	a f #
-0.97407746	d f #
-1.5462401	b f #
-1.3636943	x f #
-2.5449057	o f #
-2.2206638	f f #
-2.6592321	# k #
-0.76332074	i k #
-0.71046305	c k #
-0.7001913	t k #
-1.0295557	r k #
-0.84695363	e k #
-0.57950795	g k #
-1.5180634	s k #
-1.189369	u k #
-1.1564299	l k #
-1.1046441	a k #
-0.95563465	m k #
-0.72959006	d k #
-0.80878377	h k #
-0.83936167	o k #
-0.9540191	k k #
-0.9023564	y k #
-1.0209342	z k #
-1.076817	# w #
-0.14942206	i w #
-0.44170398	n w #
-0.28447783	c w #
-0.92356044	p w #
-0.96916735	t w #
-2.0136015	r w #
-1.081332	e w #
-1.3908579	g w #
-1.3232687	s w #
-0.8207531	u w #
-1.2886087	l w #
-1.7306387	a w #
-0.8048076	m w #
-1.296792	d w #
-0.680806	x w #
-1.3920393	h w #
-0.8625037	o w #
-1.0238478	f w #
-0.20340414	w w #
-0.6649993	q w #
-1.111473	y w #
-3.4754372	# q #
-3.3312898	i q #
-3.5298378	n q #
-2.9104774	c q #
-3.4056523	t q #
-1.8410586	r q #
-3.5568206	e q #
-0.7965101	g q #
-3.9215636	s q #
-3.4695127	a q #
-3.3916228	m q #
-3.3718941	o q #
-0.60508966	w q #
-0.1704867	q q #
-1.1806872	# y #
-0.6571547	i y #
-0.79200643	n y #
-1.1966921	c y #
-1.2598827	p y #
-1.6570308	t y #
-0.4437316	r y #
-1.0915672	e y #
-1.0827558	g y #
-1.9014124	s y #
-0.6003667	u y #
-1.5964614	l y #
-1.4762061	a y #
-0.8064468	m y #
-2.1174088	d y #
-0.5379567	b y #
-0.1639092	x y #
-1.3129374	h y #
-0.9166585	o y #
-1.5969299	w y #
-0.86167455	y y #
-0.96925235	z y #
-1.0966212	# z #
-0.8228513	i z #
-0.87955534	n z #
-0.6263294	c z #
-0.5842548	p z #
-0.3340485	t z #
-0.90880287	r z #
-0.52177393	e z #
-1.2838804	g z #
-0.65591973	s z #
-0.5837656	u z #
-1.0539615	l z #
-1.4545188	a z #
-0.7504617	m z #
-0.60292566	d z #
-1.2881325	b z #
-0.32042995	x z #
-0.81793547	h z #
-1.2233008	o z #
-1.1287391	f z #
-0.8615573	w z #
-0.7459749	y z #
-0.95765215	z z #
-0.93979436	<s> # i
-1.2194799	i # i
-1.2748572	n # i
-1.0269079	c # i
-1.3309526	p # i
-1.0112945	t # i
-1.1352733	r # i
-1.1300659	e # i
-1.3718154	g # i
-1.0481751	s # i
-1.0413158	u # i
-0.9565659	l # i
-1.1078508	a # i
-1.0456669	m # i
-0.96823287	d # i
-1.013416	b # i
-1.2373121	x # i
-1.3464408	h # i
-1.2446876	o # i
-1.3825343	f # i
-1.5228348	k # i
-1.197424	w # i
-1.2098186	q # i
-1.1635054	y # i
-1.2476408	z # i
-1.8189781	# i i
-1.1826903	i i i
-1.6719595	n i i
-1.5889267	c i i
-2.567887	p i i
-1.1693034	t i i
-1.380318	r i i
-2.4588585	e i i
-1.2195551	g i i
-1.9085048	s i i
-1.6920596	u i i
-1.2147291	l i i
-0.89168006	a i i
-2.9965632	m i i
-2.1668332	d i i
-1.7357979	b i i
-1.0877868	x i i
-0.9842297	h i i
-3.2984488	o i i
-2.640164	f i i
-2.4537663	w i i
-1.5341913	y i i
-1.5387276	z i i
-1.1909809	# n i
-0.9164684	i n i
-0.65723634	n n i
-2.056982	c n i
-0.48137265	p n i
-1.0991557	t n i
-0.5382137	r n i
-1.3272437	e n i
-0.33981687	g n i
-0.034029897	s n i
-0.5266517	u n i
-0.26523504	l n i
-1.0740771	a n i
-0.8740239	m n i
-0.1997496	d n i
-0.9743213	b n i
-1.6159583	x n i
-2.1188872	h n i
-0.8017944	o n i
-0.57547474	f n i
-0.51176435	k n i
-0.55110717	w n i
-0.71728355	q n i
-1.5594096	y n i
-0.94644094	z n i
-1.1698415	# c i
-0.67815834	i c i
-0.64173067	n c i
-1.9643303	c c i
-1.0292351	p c i
-2.671583	t c i
-0.89151275	r c i
-1.0024571	e c i
-1.6487064	g c i
-0.4128768	s c i
-0.853173	u c i
-0.6896988	l c i
-0.86536753	a c i
-1.087067	m c i
-0.55116457	d c i
-1.1867332	b c i
-1.3202465	x c i
-1.069734	h c i
-1.038454	o c i
-0.9459186	f c i
-1.8302035	w c i
-0.8553363	y c i
-1.0310726	z c i
-1.8976972	# p i
-0.42680824	i p i
-1.3370403	n p i
-0.615204	c p i
-1.2970335	p p i
-1.3635488	t p i
-1.5102979	r p i
-0.7717018	e p i
-0.8474024	g p i
-0.57801485	s p i
-1.4799083	u p i
-0.83962816	l p i
-0.75869477	a p i
-1.7621789	m p i
-1.0952345	d p i
-1.5831008	b p i
-0.961554	x p i
-1.0964701	h p i
-1.247503	o p i
-1.7647069	y p i
-1.4565349	z p i
-1.0907612	# t i
-1.0194085	i t i
-0.51014876	n t i
-0.65964854	c t i
-0.65103495	p t i
-0.61526674	t t i
-0.38441753	r t i
-1.1225995	e t i
-1.2561983	g t i
-0.38612795	s t i
-1.0314076	u t i
-0.79540205	l t i
-0.66875887	a t i
-0.5989919	m t i
-1.4364026	d t i
-0.23220667	b t i
-0.7429346	x t i
-0.65722847	h t i
-0.5122453	o t i
-1.0852411	f t i
-1.3015912	w t i
-1.0962696	q t i
-1.202874	y t i
-1.0586884	z t i
-1.509816	# r i
-0.65350235	i r i
-0.5374124	n r i
-0.29886085	c r i
-0.8404393	p r i
-0.5134226	t r i
-0.6281269	r r i
-0.775509	e r i
-1.007475	g r i
-1.3102053	s r i
-0.6331786	u r i
-0.5146631	l r i
-0.55099213	a r i
-1.2458873	m r i
-0.61827564	d r i
-0.38410324	b r i
-0.7913048	x r i
-0.37608868	h r i
-0.6772405	o r i
-0.5917373	f r i
-1.0883813	k r i
-0.9749714	w r i
-0.35346973	q r i
-0.3621519	y r i
-1.0447417	z r i
-1.062611	# e i
-2.041508	i e i
-2.005856	n e i
-3.0427356	c e i
-3.0066586	p e i
-3.0194547	t e i
-2.2116005	r e i
-1.952343	e e i
-3.3772862	g e i
-2.6240232	s e i
-2.936586	u e i
-2.4678004	l e i
-1.9549029	a e i
-1.9001462	m e i
-1.851992	d e i
-2.539632	b e i
-3.0253222	x e i
-1.6173409	h e i
-2.7544599	o e i
-2.658201	f e i
-2.5112457	k e i
-2.0467029	w e i
-1.3649144	q e i
-2.5398169	y e i
-1.7175665	z e i
-1.5873212	# g i
-0.65552974	i g i
-1.1647247	n g i
-1.1311958	c g i
-1.1473279	p g i
-1.0919456	t g i
-0.5641382	r g i
-0.44355887	e g i
-1.1914828	g g i
-2.0446281	s g i
-1.2351742	u g i
-1.6321908	l g i
-0.8433534	a g i
-1.3927954	m g i
-1.38936	d g i
-0.9537789	o g i
-0.8691448	f g i
-0.8368774	q g i
-1.5760515	y g i
-1.4190854	z g i
-0.8209037	# s i
-1.3947968	i s i
-0.6574232	n s i
-2.3838603	c s i
-0.962404	p s i
-0.45694423	t s i
-0.58449364	r s i
-0.81399035	e s i
-1.4293183	g s i
-0.43250397	s s i
-1.6432981	u s i
-0.48681653	l s i
-1.3266668	a s i
-0.7230943	m s i
-1.0206673	d s i
-0.8689709	b s i
-1.517698	x s i
-0.72773415	h s i
-0.9406172	o s i
-1.6206785	f s i
-0.4131373	y s i
-1.4357893	z s i
-0.7259353	# u i
-0.7471068	i u i
-1.4150344	n u i
-1.1262369	c u i
-2.2330925	p u i
-1.3123463	t u i
-1.6102368	r u i
-1.2090422	e u i
-0.49487036	g u i
-1.1903954	s u i
-1.5007333	u u i
-1.3517443	l u i
-0.85152584	a u i
-1.7751637	m u i
-2.0675433	d u i
-1.9247773	b u i
-0.39704478	x u i
-0.18431553	h u i
-0.32637602	o u i
-0.6115989	f u i
-1.420104	w u i
-0.57212424	q u i
-1.2141265	y u i
-1.4854618	z u i
-0.4188187	# l i
-0.29133335	i l i
-0.17111313	n l i
-0.08757697	c l i
-0.23129633	p l i
-0.4543243	t l i
-0.25744504	r l i
-0.6012114	e l i
-0.2198006	g l i
-0.2706477	s l i
-0.8092213	u l i
-0.5772153	l l i
-0.23590611	a l i
-0.083677486	m l i
-0.40253592	d l i
-0.2123437	b l i
-0.38179862	x l i
-0.86826336	h l i
-0.6660363	o l i
-1.0319525	f l i
-3.9331815	k l i
-1.5300263	w l i
-0.2003895	y l i
-0.7504831	z l i
-2.175362	# a i
-3.3331294	i a i
-2.8304937	n a i
-3.1263492	c a i
-3.033255	p a i
-3.0535076	t a i
-2.287846	r a i
-3.3258193	e a i
-1.8989295	g a i
-2.1683543	s a i
-2.9567282	u a i
-1.4665968	l a i
-1.450317	a a i
-1.2213656	m a i
-2.7910402	d a i
-1.5757262	b a i
-3.3849258	x a i
-2.6515563	h a i
-2.2504797	o a i
-2.4591622	f a i
-1.6111226	k a i
-2.3045492	w a i
-1.0105276	q a i
-1.8712732	y a i
-2.6298296	z a i
-1.034692	# m i
-0.86726576	i m i
-1.1612874	n m i
-3.368312	c m i
-3.3759167	p m i
-0.25198755	t m i
-0.84814286	r m i
-1.1613245	e m i
-2.027055	g m i
-0.54806316	s m i
-1.7094352	u m i
-0.7215337	l m i
-1.2595896	a m i
-0.48109514	m m i
-0.27485898	d m i
-0.17904861	b m i
-1.3536519	x m i
-1.5159669	h m i
-0.5739387	o m i
-1.0893396	f m i
-1.5931361	w m i
-1.007121	q m i
-1.0450965	y m i
-0.9421784	z m i
-0.5302632	# d i
-0.759735	i d i
-0.7018824	n d i
-1.4521475	c d i
-0.22662407	p d i
-0.4587127	t d i
-0.12559436	r d i
-0.19655654	e d i
-2.0889177	g d i
-0.81948006	s d i
-0.4325155	u d i
-0.5997045	l d i
-0.9425677	a d i
-0.69748175	m d i
-0.19473024	d d i
-0.14647162	b d i
-0.98978114	x d i
-0.8434671	h d i
-0.7099722	o d i
-0.21100183	w d i
-1.7374663	y d i
-0.16223878	z d i
-1.339377	# b i
-0.81373477	i b i
-1.6805354	n b i
-0.6048402	c b i
-3.4598203	p b i
-1.2216899	t b i
-0.5929464	r b i
-0.7165014	e b i
-1.1000822	g b i
-0.41967294	s b i
-0.683961	u b i
-0.72374064	l b i
-0.56892145	a b i
-1.0310106	m b i
-1.2098901	d b i
-0.23101719	b b i
-2.0116374	x b i
-1.3409555	h b i
-0.6916318	o b i
-1.4175506	y b i
-1.6596793	z b i
-0.6580391	# x i
-0.55208427	i x i
-0.15351172	n x i
-0.9757625	c x i
-1.7587637	r x i
-0.95101446	e x i
-0.92550415	s x i
-0.40886474	u x i
-0.99033654	l x i
-0.5913116	a x i
-0.65649307	m x i
-1.1010355	d x i
-0.57617515	x x i
-1.133734	h x i
-0.09282987	o x i
-0.76191163	f x i
-0.98629594	w x i
-1.0927675	y x i
-1.2674885	z x i
-1.1507789	# h i
-0.43154886	i h i
-0.19526799	n h i
-0.16549557	c h i
-0.4936458	p h i
-1.3887367	t h i
-0.61796737	r h i
-0.9444012	e h i
-0.4741785	g h i
-1.1268895	s h i
-0.61664855	u h i
-1.1048826	l h i
-0.94993204	a h i
-0.8909254	m h i
-0.5887065	d h i
-1.14928	b h i
-0.029709052	x h i
-0.61289704	h h i
-1.2315634	o h i
-0.88279885	f h i
-0.6525454	w h i
-3.5210454	# o i
-3.4712112	i o i
-1.0359023	n o i
-1.8722298	c o i
-3.5277128	p o i
-0.8447054	t o i
-2.1600652	r o i
-3.576322	e o i
-1.731136	g o i
-2.7028043	s o i
-2.8835692	u o i
-2.5171652	l o i
-2.2757008	a o i
-3.0045276	m o i
-2.77702	d o i
-2.6750586	b o i
-3.169329	h o i
-1.6792557	o o i
-2.432522	f o i
-1.3280861	q o i
-2.7012396	z o i
-0.60067356	# f i
-0.34710938	i f i
-0.4528664	n f i
-1.8431028	c f i
-1.1407008	p f i
-0.83548594	t f i
-0.7398127	r f i
-0.52888423	e f i
-1.2604871	s f i
-1.2522587	u f i
-0.5201194	l f i
-1.5319216	a f i
-1.0334979	m f i
-0.7385702	d f i
-0.38766465	b f i
-0.76843107	h f i
-1.2599043	o f i
-0.22933087	f f i
-0.35811836	w f i
-1.3666447	y f i
-0.32156432	z f i
-1.9742191	# k i
-0.9130773	i k i
-1.1406556	n k i
-0.9259486	c k i
-0.7068671	t k i
-0.7734431	r k i
-0.7606537	e k i
-0.19340283	s k i
-0.36338133	u k i
-1.5955478	l k i
-1.1972741	a k i
-0.73758876	d k i
-0.27920675	b k i
-0.81920457	h k i
-1.5821484	o k i
-1.1490736	f k i
-0.48140717	z k i
-0.47006625	# w i
-1.2499652	i w i
-0.8558159	n w i
-1.303618	c w i
-0.66069686	t w i
-0.185192	r w i
-0.6225891	e w i
-0.5101723	g w i
-0.45982003	s w i
-1.1350143	u w i
-0.62443614	l w i
-0.64260197	a w i
-0.80512905	m w i
-1.0242622	d w i
-1.0068694	b w i
-0.33871388	x w i
-0.54373574	h w i
-0.44436276	o w i
-0.6234788	f w i
-1.3028961	w w i
-0.665234	q w i
-1.036393	z w i
-4.1163607	# q i
-4.009332	e q i
-3.9753706	s q i
-2.2215712	x q i
-2.5073752	# y i
-1.0443377	i y i
-2.33629	n y i
-1.5509013	p y i
-2.4692988	t y i
-2.5551534	e y i
-2.9531782	s y i
-1.8614547	u y i
-2.395746	l y i
-2.8999808	a y i
-2.0172424	b y i
-2.7026548	h y i
-2.3468735	o y i
-1.6845517	w y i
-0.8978218	y y i
-1.0520048	# z i
-0.86333954	i z i
-1.4194684	n z i
-0.9328823	c z i
-1.6297606	t z i
-0.71729976	r z i
-0.99379486	e z i
-1.2988434	g z i
-1.9149932	s z i
-0.6867047	u z i
-1.43093	l z i
-0.96230066	a z i
-0.8851173	m z i
-1.7580214	d z i
-1.0802641	b z i
-0.9158476	x z i
-1.5727503	h z i
-0.73300993	o z i
-1.3867879	y z i
-0.7233709	z z i
-1.3096032	<s> # n
-1.3824354	i # n
-1.7222708	n # n
-1.2734932	c # n
-1.1929345	p # n
-1.4398861	t # n
-1.2904547	r # n
-1.4046342	e # n
-1.6968336	g # n
-1.4863952	s # n
-1.380179	u # n
-1.5187564	l # n
-1.3960148	a # n
-1.3794589	m # n
-1.3492813	d # n
-1.6725736	b # n
-1.4555602	x # n
-1.6731235	h # n
-1.39519	o # n
-1.9875689	f # n
-1.6235718	k # n
-1.7602962	w # n
-1.4094034	q # n
-1.4727488	y # n
-1.553618	z # n
-0.28929916	# i n
-2.639975	i i n
-1.9098663	n i n
-1.7960346	c i n
-1.5584724	p i n
-0.973448	t i n
-1.317593	r i n
-1.6852444	e i n
-0.82100725	g i n
-1.1067929	s i n
-1.1022662	u i n
-1.6340774	l i n
-1.2989222	a i n
-0.4345514	m i n
-0.91821915	d i n
-1.3944547	b i n
-1.2619499	x i n
-1.4668998	h i n
-2.0485888	o i n
-1.3813943	f i n
-0.61663526	k i n
-0.706714	w i n
-1.3168802	q i n
-0.760789	y i n
-1.0874313	z i n
-3.1930735	# n n
-2.330592	i n n
-3.5538201	n n n
-2.8612862	c n n
-3.2022493	p n n
-2.0318854	t n n
-2.7229452	r n n
-1.9318508	e n n
-3.4502823	g n n
-2.4738033	s n n
-2.86878	u n n
-2.8270004	l n n
-0.78626704	a n n
-3.197674	m n n
-3.1148987	d n n
-1.3761554	b n n
-2.141013	x n n
-3.2668502	h n n
-2.0510786	o n n
-0.4289007	k n n
-2.9571757	y n n
-1.183815	z n n
-3.9159453	# c n
-4.204422	i c n
-3.6983745	n c n
-3.7119892	c c n
-1.5102593	p c n
-2.8296866	t c n
-4.101278	r c n
-2.0496025	e c n
-3.8261926	s c n
-3.998233	u c n
-4.520757	a c n
-2.2696478	m c n
-3.7330532	d c n
-1.8490317	b c n
-1.5751209	h c n
-4.161881	o c n
-1.7333732	w c n
-4.04455	# p n
-4.1395645	i p n
-1.6348518	n p n
-3.9356043	p p n
-2.7492511	t p n
-3.5437477	r p n
-3.6735046	e p n
-1.1856192	g p n
-4.2208447	s p n
-3.1012406	u p n
-3.1062136	l p n
-3.6163938	a p n
-1.1321144	m p n
-1.6785481	d p n
-3.1718545	o p n
-2.8874314	# t n
-4.2222433	i t n
-3.895214	n t n
-4.7712502	c t n
-3.947147	p t n
-3.7321975	t t n
-3.7940118	r t n
-4.059754	e t n
-3.8213367	s t n
-3.7575343	u t n
-4.0233607	l t n
-4.0791616	a t n
-3.641882	m t n
-1.7622101	d t n
-2.907562	h t n
-3.9399107	o t n
-3.3981237	# r n
-3.123717	i r n
-3.5362785	n r n
-3.8893242	c r n
-3.6247685	p r n
-4.120467	t r n
-1.7852567	r r n
-1.6668019	e r n
-3.8727198	g r n
-2.5009086	s r n
-2.2050967	u r n
-2.8217866	l r n
-1.8107911	a r n
-1.3946639	m r n
-2.9105525	d r n
-3.6736176	b r n
-2.1365042	o r n
-1.5510161	f r n
-1.1075132	k r n
-2.2146654	y r n
-1.673144	z r n
-2.3572197	# e n
-0.54850763	i e n
-0.71791923	n e n
-0.81479293	c e n
-0.9875519	p e n
-0.8122323	t e n
-1.1476893	r e n
-1.4098966	e e n
-0.32306045	g e n
-0.80960935	s e n
-0.59479237	u e n
-0.8436501	l e n
-2.2923286	a e n
-0.8543031	m e n
-1.1730053	d e n
-0.45728427	b e n
-1.7894741	x e n
-0.724648	h e n
-1.8387679	o e n
-1.2395847	f e n
-0.72874194	k e n
-0.8346046	w e n
-0.47301957	y e n
-0.8441304	z e n
-2.329536	# g n
-0.39998525	i g n
-2.2497945	n g n
-1.4978256	c g n
-0.75775737	p g n
-1.8655794	t g n
-2.2215261	r g n
-0.9719014	e g n
-2.5370626	g g n
-1.9550699	s g n
-1.434722	u g n
-3.6809692	l g n
-0.6257788	a g n
-1.3927954	m g n
-1.38936	d g n
-0.78311265	b g n
-0.8313981	o g n
-0.8691448	w g n
-0.53768533	y g n
-1.4190854	z g n
-1.7985402	# s n
-3.5045156	i s n
-3.745488	n s n
-3.22269	c s n
-2.652113	p s n
-2.6398096	t s n
-3.9910855	r s n
-3.5349917	e s n
-1.711205	g s n
-3.9551098	s s n
-3.7521412	u s n
-3.5753334	a s n
-2.9930818	m s n
-2.2703414	d s n
-3.8381815	b s n
-3.0546787	o s n
-1.1013331	k s n
-1.7516685	w s n
-1.1707026	# u n
-1.4697974	i u n
-1.0903196	n u n
-1.3764422	c u n
-1.7303205	p u n
-1.462161	t u n
-1.8177576	r u n
-0.955817	e u n
-1.3416193	g u n
-1.5921862	s u n
-2.1539273	u u n
-1.1747887	l u n
-1.8267136	a u n
-0.49902582	m u n
-1.1606612	d u n
-2.520044	b u n
-2.5856183	x u n
-1.7650787	h u n
-2.8489547	o u n
-1.1055019	f u n
-0.3178286	k u n
-1.3441597	w u n
-4.479633	q u n
-1.8417847	y u n
-1.6271379	z u n
-3.3297217	# l n
-4.1762934	i l n
-3.3291373	n l n
-4.593258	c l n
-4.277301	p l n
-2.7041032	t l n
-2.9404764	r l n
-2.6687899	e l n
-3.3742313	s l n
-2.6909168	u l n
-2.7549613	a l n
-3.8030972	b l n
-2.088807	h l n
-1.9406337	o l n
-3.493092	f l n
-0.8632734	# a n
-1.1159277	i a n
-1.4231439	n a n
-0.66966844	c a n
-1.4916061	p a n
-0.90189624	t a n
-0.8593341	r a n
-0.77145433	e a n
-0.9137136	g a n
-0.6299358	s a n
-1.0864066	u a n
-0.8775816	l a n
-1.0669512	a a n
-0.49947774	m a n
-1.1274737	d a n
-0.7586063	b a n
-0.60840625	x a n
-0.35828885	h a n
-0.7357743	o a n
-1.8708379	f a n
-1.7001779	k a n
-1.3738303	w a n
-1.0298891	y a n
-0.6238653	z a n
-3.4119766	# m n
-3.3267968	i m n
-1.9931412	n m n
-3.6229057	c m n
-3.6940284	p m n
-3.560868	t m n
-3.4578533	r m n
-2.4207518	e m n
-2.1683958	g m n
-3.2010803	s m n
-3.195235	u m n
-2.457007	a m n
-3.2236688	m m n
-3.4591968	d m n
-1.4269534	o m n
-0.70157397	k m n
-1.7840705	w m n
-2.5906274	y m n
-1.6607879	z m n
-1.7059048	# d n
-4.056837	i d n
-4.214669	n d n
-3.345719	c d n
-1.2949634	p d n
-3.6161573	r d n
-4.0815897	e d n
-3.8901637	u d n
-3.4370677	l d n
-3.1866872	a d n
-3.5115983	m d n
-3.4605176	d d n
-3.2204664	b d n
-3.5392365	o d n
-3.642595	# b n
-4.2400885	i b n
-2.61779	n b n
-2.768722	p b n
-3.832115	r b n
-4.155903	e b n
-3.3784964	u b n
-3.4054031	a b n
-3.8979383	m b n
-1.6267191	d b n
-4.147107	b b n
-2.9927125	o b n
-2.8036163	# x n
-3.2725117	i x n
-2.4648314	n x n
-1.1443692	r x n
-2.6821947	e x n
-1.1001961	s x n
-3.840828	u x n
-2.5408478	l x n
-2.8432887	a x n
-2.866452	x x n
-1.3331672	y x n
-1.4480703	z x n
-1.4294848	# h n
-4.1195154	c h n
-3.3381407	t h n
-2.2107635	r h n
-2.1639564	e h n
-2.7665994	g h n
-2.4892602	l h n
-2.57825	a h n
-3.2716434	d h n
-1.5786684	h h n
-3.9769866	o h n
-0.87864137	# o n
-0.76427925	i o n
-0.6929855	n o n
-0.2920592	c o n
-0.9512188	p o n
-1.7167296	t o n
-1.4539328	r o n
-1.2818553	e o n
-0.67829245	g o n
-0.54848814	s o n
-1.171973	u o n
-1.1039861	l o n
-0.9812105	a o n
-0.31915882	m o n
-0.745845	d o n
-0.22277674	b o n
-0.9308686	x o n
-0.87501645	h o n
-1.3838184	o o n
-1.0986173	f o n
-0.9569541	k o n
-1.3077806	w o n
-1.2945657	q o n
-0.46853203	y o n
-0.42990887	z o n
-3.9392037	# f n
-3.6611516	i f n
-3.8182166	e f n
-3.4717717	u f n
-3.315752	l f n
-2.6824212	a f n
-1.8516365	m f n
-3.3165936	# k n
-0.22055463	p k n
-2.3368478	s k n
-2.395516	# w n
-1.9725479	i w n
-1.2956748	c w n
-1.0163832	p w n
-1.7072486	t w n
-2.4690392	r w n
-2.145171	e w n
-1.9904859	s w n
-1.5032203	l w n
-1.9637514	a w n
-1.5032008	z w n
-3.6305742	# q n
-4.04938	i q n
-3.7819934	n q n
-3.819493	a q n
-3.18642	o q n
-2.145595	# y n
-0.99931234	i y n
-1.704133	n y n
-1.3169906	c y n
-0.9112298	p y n
-1.3884875	t y n
-1.6165324	r y n
-0.882473	e y n
-1.448595	g y n
-0.60821897	s y n
-1.4518436	u y n
-1.657367	l y n
-0.35968074	a y n
-0.7480091	m y n
-1.5702832	d y n
-2.0784116	b y n
-1.8322581	h y n
-1.2408493	o y n
-0.4370037	f y n
-0.6226967	k y n
-0.61943316	w y n
-0.26002532	q y n
-0.96350527	z y n
-1.5318455	# z n
-1.8856214	i z n
-1.9393938	n z n
-1.9690529	c z n
-0.50108594	p z n
-1.0759484	t z n
-2.0931466	r z n
-1.1882135	e z n
-1.5736681	g z n
-1.3402314	s z n
-1.79631	u z n
-1.9379233	l z n
-2.2196133	a z n
-0.59403855	m z n
-0.83354396	d z n
-1.087107	b z n
-1.7804515	h z n
-1.4417928	o z n
-0.8797844	w z n
-1.106624	<s> # c
-1.109585	i # c
-1.0966198	n # c
-1.2656512	c # c
-1.246338	p # c
-1.046046	t # c
-1.2223217	r # c
-1.0344609	e # c
-1.1761875	g # c
-1.1795518	s # c
-1.0899707	u # c
-1.2678947	l # c
-1.0525863	a # c
-1.1034861	m # c
-1.2035514	d # c
-1.2252736	b # c
-1.0643276	x # c
-0.9911722	h # c
-1.0779679	o # c
-1.3965522	f # c
-1.1338232	k # c
-1.0510577	w # c
-1.2982453	q # c
-1.1185151	y # c
-1.0372529	z # c
-3.1922452	# i c
-2.6696422	i i c
-1.1798158	n i c
-2.7624981	c i c
-1.5342957	p i c
-1.5662498	t i c
-1.4204412	r i c
-2.7802777	e i c
-2.3481617	g i c
-1.2680993	s i c
-1.3796312	u i c
-0.8561302	l i c
-1.050524	a i c
-1.5085185	m i c
-0.67230654	d i c
-2.1124828	b i c
-3.2245831	x i c
-2.099687	h i c
-0.47207403	o i c
-0.51675475	f i c
-0.6728699	w i c
-1.3004402	y i c
-1.816643	z i c
-3.5232425	# n c
-1.4038404	i n c
-4.1284156	n n c
-2.888126	c n c
-3.2352014	p n c
-1.9287939	t n c
-3.5521517	r n c
-2.7347898	e n c
-3.374886	g n c
-2.7930808	s n c
-0.8849001	u n c
-1.3580918	a n c
-3.5951233	d n c
-2.0438514	x n c
-3.181423	h n c
-1.2485372	o n c
-1.520413	w n c
-2.358087	y n c
-1.8389052	z n c
-2.9821193	# c c
-2.4741693	i c c
-3.388974	n c c
-2.4520285	c c c
-1.1141126	p c c
-3.4667997	r c c
-0.5101956	e c c
-1.2201827	g c c
-3.5845304	s c c
-1.0098135	u c c
-2.8050032	l c c
-1.3175309	a c c
-0.4978273	m c c
-2.6275153	d c c
-3.006828	x c c
-1.5434495	h c c
-1.2221596	o c c
-3.5868149	f c c
-1.111804	k c c
-0.14019342	w c c
-4.025873	# p c
-4.2876253	i p c
-2.237746	n p c
-3.8005471	p p c
-4.4440336	e p c
-3.8819032	s p c
-4.016073	u p c
-4.17396	a p c
-4.1039124	m p c
-1.7448785	d p c
-4.146627	o p c
-4.0336103	# t c
-4.2811813	i t c
-3.744059	n t c
-4.19831	c t c
-4.17803	t t c
-3.8947902	r t c
-1.902618	e t c
-4.020084	s t c
-3.6649065	u t c
-4.256847	a t c
-3.7344255	m t c
-1.8956842	d t c
-3.782773	b t c
-3.3157132	o t c
-2.2300093	f t c
-2.166072	y t c
-3.2135248	# r c
-1.1077303	i r c
-3.6623876	n r c
-4.0542946	c r c
-3.147782	p r c
-4.309146	t r c
-2.9876468	r r c
-1.5610677	e r c
-3.763439	g r c
-2.656572	s r c
-2.1534114	u r c
-2.9400005	l r c
-0.9442476	a r c
-3.1387975	d r c
-3.6736176	b r c
-2.4828844	x r c
-2.681344	o r c
-4.246463	f r c
-2.030581	w r c
-2.2146654	y r c
-1.7935573	z r c
-0.89524454	# e c
-1.6109676	i e c
-1.262877	n e c
-2.1220388	c e c
-1.183337	p e c
-2.2814348	t e c
-1.1534845	r e c
-0.574077	e e c
-3.4037983	g e c
-1.0263537	s e c
-2.3549	u e c
-0.6520015	l e c
-1.6138777	a e c
-2.5548463	m e c
-1.0636158	d e c
-2.5756948	b e c
-0.72178745	x e c
-1.1152453	h e c
-0.9961666	o e c
-0.54941267	f e c
-1.8449981	k e c
-2.0060947	w e c
-2.2001257	y e c
-1.7185526	z e c
-2.6080446	# g c
-4.223153	i g c
-3.512705	n g c
-1.0331608	c g c
-1.4320303	p g c
-1.9175599	t g c
-3.6340787	r g c
-3.66834	e g c
-2.6002133	g g c
-3.7089636	u g c
-4.0205197	a g c
-0.4514628	m g c
-1.4324527	d g c
-3.4065545	o g c
-0.89013255	k g c
-0.89013255	w g c
-0.86244893	# s c
-1.739282	i s c
-2.0094573	n s c
-3.0803685	c s c
-3.0737832	p s c
-1.8563285	t s c
-2.51335	r s c
-1.7821355	e s c
-1.6529567	g s c
-3.37742	s s c
-1.6935333	u s c
-1.8345286	l s c
-1.4961249	a s c
-2.5075865	m s c
-1.1076367	d s c
-1.6641518	b s c
-1.741888	x s c
-1.5570028	h s c
-1.454243	o s c
-1.178194	f s c
-1.0693238	k s c
-2.3815124	y s c
-1.8201035	z s c
-3.5838697	# u c
-3.3272579	i u c
-2.46276	n u c
-3.0953882	c u c
-2.5375893	p u c
-3.3835542	t u c
-1.4115821	r u c
-2.748544	e u c
-3.331513	g u c
-1.6005405	s u c
-2.5288095	u u c
-1.3137903	l u c
-0.98185563	a u c
-2.5410652	m u c
-1.0001212	d u c
-2.7380428	b u c
-1.3554598	h u c
-2.667592	o u c
-2.8217807	f u c
-1.568908	k u c
-1.9616079	w u c
-3.8140426	q u c
-1.3788105	z u c
-3.8484285	# l c
-3.668867	i l c
-3.278976	n l c
-4.4602323	c l c
-4.320842	p l c
-2.7597263	t l c
-3.353166	r l c
-2.6477106	e l c
-3.4700015	g l c
-3.239395	s l c
-2.1106517	u l c
-4.268227	l l c
-2.353328	a l c
-2.5811484	m l c
-2.1244593	d l c
-3.7447147	b l c
-2.0343857	h l c
-3.2106912	o l c
-2.7834444	f l c
-1.0503653	# a c
-1.0507143	i a c
-1.4166454	n a c
-2.1914632	c a c
-1.3864465	p a c
-2.25594	t a c
-1.4033577	r a c
-2.547214	e a c
-2.7324302	g a c
-1.2883255	s a c
-1.1849065	u a c
-1.4813561	l a c
-1.6342921	a a c
-1.9505826	m a c
-2.0778162	d a c
-1.9649546	b a c
-1.030639	x a c
-0.98658985	h a c
-0.7260728	o a c
-0.34107003	f a c
-1.8082646	w a c
-0.96557844	y a c
-1.3063624	z a c
-2.6660683	# m c
-4.205179	i m c
-2.7238505	n m c
-3.5510595	c m c
-3.9886127	p m c
-4.0909166	r m c
-3.0997596	e m c
-3.2649267	s m c
-2.6531749	u m c
-2.802165	a m c
-3.7561545	m m c
-3.6379507	d m c
-4.058066	o m c
-3.2794175	y m c
-1.8358725	z m c
-1.1906924	# d c
-3.31627	i d c
-4.6097865	n d c
-1.8672888	p d c
-3.9898157	r d c
-4.3053384	e d c
-4.227908	u d c
-3.9035783	a d c
-3.1017852	m d c
-2.9776797	b d c
-1.8331141	x d c
-2.6106715	o d c
-3.299944	y d c
-3.9429593	# b c
-4.807008	i b c
-3.7600324	p b c
-4.4269905	e b c
-2.5645907	u b c
-3.4397416	l b c
-4.3851433	a b c
-3.9675767	m b c
-2.2263246	d b c
-2.644369	# x c
-1.1219978	c x c
-1.670289	r x c
-0.8689804	e x c
-3.79491	u x c
-2.833259	a x c
-1.3473772	m x c
-1.0485525	d x c
-0.54487693	b x c
-2.9403613	x x c
-0.5464639	h x c
-0.7008359	k x c
-1.0315634	w x c
-1.5482616	z x c
-3.792211	# h c
-2.6009412	i h c
-4.266323	c h c
-3.4002855	t h c
-2.5989456	r h c
-2.192652	s h c
-1.797545	u h c
-2.3342383	l h c
-2.7432623	a h c
-3.2506847	d h c
-3.9554906	o h c
-1.743553	f h c
-0.94035524	# o c
-0.9010782	i o c
-2.2421124	n o c
-3.2138066	c o c
-3.0069244	p o c
-3.0547392	t o c
-0.99399084	r o c
-2.587949	e o c
-2.0458946	g o c
-1.2239478	s o c
-1.0762829	u o c
-0.8065865	l o c
-1.6572164	a o c
-2.9454837	m o c
-1.5813731	d o c
-2.0386095	b o c
-3.0934117	x o c
-0.53646314	h o c
-1.8669108	o o c
-2.4310458	f o c
-1.5551752	k o c
-1.3093116	w o c
-1.7434192	y o c
-1.5995656	z o c
-1.3977847	# f c
-3.2361457	i f c
-3.5633523	n f c
-2.8688455	r f c
-3.3015153	e f c
-3.3898742	u f c
-3.1033244	l f c
-3.6376185	o f c
-3.2266023	f f c
-1.7749857	z f c
-3.7424939	# k c
-2.1113288	r k c
-2.3167148	e k c
-1.9871202	l k c
-1.168623	h k c
-1.7910051	# w c
-2.2121284	e w c
-1.6087376	g w c
-2.1905527	s w c
-1.0914905	m w c
-1.879461	d w c
-2.1317825	o w c
-1.3502027	f w c
-3.9559565	# q c
-3.4532576	c q c
-1.7529752	# y c
-1.3655134	n y c
-1.8930559	c y c
-2.5711036	t y c
-1.548285	e y c
-1.7886438	s y c
-1.1771775	u y c
-2.5918062	l y c
-1.4715165	a y c
-1.9476963	d y c
-1.6633896	b y c
-2.7026548	h y c
-1.2863448	o y c
-1.2249422	k y c
-1.035723	w y c
-2.7102141	# z c
-2.6441884	i z c
-2.0211992	n z c
-2.2052855	c z c
-2.2786837	t z c
-1.4448583	r z c
-2.0981476	e z c
-1.8854388	s z c
-1.8827057	u z c
-2.2351599	a z c
-1.5930415	m z c
-1.5587764	d z c
-1.0367109	h z c
-2.2398715	o z c
-1.0566583	f z c
-1.5489887	z z c
-1.2120327	<s> # p
-1.0119636	i # p
-1.0767403	n # p
-0.8855965	c # p
-1.0338464	p # p
-1.0043292	t # p
-1.108689	r # p
-0.95023113	e # p
-1.1791141	g # p
-1.0377291	s # p
-1.02573	u # p
-1.0885314	l # p
-0.9847579	a # p
-0.94102234	m # p
-1.0259924	d # p
-1.1275256	b # p
-0.7516558	x # p
-1.0019709	h # p
-1.0104108	o # p
-0.88214326	f # p
-1.1721778	k # p
-0.91259265	w # p
-1.2982453	q # p
-1.2604743	y # p
-1.2375448	z # p
-0.90664715	# i p
-3.493993	i i p
-2.9638894	n i p
-1.144177	c i p
-2.6314342	p i p
-2.467279	t i p
-1.5444527	r i p
-2.3807056	e i p
-2.6720188	g i p
-2.8485494	s i p
-3.3177447	u i p
-2.208627	l i p
-2.6376824	a i p
-3.2025244	m i p
-3.1239738	d i p
-2.6922078	b i p
-3.4924467	x i p
-1.4348588	h i p
-3.2271926	o i p
-4.402425	f i p
-2.4053764	k i p
-2.517949	w i p
-1.5235829	y i p
-2.6609704	z i p
-4.1592155	# n p
-3.5605357	i n p
-3.9801314	n n p
-3.3234742	p n p
-3.5044734	r n p
-4.0820284	e n p
-4.3521485	g n p
-3.4080403	s n p
-3.5775363	u n p
-3.087182	l n p
-4.0005145	a n p
-3.7685344	o n p
-4.3366027	# c p
-4.990407	i c p
-4.5186768	n c p
-4.22293	c c p
-3.3678584	t c p
-4.1872754	r c p
-4.9774594	e c p
-4.3026156	s c p
-3.1472278	l c p
-4.34622	a c p
-4.5783505	o c p
-3.3025382	# p p
-1.5302078	i p p
-2.0558312	n p p
-1.5115018	c p p
-3.451743	p p p
-2.7859147	t p p
-3.0374458	r p p
-2.7793744	e p p
-4.073629	s p p
-0.8797245	u p p
-2.4951687	l p p
-1.0456464	a p p
-4.205112	m p p
-1.6077532	d p p
-1.275583	h p p
-1.3084567	o p p
-1.0530779	w p p
-0.5431732	q p p
-1.8222445	y p p
-1.4687346	z p p
-4.1845603	# t p
-4.3950458	i t p
-3.6254702	n t p
-4.708813	c t p
-4.226963	p t p
-4.0387645	r t p
-4.081872	e t p
-2.365984	s t p
-2.6021254	u t p
-3.9492633	l t p
-4.7893295	a t p
-2.7015796	h t p
-4.2786884	o t p
-1.3991113	w t p
-3.617164	# r p
-2.6994414	i r p
-4.2639217	n r p
-4.0762014	c r p
-4.6542645	p r p
-4.5362277	t r p
-4.0074296	r r p
-2.061987	e r p
-2.5087838	u r p
-3.0551744	l r p
-2.9198682	a r p
-2.4001472	m r p
-2.1564546	o r p
-1.2545911	# e p
-1.1718807	i e p
-1.8936706	n e p
-1.1650578	c e p
-3.326912	p e p
-2.1271412	t e p
-1.7026099	r e p
-2.409479	e e p
-3.6824665	g e p
-1.3906269	s e p
-3.5553195	u e p
-2.6958966	l e p
-1.7130387	a e p
-3.5942833	m e p
-1.8086494	d e p
-4.112688	b e p
-3.750845	x e p
-3.2102938	h e p
-3.0622308	o e p
-4.122501	f e p
-2.3070905	k e p
-2.7853482	w e p
-2.55147	y e p
-2.088746	z e p
-3.8486414	# g p
-4.263496	i g p
-3.7443874	r g p
-4.3742113	e g p
-2.3233352	s g p
-3.8530462	u g p
-3.858172	l g p
-3.8927274	a g p
-1.5063529	d g p
-3.7080116	o g p
-1.3705835	# s p
-1.7462695	i s p
-1.6744502	n s p
-3.3511498	c s p
-3.5744154	p s p
-2.1931853	t s p
-2.4899058	r s p
-2.0721388	e s p
-3.7591221	s s p
-2.0247712	u s p
-1.9511876	l s p
-2.294465	a s p
-0.3789436	m s p
-2.4893618	d s p
-0.58162606	x s p
-1.5995934	h s p
-1.4360727	o s p
-1.1709411	y s p
-3.437644	# u p
-4.1813445	i u p
-1.6597191	n u p
-1.5556258	c u p
-2.3990355	p u p
-3.4587848	t u p
-2.5271642	r u p
-2.627445	e u p
-0.5878758	s u p
-3.3527434	u u p
-2.154327	l u p
-1.9906816	a u p
-4.2959995	m u p
-2.6164024	d u p
-4.686049	b u p
-2.5025291	x u p
-4.080332	h u p
-3.098498	o u p
-1.9877276	w u p
-4.58323	q u p
-2.3098886	z u p
-3.7987218	# l p
-4.090876	i l p
-2.8803148	t l p
-3.10698	e l p
-3.1601617	s l p
-1.8914773	u l p
-4.583285	l l p
-2.6298707	a l p
-2.690832	m l p
-2.9609003	o l p
-1.8066621	w l p
-2.8744175	y l p
-0.9534659	# a p
-3.802914	i a p
-3.207287	n a p
-0.97435796	c a p
-0.9810373	p a p
-3.431316	t a p
-2.6038308	r a p
-1.7489623	e a p
-2.3713994	g a p
-2.429413	s a p
-2.743597	u a p
-1.8718283	l a p
-1.8558804	a a p
-4.07493	m a p
-2.6529825	d a p
-1.8307662	b a p
-3.1072264	h a p
-1.4524415	o a p
-4.0794673	f a p
-1.95797	w a p
-2.1145744	z a p
-3.8013809	# m p
-0.9134919	i m p
-2.3480182	n m p
-3.4690588	t m p
-3.7426977	r m p
-0.88517	e m p
-3.129327	s m p
-1.6914136	u m p
-3.377952	l m p
-1.3624884	a m p
-4.0733294	m m p
-3.6223245	d m p
-0.9119721	o m p
-1.0599731	q m p
-1.5126112	y m p
-1.5944148	z m p
-4.1149383	# d p
-4.3035183	i d p
-4.6829815	n d p
-1.9416822	p d p
-4.833278	e d p
-4.4268765	u d p
-3.662049	a d p
-3.6889477	d d p
-4.10394	o d p
-3.9280646	# b p
-4.674889	i b p
-1.6816704	c b p
-2.730833	u b p
-3.39475	l b p
-4.0897555	a b p
-2.180595	d b p
-1.0183144	h b p
-3.0379436	o b p
-0.9831023	k b p
-2.029396	z b p
-0.49966294	# x p
-3.2369998	i x p
-2.5283425	n x p
-2.374602	c x p
-1.1453129	t x p
-1.8489099	r x p
-0.87499154	e x p
-3.5713658	a x p
-3.056474	x x p
-4.2405386	# h p
-3.768555	c h p
-2.170595	s h p
-2.4696953	l h p
-1.278237	# o p
-3.6012275	i o p
-2.5051107	n o p
-2.1464708	c o p
-1.6945794	p o p
-3.1782808	t o p
-1.1056346	r o p
-2.2677765	e o p
-3.358442	g o p
-2.2557638	s o p
-3.598442	u o p
-2.7308252	l o p
-2.8525748	a o p
-3.8149095	m o p
-2.909255	d o p
-3.3333898	b o p
-2.5618124	x o p
-3.2647247	h o p
-0.35037047	o o p
-3.8750134	f o p
-2.8037348	y o p
-2.690223	z o p
-3.9392037	# f p
-3.6611516	i f p
-2.1469882	t f p
-4.1119037	e f p
-3.4717717	u f p
-3.4178078	a f p
-1.6866825	b f p
-3.8342872	# k p
-1.6773529	f k p
-3.2783017	# w p
-2.4265988	r w p
-2.108228	a w p
-1.7037162	w w p
-4.986798	# q p
-1.1926973	# y p
-0.27202687	c y p
-0.7436536	p y p
-1.299843	t y p
-1.4238603	r y p
-2.631138	e y p
-0.32310492	g y p
-1.9826677	s y p
-1.8614547	u y p
-2.5918062	l y p
-1.4903607	d y p
-2.0022516	h y p
-2.4458585	o y p
-1.8571699	w y p
-1.0151576	z y p
-2.3736517	# z p
-2.4237196	t z p
-1.7659419	r z p
-2.7092292	e z p
-2.0874414	s z p
-2.557814	u z p
-2.5647569	l z p
-1.6879939	h z p
-2.2547743	z z p
-1.6958036	<s> # t
-1.5387414	i # t
-1.5192276	n # t
-1.4890803	c # t
-1.2397035	p # t
-1.620837	t # t
-1.3703375	r # t
-1.4968777	e # t
-1.1910214	g # t
-1.5978904	s # t
-1.5299596	u # t
-1.7870581	l # t
-1.4498935	a # t
-1.5495088	m # t
-1.485018	d # t
-1.6866293	b # t
-1.3126439	x # t
-1.2793882	h # t
-1.3736515	o # t
-2.0917065	f # t
-1.7549645	k # t
-1.6247853	w # t
-1.0187426	q # t
-1.3855113	y # t
-1.5048099	z # t
-1.7234645	# i t
-2.256136	i i t
-1.0406003	n i t
-0.99684215	c i t
-0.64528555	p i t
-1.1202499	t i t
-0.92130417	r i t
-2.1649432	e i t
-0.7345593	g i t
-0.80566967	s i t
-0.8059391	u i t
-0.98878723	l i t
-1.6251966	a i t
-0.69131607	m i t
-1.1933457	d i t
-0.6801633	b i t
-1.1058576	x i t
-2.393392	h i t
-1.7757864	o i t
-2.0799346	f i t
-2.2081382	k i t
-1.5030789	w i t
-0.9067134	y i t
-1.4703039	z i t
-3.4767475	# n t
-1.0159926	i n t
-3.4993544	n n t
-2.2350209	c n t
-3.3305085	p n t
-1.3926772	t n t
-3.1879852	r n t
-0.50159657	e n t
-4.211898	g n t
-3.0663419	s n t
-0.84210825	u n t
-2.4124486	l n t
-0.69930184	a n t
-2.952784	m n t
-3.3886745	d n t
-0.14900324	h n t
-0.95137805	o n t
-0.9400247	f n t
-2.1341715	y n t
-1.6697876	z n t
-3.100431	# c t
-0.68074137	i c t
-0.97335273	n c t
-3.766562	c c t
-1.032173	p c t
-3.2242205	t c t
-2.6713448	r c t
-0.61758196	e c t
-1.5437161	g c t
-3.7678776	s c t
-0.33279115	u c t
-1.352311	l c t
-1.0560639	a c t
-2.2452803	m c t
-3.4428446	d c t
-1.4023018	b c t
-3.7787712	x c t
-1.3747077	h c t
-1.0662022	o c t
-3.0947247	f c t
-1.2586726	q c t
-1.9651734	z c t
-3.9829624	# p t
-0.98190755	i p t
-0.9207526	n p t
-1.3073604	c p t
-3.7891762	p p t
-2.7101467	t p t
-2.2936165	r p t
-0.79122764	e p t
-1.3045547	g p t
-4.0948105	s p t
-2.187215	u p t
-2.70686	l p t
-1.7266679	a p t
-0.86546755	m p t
-2.0309207	b p t
-0.6592757	o p t
-1.1580411	y p t
-1.4942127	z p t
-3.0069835	# t t
-1.1794446	i t t
-3.8460634	n t t
-3.9987917	c t t
-3.5832527	p t t
-3.2736735	t t t
-3.3799093	r t t
-2.2688396	e t t
-1.9396796	g t t
-3.7752035	s t t
-2.88562	u t t
-2.8757858	l t t
-1.8636612	a t t
-3.1829486	m t t
-3.5960975	b t t
-3.7493436	x t t
-2.7270563	h t t
-1.594056	o t t
-1.672432	f t t
-2.1257203	y t t
-1.6453178	z t t
-2.9709997	# r t
-1.6586618	i r t
-3.5362785	n r t
-3.3815536	c r t
-4.0923553	p r t
-4.309146	t r t
-2.9697974	r r t
-1.136857	e r t
-3.8727198	g r t
-1.8367637	s r t
-2.180053	u r t
-2.8217866	l r t
-0.90894365	a r t
-2.2868185	m r t
-3.6045709	d r t
-3.6003711	b r t
-2.4828844	x r t
-3.3661284	h r t
-1.3051169	o r t
-3.63095	f r t
-2.030581	w r t
-0.40722287	# e t
-1.2101761	i e t
-1.3901459	n e t
-1.2481681	c e t
-0.9112715	p e t
-2.184084	t e t
-1.2154027	r e t
-1.1938295	e e t
-1.1676081	g e t
-1.3968985	s e t
-1.352534	u e t
-1.4957908	l e t
-1.6300077	a e t
-1.427123	m e t
-1.8723023	d e t
-1.1637354	b e t
-2.123318	x e t
-1.8872496	h e t
-2.475755	o e t
-2.907703	f e t
-1.0061806	k e t
-1.5454748	w e t
-1.3649144	q e t
-1.4368416	y e t
-1.46546	z e t
-3.7229009	# g t
-3.367983	i g t
-2.5581844	n g t
-1.5436367	p g t
-3.6671143	r g t
-3.4850624	e g t
-2.3449883	s g t
-3.4011104	u g t
-3.500977	a g t
-1.3957653	# s t
-1.2962247	i s t
-0.76035595	n s t
-2.0482566	c s t
-2.712213	p s t
-1.7550044	t s t
-1.9014649	r s t
-0.7990452	e s t
-0.7356951	g s t
-3.304322	s s t
-1.2466837	u s t
-1.9040743	l s t
-0.48794717	a s t
-0.8916113	m s t
-0.9566567	d s t
-0.4823225	b s t
-0.7188272	x s t
-0.985172	h s t
-0.9711093	o s t
-1.6079028	f s t
-0.7413808	k s t
-1.0120505	w s t
-1.2989473	y s t
-0.89148545	z s t
-0.8164051	# u t
-1.8184946	i u t
-1.8847673	n u t
-1.0549514	c u t
-0.8836918	p u t
-1.1749458	t u t
-1.0899804	r u t
-1.6964719	e u t
-1.7796209	g u t
-2.4411564	s u t
-1.4277314	u u t
-0.90908414	l u t
-0.87578523	a u t
-1.0006506	m u t
-1.8944045	d u t
-1.7997296	b u t
-2.2281764	x u t
-2.5396857	h u t
-0.94236964	o u t
-1.0306207	f u t
-1.7650654	w u t
-4.353195	q u t
-1.8516628	y u t
-1.6300421	z u t
-2.9168074	# l t
-2.464297	i l t
-2.4398906	n l t
-3.2658253	c l t
-3.3131025	p l t
-1.9238555	t l t
-2.8297825	r l t
-2.4130814	e l t
-3.4700015	g l t
-2.2366235	s l t
-0.97720855	u l t
-3.599874	l l t
-1.3992343	a l t
-2.4614341	m l t
-2.4978044	x l t
-2.6876552	o l t
-3.2132525	f l t
-0.9250783	w l t
-2.5537577	y l t
-1.8043151	# a t
-1.4492704	i a t
-0.77273846	n a t
-0.82961	c a t
-0.8213639	p a t
-0.49121892	t a t
-0.70289904	r a t
-0.5038338	e a t
-0.4439073	g a t
-0.9513607	s a t
-0.8394624	u a t
-0.57229984	l a t
-1.2736021	a a t
-0.97893804	m a t
-0.5132001	d a t
-0.52757317	b a t
-0.6395793	x a t
-1.4750992	h a t
-1.3240889	o a t
-0.5356157	f a t
-1.0904433	k a t
-1.254368	w a t
-0.65824145	q a t
-2.073136	y a t
-1.3804836	z a t
-3.8384237	# m t
-1.6493424	i m t
-3.3792636	t m t
-2.114721	r m t
-1.7975731	e m t
-0.08620459	g m t
-2.6643007	s m t
-1.8427067	u m t
-2.5563262	l m t
-1.479325	a m t
-2.557454	m m t
-3.405535	d m t
-2.7534785	o m t
-1.8527882	z m t
-3.847206	# d t
-4.1773825	i d t
-4.514641	n d t
-3.922396	r d t
-4.1033	e d t
-4.063991	s d t
-3.9263723	u d t
-3.4863064	l d t
-3.9202783	a d t
-3.503006	o d t
-3.7548518	# b t
-1.9946526	i b t
-1.6471664	c b t
-4.3230042	e b t
-2.6393363	s b t
-1.7001351	u b t
-3.3539855	l b t
-2.956146	a b t
-3.756901	m b t
-4.1280594	b b t
-1.5743285	h b t
-0.98898	o b t
-1.214216	w b t
-2.3763041	# x t
-1.2586339	i x t
-2.2239678	c x t
-1.8986422	r x t
-0.9715827	e x t
-0.5631574	u x t
-2.919139	a x t
-1.5278112	m x t
-1.330759	d x t
-2.1048055	x x t
-2.9604833	o x t
-0.26975536	y x t
-1.8629693	# h t
-2.4875998	i h t
-2.911878	c h t
-3.2476747	p h t
-3.5726995	t h t
-1.9616187	r h t
-2.6725652	e h t
-1.8344207	g h t
-1.5559037	u h t
-2.44956	l h t
-2.3984795	a h t
-1.5477128	h h t
-3.813531	o h t
-2.2295752	# o t
-2.6670215	i o t
-1.58019	n o t
-2.525743	c o t
-1.0622438	p o t
-1.862017	t o t
-1.8530176	r o t
-2.1164958	e o t
-0.5072355	g o t
-2.7956984	s o t
-1.1846379	u o t
-2.048789	l o t
-0.778429	a o t
-1.591449	m o t
-1.580982	d o t
-2.1370556	b o t
-3.0846946	x o t
-2.660868	h o t
-2.0914533	o o t
-2.9327447	f o t
-1.7818985	k o t
-1.4960352	w o t
-1.2945657	q o t
-2.6585972	y o t
-1.940961	z o t
-3.0290926	# f t
-2.9451263	i f t
-4.1603155	n f t
-2.0292878	t f t
-3.2641227	e f t
-3.3737385	s f t
-3.3427649	u f t
-3.1880345	l f t
-2.1927862	a f t
-2.643005	o f t
-3.805515	f f t
-1.7379397	z f t
-3.8342872	# k t
-2.0246322	a k t
-2.5547278	# w t
-1.817528	n w t
-1.6577653	c w t
-2.5931332	r w t
-2.371306	e w t
-2.1943874	a w t
-1.9725294	o w t
-4.4037294	# q t
-4.0061913	n q t
-3.3963237	c q t
-0.7184552	p q t
-1.9956939	# y t
-1.3192226	i y t
-2.269566	c y t
-2.2244308	t y t
-1.1887212	r y t
-2.1574285	e y t
-1.749179	g y t
-2.1966665	s y t
-1.741924	u y t
-1.2058469	l y t
-1.6459037	a y t
-1.3003858	d y t
-0.8700409	b y t
-1.2937076	h y t
-1.7788298	o y t
-1.3454468	w y t
-2.0512147	# z t
-2.0678859	i z t
-2.3921542	n z t
-1.826909	c z t
-1.7699454	p z t
-2.2448103	t z t
-2.4610703	r z t
-1.9636697	e z t
-1.9416736	s z t
-1.9557126	u z t
-2.3835132	l z t
-2.763384	a z t
-1.5724058	m z t
-1.8861288	d z t
-1.5522242	x z t
-2.211684	o z t
-1.227528	y z t
-2.0771837	z z t
-1.2365665	<s> # r
-1.5424519	i # r
-1.7348942	n # r
-1.512405	c # r
-1.4800049	p # r
-1.5448247	t # r
-1.6303692	r # r
-1.4583757	e # r
-1.6099919	g # r
-1.6087484	s # r
-1.514204	u # r
-1.7263705	l # r
-1.5021433	a # r
-1.5454848	m # r
-1.4012522	d # r
-1.8059494	b # r
-1.7234617	x # r
-1.3232654	h # r
-1.5209554	o # r
-0.6752192	f # r
-1.0678234	k # r
-1.3695238	w # r
-1.4135858	y # r
-1.4532157	z # r
-2.0479298	# i r
-2.8878112	i i r
-1.9580951	n i r
-1.5918186	c i r
-1.2966226	p i r
-2.6872275	t i r
-2.6355078	r i r
-2.6054091	e i r
-2.0564995	g i r
-2.3086607	s i r
-1.263772	u i r
-2.88671	l i r
-1.6399207	a i r
-2.0691843	m i r
-1.7038351	d i r
-2.0976005	b i r
-1.4274396	x i r
-2.7634978	h i r
-2.055139	o i r
-0.91616344	f i r
-0.6514544	k i r
-1.2311174	w i r
-1.3967988	y i r
-1.7164212	z i r
-0.78296983	# n r
-3.4238694	i n r
-4.1122613	n n r
-3.061349	c n r
-2.8622139	p n r
-1.5519983	t n r
-2.7078824	r n r
-2.3471475	e n r
-3.270503	g n r
-3.2255862	u n r
-2.838048	l n r
-3.7137787	a n r
-3.2921438	m n r
-3.4652796	d n r
-1.7425984	b n r
-2.1527982	x n r
-3.2793527	h n r
-2.5412722	o n r
-1.4997855	f n r
-3.1417599	y n r
-1.8291148	z n r
-1.8169826	# c r
-4.069045	i c r
-2.0218158	n c r
-2.826934	c c r
-1.2019191	p c r
-2.898903	t c r
-3.3138924	r c r
-1.8742291	e c r
-1.0324534	g c r
-0.8008537	s c r
-2.5369737	u c r
-1.3005086	l c r
-1.7126462	a c r
-2.4381194	m c r
-3.138855	d c r
-1.5743414	b c r
-2.025067	x c r
-2.430216	o c r
-1.1731691	f c r
-1.8503472	w c r
-1.2676216	q c r
-0.33366123	# p r
-2.5030937	i p r
-0.8870965	n p r
-1.275705	c p r
-1.0670425	p p r
-1.49281	t p r
-1.5421547	r p r
-1.8073221	e p r
-0.8431446	g p r
-2.2852514	s p r
-0.71138483	u p r
-1.964158	l p r
-1.4252148	a p r
-1.450453	m p r
-0.62912124	d p r
-0.16649584	b p r
-0.8078116	x p r
-0.91067964	o p r
-0.36119002	f p r
-0.8604779	w p r
-0.34826314	y p r
-1.0510848	z p r
-0.9560454	# t r
-2.2916322	i t r
-1.2784085	n t r
-2.9020793	c t r
-3.2406397	p t r
-1.4911196	t t r
-1.9374278	r t r
-1.2668293	e t r
-1.8095721	g t r
-0.87522113	s t r
-1.8492049	u t r
-1.2624326	l t r
-1.5165645	a t r
-3.3352904	m t r
-1.7005515	d t r
-1.2883775	b t r
-0.8189018	x t r
-2.476633	h t r
-2.2472858	o t r
-1.5769018	f t r
-1.1627767	w t r
-1.1415323	z t r
-2.3755248	# r r
-1.2656493	i r r
-3.5362785	n r r
-3.4949462	c r r
-4.392792	p r r
-3.9893687	t r r
-2.4162698	r r r
-1.4714789	e r r
-4.102949	g r r
-2.8560739	s r r
-1.4141289	u r r
-2.8217866	l r r
-1.869749	a r r
-2.0676863	m r r
-3.6045709	d r r
-3.8725069	b r r
-1.4742045	x r r
-3.3661284	h r r
-1.8256989	o r r
-3.5826333	f r r
-1.0262036	w r r
-1.9991745	# e r
-1.2904122	i e r
-0.9304975	n e r
-0.9711132	c e r
-0.25015783	p e r
-0.62497824	t e r
-2.0127985	r e r
-1.6713523	e e r
-0.6317136	g e r
-0.8683561	s e r
-0.5519192	u e r
-1.181341	l e r
-2.0742354	a e r
-0.6348841	m e r
-1.3841046	d e r
-0.772699	b e r
-0.2894737	x e r
-0.55109024	h e r
-2.7770529	o e r
-0.5174019	f e r
-0.9407028	k e r
-0.6711078	w e r
-1.3649144	q e r
-1.1074476	y e r
-1.33826	z e r
-0.47886133	# g r
-2.0448263	i g r
-1.0223159	n g r
-1.3640547	c g r
-1.354937	p g r
-0.3585158	t g r
-2.5807786	r g r
-1.3292676	e g r
-0.45884097	g g r
-0.31160948	s g r
-2.9321735	u g r
-2.685179	l g r
-0.5079452	a g r
-1.4567214	m g r
-0.9208472	d g r
-0.20242032	x g r
-1.015709	h g r
-1.8604877	o g r
-0.8590194	f g r
-0.8590194	k g r
-1.5549614	y g r
-1.6002768	z g r
-3.7201476	# s r
-3.435862	i s r
-3.2490954	n s r
-3.3651888	c s r
-2.7624335	t s r
-4.080617	r s r
-3.8529265	e s r
-1.7238544	g s r
-3.9116592	s s r
-3.8790643	u s r
-2.2519047	a s r
-2.3801024	d s r
-2.5170841	x s r
-1.7552729	h s r
-3.2971656	o s r
-1.7618407	w s r
-1.8577847	z s r
-1.0910451	# u r
-0.98676306	i u r
-2.9492967	n u r
-0.72437346	c u r
-1.6828009	p u r
-1.1062931	t u r
-2.6782677	r u r
-1.7296518	e u r
-1.7109911	g u r
-1.510695	s u r
-2.1086733	u u r
-1.2167774	l u r
-1.069311	a u r
-0.96162915	m u r
-1.7918477	d u r
-1.3931015	b u r
-1.3158163	x u r
-2.4864569	h u r
-1.9204627	o u r
-1.4711714	f u r
-1.3985868	k u r
-1.2279572	w u r
-4.3500867	q u r
-1.8417847	y u r
-0.94652414	z u r
-2.873401	# l r
-3.49994	i l r
-1.7642801	n l r
-3.8354342	c l r
-4.2351522	p l r
-1.9679071	t l r
-2.509594	r l r
-2.571506	e l r
-3.4700015	g l r
-1.181348	s l r
-3.2174253	u l r
-3.284767	l l r
-2.7463012	a l r
-3.622795	b l r
-1.4683334	x l r
-3.2443178	o l r
-2.4299893	f l r
-1.7077107	w l r
-2.0484602	y l r
-1.157413	# a r
-1.1758989	i a r
-1.0369878	n a r
-0.8663587	c a r
-0.45597556	p a r
-1.1909213	t a r
-1.2097476	r a r
-1.2781488	e a r
-0.84198296	g a r
-1.0113477	s a r
-0.8254041	u a r
-0.8333616	l a r
-1.2751307	a a r
-0.6659737	m a r
-1.4146987	d a r
-0.8336613	b a r
-1.3217584	x a r
-1.1505696	h a r
-0.9687158	o a r
-1.790098	f a r
-0.3177299	k a r
-0.6750542	w a r
-1.0298891	y a r
-0.84597784	z a r
-3.342235	# m r
-3.3684752	i m r
-2.1471777	n m r
-3.4801457	t m r
-4.0909166	r m r
-3.8521183	e m r
-3.2649267	s m r
-3.393973	u m r
-3.61909	l m r
-3.605069	a m r
-4.0924096	m m r
-2.6266603	b m r
-3.6930234	o m r
-3.2794175	y m r
-1.8358725	z m r
-2.8201737	# d r
-2.730869	i d r
-1.5913756	n d r
-1.8343824	p d r
-3.00946	r d r
-2.0992434	e d r
-3.439268	s d r
-3.0071568	u d r
-2.5172215	l d r
-1.6317644	a d r
-3.365307	m d r
-3.5744565	d d r
-3.3342736	o d r
-2.1103327	y d r
-2.0472112	z d r
-1.2069385	# b r
-1.7538189	i b r
-1.0193548	n b r
-1.518869	c b r
-0.0022005145	p b r
-0.93153834	t b r
-2.5435762	r b r
-0.8244163	e b r
-1.2294316	g b r
-1.6558566	s b r
-1.2473228	u b r
-2.2202122	l b r
-1.734057	a b r
-0.19874758	m b r
-0.8600322	d b r
-3.4528368	b b r
-1.0828624	h b r
-1.442299	o b r
-0.90891105	f b r
-0.71778804	k b r
-0.99749017	y b r
-2.0197577	z b r
-1.490583	# x r
-2.506124	n x r
-1.5299263	c x r
-1.1357661	t x r
-1.9485554	r x r
-3.8921316	e x r
-3.8921812	u x r
-2.032084	x x r
-0.90954065	h x r
-2.4672487	o x r
-1.5341796	# h r
-2.1061978	i h r
-3.236888	n h r
-1.4256762	c h r
-2.0507755	p h r
-2.7132766	t h r
-2.6854694	r h r
-1.8287302	e h r
-1.641104	g h r
-1.757575	u h r
-2.4309928	l h r
-2.3510425	a h r
-2.3645897	d h r
-3.5399044	o h r
-0.59379256	# o r
-0.7982479	i o r
-1.0524744	n o r
-1.0691324	c o r
-0.72317845	p o r
-0.5575586	t o r
-1.5005507	r o r
-0.51555425	e o r
-0.8251479	g o r
-0.69260234	s o r
-0.86589104	u o r
-0.7016621	l o r
-1.5443277	a o r
-0.8592663	m o r
-1.4800259	d o r
-0.7658713	b o r
-0.23624901	x o r
-1.0792336	h o r
-1.3442947	o o r
-0.13290639	f o r
-1.7818985	k o r
-0.458508	w o r
-1.0190027	q o r
-2.0639658	y o r
-0.9487099	z o r
-0.6699164	# f r
-1.6082735	i f r
-0.5778743	n f r
-2.5677009	c f r
-1.2917293	p f r
-0.6507946	t f r
-1.5401655	r f r
-1.965074	e f r
-1.0305295	g f r
-1.1349453	s f r
-0.7679535	u f r
-1.6286842	l f r
-1.3366786	a f r
-0.6521182	m f r
-1.3540819	x f r
-2.092101	o f r
-1.0665445	f f r
-0.29095367	y f r
-2.8733108	# k r
-2.3335533	n k r
-1.1446792	t k r
-2.1113288	r k r
-0.841569	d k r
-1.4929137	# w r
-2.0467436	i w r
-1.5532905	n w r
-1.5479426	c w r
-0.9980579	p w r
-1.576367	t w r
-2.3272092	r w r
-1.407904	e w r
-2.0664036	s w r
-1.6338494	u w r
-1.3252071	a w r
-0.92204857	h w r
-1.0934639	o w r
-4.668123	# q r
-4.212031	i q r
-3.323737	c q r
-0.9371683	g q r
-4.112551	s q r
-3.7867234	a q r
-2.2898548	# y r
-1.4085759	i y r
-2.2714183	n y r
-0.5871115	c y r
-1.0176982	p y r
-0.16041866	t y r
-1.8380082	r y r
-1.4714962	e y r
-1.18754	g y r
-1.2446505	s y r
-1.2931492	u y r
-1.4529927	l y r
-1.5611753	a y r
-1.175596	m y r
-1.0794454	b y r
-1.7339146	h y r
-1.4071896	o y r
-0.41460824	k y r
-1.1032062	w y r
-1.8416201	# z r
-2.7885787	n z r
-1.8197631	c z r
-1.5268966	p z r
-2.2288153	t z r
-2.4479256	r z r
-2.0856261	e z r
-1.6644759	g z r
-1.9281285	s z r
-2.0518234	u z r
-2.59507	a z r
-1.6495725	m z r
-1.8703613	d z r
-1.196734	b z r
-0.79314655	h z r
-2.2885616	o z r
-1.3129088	f z r
-1.1793574	w z r
-1.878483	z z r
-1.1242298	<s> # e
-0.9501009	i # e
-0.6930007	n # e
-1.0701134	c # e
-1.006064	p # e
-0.97831696	t # e
-1.0146512	r # e
-1.2018551	e # e
-0.79775476	g # e
-0.8128457	s # e
-0.88887143	u # e
-1.1835463	l # e
-0.9129399	a # e
-0.88961667	m # e
-1.0501609	d # e
-0.60160387	b # e
-0.9989416	x # e
-0.9529122	h # e
-0.9888647	o # e
-1.6022371	f # e
-1.0356704	k # e
-1.1181037	w # e
-0.9700491	q # e
-1.0525566	y # e
-1.1126521	z # e
-2.3031325	# i e
-2.9929197	i i e
-1.1875424	n i e
-1.0880806	c i e
-1.1700639	p i e
-1.6909162	t i e
-1.268124	r i e
-2.2052317	e i e
-1.6638149	g i e
-1.5847834	s i e
-1.6513635	u i e
-1.0746737	l i e
-1.2316052	a i e
-2.2615654	m i e
-1.2044137	d i e
-1.3656473	b i e
-1.5143327	x i e
-0.6028708	h i e
-2.6272113	o i e
-1.5220447	f i e
-1.4861505	k i e
-1.7575908	w i e
-1.0018663	y i e
-1.2345194	z i e
-0.8151697	# n e
-0.9168898	i n e
-0.79929906	n n e
-2.0057826	c n e
-0.8577746	p n e
-0.7508906	t n e
-0.84557587	r n e
-1.008078	e n e
-1.1339569	g n e
-1.5561227	s n e
-0.97639406	u n e
-0.44953203	l n e
-1.1767421	a n e
-0.12749727	m n e
-1.7694261	d n e
-0.60646653	b n e
-0.93564254	x n e
-2.3923144	h n e
-0.8857011	o n e
-1.4686887	f n e
-1.2360771	w n e
-1.1591914	q n e
-0.47039458	y n e
-0.5305047	z n e
-1.2249535	# c e
-0.84856087	i c e
-0.51106435	n c e
-1.06166	c c e
-0.5676869	p c e
-1.9554987	t c e
-0.8540548	r c e
-0.90135896	e c e
-0.94658506	g c e
-0.81597793	s c e
-0.96008754	u c e
-0.8857559	l c e
-0.92756754	a c e
-1.8326173	m c e
-0.88413817	d c e
-1.0433247	b c e
-0.4805987	x c e
-1.504522	h c e
-0.45032096	o c e
-1.0175443	f c e
-1.6814768	w c e
-1.0869311	q c e
-0.5546009	y c e
-0.70947117	z c e
-0.64068615	# p e
-1.0095048	i p e
-0.7069564	n p e
-0.90507174	c p e
-0.5125756	p p e
-1.7997682	t p e
-0.31250283	r p e
-1.3155397	e p e
-1.0182624	g p e
-0.28835297	s p e
-0.24295484	u p e
-0.9765756	l p e
-0.9360819	a p e
-0.5798546	m p e
-1.2088656	d p e
-1.1580706	b p e
-0.4512484	x p e
-0.37571058	h p e
-0.9070312	o p e
-0.9380903	f p e
-2.0361025	y p e
-1.320444	z p e
-0.48698872	# t e
-1.2800628	i t e
-0.5955367	n t e
-1.2789241	c t e
-0.99101067	p t e
-0.5466181	t t e
-0.73444057	r t e
-1.2634627	e t e
-1.6981233	g t e
-1.0266495	s t e
-1.4767851	u t e
-0.5448751	l t e
-0.75416327	a t e
-1.4467819	m t e
-0.773457	d t e
-0.821748	b t e
-1.1637621	x t e
-1.5835569	h t e
-0.5590142	o t e
-0.7628815	f t e
-0.7974661	k t e
-1.1502684	w t e
-0.60026443	y t e
-0.5870553	z t e
-0.16802977	# r e
-0.6921652	i r e
-1.0299907	n r e
-0.59346974	c r e
-0.41886142	p r e
-0.9928826	t r e
-0.49228442	r r e
-0.81180006	e r e
-0.8357449	g r e
-0.8007183	s r e
-0.91005856	u r e
-0.82029814	l r e
-0.8914704	a r e
-0.96573997	m r e
-0.43268993	d r e
-1.1076664	b r e
-2.458441	x r e
-0.2963363	h r e
-0.8072057	o r e
-0.75901043	f r e
-1.0930859	k r e
-1.2091755	w r e
-0.88532996	y r e
-0.5416953	z r e
-2.470793	# e e
-2.7281764	i e e
-2.4435356	n e e
-3.376473	c e e
-3.289243	p e e
-3.6966953	t e e
-2.4105742	r e e
-2.0618162	e e e
-3.2343206	g e e
-2.9868455	s e e
-3.508978	u e e
-2.5989034	l e e
-3.111178	a e e
-2.9743865	m e e
-3.1809833	d e e
-3.4915884	b e e
-2.3934002	x e e
-2.5360832	h e e
-3.238152	o e e
-2.9187162	f e e
-2.5977588	k e e
-2.2784855	w e e
-1.3649144	q e e
-2.5398169	y e e
-2.3890362	z e e
-0.6178958	# g e
-0.601442	i g e
-0.5838269	n g e
-0.83829254	c g e
-1.3433207	p g e
-0.65757006	t g e
-0.52388185	r g e
-0.9221043	e g e
-0.285368	g g e
-1.2294956	s g e
-1.1900907	u g e
-0.12089019	l g e
-1.0657	a g e
-1.2234036	m g e
-0.48242283	d g e
-0.9584923	b g e
-1.1363258	x g e
-0.59234715	o g e
-0.8540439	f g e
-0.8540439	w g e
-1.0092307	q g e
-1.309198	y g e
-0.90283716	z g e
-0.6918377	# s e
-2.130746	i s e
-0.8769636	n s e
-2.2797623	c s e
-1.0268192	p s e
-1.3950363	t s e
-1.3504004	r s e
-1.1295863	e s e
-1.2521852	g s e
-0.5220947	s s e
-2.1715574	u s e
-1.0517204	l s e
-2.1680439	a s e
-1.7610432	m s e
-1.4466058	d s e
-0.86855435	b s e
-0.54926515	x s e
-0.9873521	h s e
-1.516609	o s e
-1.7662256	f s e
-0.6638339	w s e
-1.1299721	y s e
-1.0503902	z s e
-0.90722585	# u e
-0.9927224	i u e
-0.75234056	n u e
-2.575845	c u e
-1.7356955	p u e
-1.423551	t u e
-1.595019	r u e
-0.8596464	e u e
-1.3592391	g u e
-1.2874651	s u e
-1.4243845	u u e
-1.0147028	l u e
-0.9961246	a u e
-1.0179794	m u e
-1.487623	d u e
-1.6681948	b u e
-2.420984	x u e
-2.3921845	h u e
-0.5475939	o u e
-0.38368785	f u e
-1.1382741	w u e
-0.5215726	q u e
-0.87209487	y u e
-0.80644107	z u e
-0.7540625	# l e
-0.7495307	i l e
-0.7219813	n l e
-1.1916157	c l e
-0.6519539	p l e
-0.54405856	t l e
-0.7072569	r l e
-0.672379	e l e
-1.0696275	g l e
-0.93889844	s l e
-1.5702025	u l e
-0.6508006	l l e
-0.8128629	a l e
-1.8336673	m l e
-0.537138	d l e
-1.0545968	b l e
-1.0267161	x l e
-0.27023637	h l e
-0.81480783	o l e
-1.6056767	f l e
-3.8118725	k l e
-0.9732699	y l e
-0.7234499	z l e
-2.3972692	# a e
-1.1741978	i a e
-1.5015094	n a e
-1.631759	c a e
-1.8399869	p a e
-1.8235815	t a e
-1.2682267	r a e
-2.0006804	e a e
-2.6192183	g a e
-1.7201543	s a e
-1.6350386	u a e
-1.9837252	l a e
-1.4907846	a a e
-1.9616524	m a e
-2.1861544	d a e
-2.5397396	b a e
-2.5325994	x a e
-1.1892349	h a e
-2.456117	o a e
-2.0424573	f a e
-2.541716	k a e
-2.7309484	w a e
-1.2339646	y a e
-2.1945553	z a e
-0.8887657	# m e
-1.1363478	i m e
-1.5302206	n m e
-2.9472628	c m e
-3.2854395	p m e
-2.865491	t m e
-1.4527452	r m e
-1.4069484	e m e
-1.7988338	g m e
-0.7630054	s m e
-1.8447012	u m e
-1.3738451	l m e
-1.3991296	a m e
-0.8653218	m m e
-2.6432765	d m e
-1.4981551	b m e
-1.5135145	x m e
-0.6355527	h m e
-0.99833405	o m e
-1.6000731	w m e
-0.690868	q m e
-1.1122818	y m e
-0.9929556	z m e
-0.3303915	# d e
-0.2393143	i d e
-0.71951467	n d e
-1.5318114	c d e
-1.1653757	p d e
-0.47082114	t d e
-1.4244902	r d e
-0.69209874	e d e
-1.1201744	g d e
-0.20599686	s d e
-0.92664003	u d e
-0.6137197	l d e
-0.99759966	a d e
-0.22905844	m d e
-0.93951595	d d e
-0.7563685	b d e
-0.172766	x d e
-0.8400609	h d e
-0.5701159	o d e
-0.51001567	f d e
-1.3501909	w d e
-1.6792963	y d e
-1.555178	z d e
-0.36189187	# b e
-1.0032169	i b e
-0.24189833	n b e
-0.7971963	c b e
-0.6757889	t b e
-0.36837104	r b e
-0.5536711	e b e
-0.98937845	g b e
-0.8492437	s b e
-1.0690815	u b e
-0.31990927	l b e
-1.3379143	a b e
-0.981792	m b e
-0.84300756	d b e
-0.6163475	b b e
-1.4733198	x b e
-0.80531657	h b e
-1.2056154	o b e
-0.29143533	w b e
-0.32512364	y b e
-1.0803035	z b e
-2.7316277	# x e
-0.89148676	i x e
-0.78119266	n x e
-1.6895561	c x e
-1.0661203	t x e
-1.0733877	r x e
-0.95179194	e x e
-0.7131066	g x e
-1.0552145	s x e
-0.7036041	u x e
-2.0332263	l x e
-0.6996306	a x e
-1.2337834	d x e
-2.6945944	x x e
-1.1444107	h x e
-1.458427	o x e
-0.99497986	w x e
-1.3700134	z x e
-1.0079132	# h e
-0.41753232	i h e
-1.2061828	n h e
-1.2813373	c h e
-1.417868	p h e
-0.39591607	t h e
-1.1847585	r h e
-0.3560177	e h e
-0.591619	g h e
-0.43637636	s h e
-0.5493827	u h e
-0.6268579	l h e
-0.14029704	a h e
-1.2857699	m h e
-0.66295385	d h e
-1.2346005	b h e
-2.91145	x h e
-0.6094392	h h e
-1.9002416	o h e
-0.68793374	f h e
-0.8933907	k h e
-0.6256626	y h e
-0.26276046	z h e
-2.944254	# o e
-1.5176334	i o e
-3.5999389	n o e
-2.8046558	c o e
-2.3004165	p o e
-0.6702739	t o e
-2.9333076	r o e
-3.264373	e o e
-3.0458872	g o e
-3.503552	s o e
-3.3637445	u o e
-2.552281	l o e
-2.832527	a o e
-3.6244721	m o e
-2.6076014	d o e
-2.0337331	b o e
-3.0934117	x o e
-1.921731	h o e
-2.0155215	o o e
-2.7081816	f o e
-1.6605772	k o e
-1.7269397	w o e
-2.7802708	y o e
-1.6168555	z o e
-0.9845375	# f e
-1.0794486	i f e
-0.5105627	n f e
-1.9146746	c f e
-1.1202437	p f e
-0.96830165	t f e
-0.41541612	r f e
-0.71377754	e f e
-0.70298636	g f e
-0.54756165	s f e
-1.2736243	u f e
-1.4615066	l f e
-1.5576167	a f e
-0.5694268	m f e
-0.53425115	d f e
-0.8343622	b f e
-1.1535678	x f e
-0.55521375	h f e
-0.8488057	o f e
-0.5903449	f f e
-0.7205312	w f e
-1.3497856	y f e
-1.015086	z f e
-1.965733	# k e
-0.32825202	i k e
-0.23934154	n k e
-0.271054	c k e
-0.6880175	t k e
-0.33523443	r k e
-0.35191205	e k e
-0.47591358	g k e
-0.64624107	s k e
-0.3930422	u k e
-0.23831359	l k e
-0.26339653	a k e
-0.9369034	m k e
-0.71506566	d k e
-0.7900066	h k e
-0.15687935	o k e
-1.339505	f k e
-0.6455994	k k e
-0.172272	y k e
-0.8672068	z k e
-0.8028781	# w e
-0.9643551	i w e
-0.97222155	n w e
-0.926984	c w e
-0.75320137	p w e
-0.4830811	t w e
-0.959019	r w e
-0.46152186	e w e
-1.1848089	g w e
-0.64456123	s w e
-0.36833978	u w e
-0.77784264	l w e
-0.48769176	a w e
-1.1783365	m w e
-0.9643314	d w e
-0.8603699	b w e
-0.59590316	h w e
-0.5360553	o w e
-1.3112108	w w e
-0.9440884	y w e
-0.15585336	z w e
-4.065451	# q e
-2.8289156	r q e
-0.9583415	g q e
-3.819493	a q e
-1.2884032	h q e
-1.893318	# y e
-1.2666934	i y e
-1.5224361	n y e
-2.124209	c y e
-1.1191319	p y e
-1.6270292	t y e
-1.7154723	r y e
-1.0759631	e y e
-1.6813285	g y e
-2.218748	s y e
-1.7592537	u y e
-0.81414497	l y e
-1.5864096	a y e
-1.5523342	m y e
-1.904238	d y e
-1.5029464	b y e
-1.5946944	h y e
-0.5174109	o y e
-1.1097653	f y e
-1.3570603	k y e
-1.6090306	w y e
-0.55765253	# z e
-1.0182726	i z e
-1.1727391	n z e
-0.6600011	c z e
-0.8798971	p z e
-0.7087993	t z e
-0.8819254	r z e
-0.94834095	e z e
-1.1251383	g z e
-1.1039548	s z e
-0.8691754	u z e
-0.3264681	l z e
-0.94780266	a z e
-1.1940725	m z e
-0.7813654	d z e
-1.0603596	b z e
-1.5058532	x z e
-0.68147594	h z e
-1.4675889	o z e
-0.8351278	f z e
-1.1442921	w z e
-0.6438784	y z e
-1.1061978	z z e
-1.8014743	<s> # g
-1.8759055	i # g
-2.2994957	n # g
-2.1720126	c # g
-2.0606635	p # g
-2.0547667	t # g
-2.019816	r # g
-1.950701	e # g
-1.7166226	g # g
-2.0289054	s # g
-2.0262954	u # g
-2.2957044	l # g
-2.042816	a # g
-2.0740454	m # g
-2.1957994	d # g
-2.33062	b # g
-2.4884984	x # g
-2.4338515	h # g
-1.8655968	o # g
-2.2625134	f # g
-1.6235718	k # g
-2.2049975	w # g
-1.7475077	q # g
-1.9049298	y # g
-1.7616599	z # g
-2.0134823	# i g
-4.021689	i i g
-2.0187976	n i g
-3.3679817	c i g
-2.5907042	p i g
-2.1694884	t i g
-2.087787	r i g
-3.296544	e i g
-3.5551927	g i g
-1.3717947	s i g
-2.0694983	u i g
-1.5926523	l i g
-2.8611042	a i g
-2.4285889	m i g
-1.6557719	d i g
-2.5835056	b i g
-1.0647837	x i g
-3.494365	h i g
-3.2797878	o i g
-2.0446367	f i g
-2.4173405	k i g
-1.0525031	w i g
-2.1283944	z i g
-4.0409117	# n g
-1.5560291	i n g
-3.7717738	n n g
-1.6281964	t n g
-2.9766989	r n g
-2.6289222	e n g
-4.084946	g n g
-1.6791009	u n g
-2.6470494	l n g
-1.6436613	a n g
-2.0325356	b n g
-2.2311358	x n g
-2.1546495	o n g
-1.5711938	w n g
-1.5699198	y n g
-4.2095017	# c g
-5.121343	i c g
-4.432625	n c g
-3.5269668	t c g
-4.2034225	r c g
-4.9068875	e c g
-3.7131248	u c g
-4.628086	a c g
-2.5281024	m c g
-1.9590662	b c g
-5.074643	# p g
-4.4949183	i p g
-1.4770176	n p g
-3.0151172	t p g
-4.4690433	u p g
-4.201879	a p g
-4.54951	m p g
-3.699978	o p g
-4.80059	# t g
-5.164161	i t g
-3.7392442	n t g
-4.6579437	r t g
-4.574277	e t g
-4.8062615	s t g
-4.1855025	u t g
-4.1480145	l t g
-4.2720633	a t g
-3.8866992	o t g
-3.8007483	# r g
-1.5922527	i r g
-3.696373	n r g
-4.154339	c r g
-4.972284	p r g
-2.926838	r r g
-2.088808	e r g
-2.3049989	g r g
-1.50837	u r g
-1.8568316	a r g
-2.3689244	m r g
-4.1792874	b r g
-3.3246589	h r g
-2.425519	o r g
-1.8757105	z r g
-2.3863783	# e g
-3.5229619	i e g
-1.4501275	n e g
-4.223176	c e g
-4.107141	p e g
-2.1336632	t e g
-1.1531799	r e g
-2.6950977	e e g
-4.1798277	g e g
-2.606798	s e g
-3.0128713	u e g
-0.99361825	l e g
-2.684079	a e g
-3.2773092	m e g
-2.2519035	d e g
-3.084111	b e g
-1.7383578	x e g
-2.1999924	h e g
-3.1228585	o e g
-3.9280384	f e g
-2.1231372	k e g
-1.6598948	w e g
-1.937969	z e g
-4.0263405	# g g
-3.2624822	i g g
-3.637943	n g g
-1.5087192	p g g
-3.8319807	r g g
-3.2464933	e g g
-2.6947637	g g g
-1.6406223	u g g
-2.0624597	a g g
-1.4874508	m g g
-2.6547441	o g g
-4.8297935	# s g
-4.1845155	i s g
-2.9400487	n s g
-3.7454283	p s g
-2.6152358	t s g
-4.7409163	e s g
-4.5358424	s s g
-4.3848968	u s g
-3.185878	l s g
-3.2712262	a s g
-1.8245587	h s g
-4.641245	o s g
-2.938984	# u g
-2.4583979	i u g
-4.229414	n u g
-4.284504	c u g
-1.8623818	p u g
-2.7869205	t u g
-2.6786833	r u g
-1.6858797	e u g
-4.099491	g u g
-2.596379	s u g
-3.3527434	u u g
-1.3623679	l u g
-1.2800122	a u g
-3.0498307	m u g
-3.7284894	d u g
-3.6412945	b u g
-1.1259444	h u g
-2.7705853	o u g
-1.6999727	f u g
-1.9877276	w u g
-2.2087343	z u g
-3.705207	# l g
-3.680862	i l g
-3.0882566	n l g
-4.643552	c l g
-3.1140919	e l g
-3.5406046	s l g
-1.129302	u l g
-4.491069	l l g
-2.9097009	a l g
-2.2222166	d l g
-3.8827515	o l g
-1.6446686	w l g
-2.1530726	# a g
-3.863974	i a g
-1.4161495	n a g
-3.5171475	c a g
-2.0112436	p a g
-2.7956543	t a g
-1.6829292	r a g
-4.0575337	e a g
-2.831334	g a g
-2.1461017	s a g
-2.2588177	u a g
-2.2918901	l a g
-2.2199178	a a g
-0.9415332	m a g
-2.351361	d a g
-2.6451993	b a g
-1.6321666	x a g
-3.0214224	h a g
-1.9455594	o a g
-2.6751897	f a g
-2.541716	k a g
-1.476428	w a g
-2.078351	y a g
-1.4214382	z a g
-3.7216215	# m g
-4.0846677	i m g
-2.8034196	n m g
-4.277019	r m g
-4.510342	e m g
-5.0083156	u m g
-3.6912162	l m g
-4.1705246	a m g
-4.1784105	m m g
-4.590706	o m g
-1.7599901	z m g
-4.496748	# d g
-4.4820137	i d g
-4.7033844	n d g
-4.457842	u d g
-3.7838135	l d g
-4.588338	a d g
-1.9043465	x d g
-4.0315657	o d g
-4.649328	# b g
-4.630152	i b g
-4.6530576	e b g
-4.0183063	# x g
-3.4548712	i x g
-4.651113	e x g
-3.6614695	a x g
-3.1447337	x x g
-2.2268257	o x g
-4.670864	# h g
-4.5500855	c h g
-3.8970306	t h g
-2.7468717	r h g
-3.1471393	# o g
-3.8469272	i o g
-3.0808213	n o g
-2.0373986	c o g
-3.4596052	p o g
-3.56383	t o g
-1.5827143	r o g
-3.1929276	e o g
-3.0498588	g o g
-2.7969837	s o g
-3.9274678	u o g
-1.9054365	l o g
-2.9572718	a o g
-2.3625197	m o g
-3.1523755	d o g
-2.6149466	b o g
-2.9772851	h o g
-2.120904	o o g
-3.0772598	f o g
-1.3973855	w o g
-2.6852915	y o g
-2.690223	z o g
-4.871308	# f g
-3.9662092	i f g
-3.576454	a f g
-2.1958182	n k g
-1.9756931	c k g
-1.3625468	m k g
-3.4681072	# w g
-2.3709002	i w g
-1.8802494	n w g
-1.9562244	d w g
-2.4712968	o w g
-4.668123	# q g
-2.801738	r q g
-0.9371683	g q g
-4.112551	s q g
-2.8027894	u q g
-3.7867234	a q g
-2.8249347	# y g
-1.4832342	i y g
-1.9585936	n y g
-2.4850116	t y g
-1.8073848	r y g
-2.569842	e y g
-2.6682413	s y g
-1.5249724	u y g
-2.219608	a y g
-1.5020846	m y g
-2.2296834	b y g
-1.7874403	o y g
-1.1613203	f y g
-1.1216148	w y g
-2.670401	i z g
-1.8240961	n z g
-1.5677156	p z g
-2.2768788	r z g
-2.4873877	e z g
-1.7263317	g z g
-1.9103128	s z g
-2.3405907	l z g
-2.4053526	a z g
-1.714352	m z g
-1.9556338	d z g
-2.2700162	o z g
-1.2275889	w z g
-2.1473408	z z g
-1.1754024	<s> # s
-1.0988407	i # s
-1.2602186	n # s
-1.2017075	c # s
-1.1375082	p # s
-1.1622603	t # s
-1.2530258	r # s
-1.0814139	e # s
-1.2422115	g # s
-1.0997826	s # s
-1.1651936	u # s
-1.2020354	l # s
-1.0326351	a # s
-1.144842	m # s
-0.8163067	d # s
-1.3363613	b # s
-1.4504809	x # s
-1.2445773	h # s
-1.09468	o # s
-1.960643	f # s
-1.313037	k # s
-1.1659575	w # s
-1.645586	q # s
-1.3725348	y # s
-1.2039499	z # s
-2.4011772	# i s
-0.49113834	i i s
-0.6350301	n i s
-0.968364	c i s
-0.7873403	p i s
-0.6929964	t i s
-0.8059893	r i s
-0.5896417	e i s
-0.81507957	g i s
-0.7009118	s i s
-0.92097825	u i s
-1.041962	l i s
-1.6589698	a i s
-0.78785014	m i s
-0.996533	d i s
-1.0833573	b i s
-0.72373307	x i s
-1.4523939	h i s
-0.40059277	o i s
-2.079881	f i s
-1.7725943	k i s
-1.4817618	w i s
-1.3168802	q i s
-1.2880795	y i s
-1.0247495	z i s
-3.354682	# n s
-1.5150055	i n s
-3.4935927	n n s
-2.1893868	c n s
-3.10806	p n s
-2.1666431	t n s
-2.7744868	r n s
-1.004114	e n s
-3.6084766	g n s
-3.1549344	s n s
-3.0758555	u n s
-2.5929062	l n s
-1.5622013	a n s
-2.664112	m n s
-0.61798	d n s
-1.2986158	b n s
-0.88796544	h n s
-1.0117944	o n s
-1.2340797	f n s
-1.2423475	w n s
-1.627013	q n s
-2.552205	y n s
-1.8195403	z n s
-4.2451105	# c s
-4.057428	i c s
-3.37715	n c s
-4.033422	c c s
-1.7680466	p c s
-3.4276247	t c s
-3.988031	r c s
-4.099646	e c s
-3.0691943	s c s
-4.107044	u c s
-2.6946054	l c s
-3.6922777	a c s
-0.8890066	d c s
-3.285744	o c s
-1.9326719	f c s
-3.5549054	# p s
-1.7976466	i p s
-1.8091851	n p s
-1.3156484	c p s
-3.3136199	p p s
-2.4116497	r p s
-1.0097083	e p s
-1.1673633	g p s
-4.2954845	s p s
-2.6636806	u p s
-2.4335654	l p s
-2.038957	a p s
-1.6264051	m p s
-3.9610152	x p s
-2.8041346	o p s
-2.5405858	y p s
-1.0754001	z p s
-3.808453	# t s
-3.5107412	i t s
-3.5087228	n t s
-3.6425865	c t s
-3.3642652	p t s
-3.3502772	t t s
-3.5753314	r t s
-2.9053826	e t s
-1.5595405	g t s
-3.60153	s t s
-3.2743263	u t s
-3.275272	l t s
-3.9763584	a t s
-2.710078	m t s
-1.6222849	d t s
-3.605819	b t s
-3.8823814	x t s
-2.488635	h t s
-2.521113	o t s
-2.1732237	f t s
-3.2156227	# r s
-3.1573792	i r s
-3.8750064	n r s
-3.6729019	c r s
-2.9552233	p r s
-3.5642753	t r s
-3.8139071	r r s
-1.1727674	e r s
-3.7846203	g r s
-2.6917746	s r s
-1.7634289	u r s
-2.1511557	a r s
-3.5415068	d r s
-3.2013378	h r s
-2.1294932	o r s
-1.4270583	k r s
-1.7127101	z r s
-1.6559237	# e s
-1.5642737	i e s
-1.1577258	n e s
-0.5562655	c e s
-2.0835943	p e s
-0.8584215	t e s
-0.8526176	r e s
-1.193913	e e s
-1.3161767	g e s
-1.3351967	s e s
-1.5823641	u e s
-1.0050484	l e s
-1.4695446	a e s
-1.5056375	m e s
-1.578986	d e s
-1.8962287	b e s
-2.5716941	x e s
-1.061466	h e s
-1.0599746	o e s
-0.74880594	f e s
-0.9948736	k e s
-0.9544122	w e s
-1.5109413	y e s
-1.7679697	z e s
-3.761421	# g s
-3.4882863	i g s
-3.1532125	n g s
-1.4922597	p g s
-3.704423	r g s
-3.9201028	e g s
-2.5416262	g g s
-3.704522	u g s
-3.8164759	l g s
-3.8681433	a g s
-3.4637032	o g s
-1.7526081	z g s
-2.7787771	# s s
-1.2755617	i s s
-3.1399736	n s s
-2.3823733	c s s
-3.600021	p s s
-1.9859746	t s s
-3.3141294	r s s
-0.7964638	e s s
-1.6529567	g s s
-3.3164167	s s s
-2.4706051	u s s
-2.5078645	l s s
-0.94679433	a s s
-2.3720384	m s s
-2.3170278	d s s
-3.54078	b s s
-2.4361942	x s s
-1.6845134	h s s
-0.9341597	o s s
-1.7662256	f s s
-1.7041014	w s s
-1.3155757	y s s
-1.7104149	z s s
-1.4648244	# u s
-1.3809582	i u s
-0.5507096	n u s
-1.0703608	c u s
-1.0994751	p u s
-0.7058855	t u s
-1.389307	r u s
-1.2699245	e u s
-0.78459716	g u s
-1.0601301	s u s
-0.99519795	u u s
-0.8799789	l u s
-1.028035	a u s
-1.219895	m u s
-0.9635373	d u s
-0.061735466	b u s
-1.5162934	x u s
-1.4913795	h u s
-1.6692628	o u s
-1.4075552	f u s
-1.0913588	k u s
-1.4164764	w u s
-3.7963066	q u s
-1.8417847	y u s
-1.0849209	z u s
-3.6410818	# l s
-2.7966795	i l s
-3.3033328	n l s
-3.8409994	c l s
-4.100823	p l s
-2.9285128	r l s
-2.2761288	e l s
-3.3451777	s l s
-2.2434356	u l s
-3.6289144	l l s
-2.370419	a l s
-2.4829817	m l s
-3.7729256	b l s
-2.0607445	h l s
-3.1074882	o l s
-2.604294	f l s
-1.7337588	w l s
-1.5209378	# a s
-1.1033378	i a s
-0.62201697	n a s
-1.0510339	c a s
-1.2712665	p a s
-1.1594069	t a s
-1.3672675	r a s
-1.078901	e a s
-1.6586522	g a s
-1.5863308	s a s
-1.0723752	u a s
-1.4235996	l a s
-0.7961587	a a s
-1.584074	m a s
-1.3433104	d a s
-0.90186834	b a s
-2.2150154	x a s
-1.5890199	h a s
-1.9455594	o a s
-2.4673822	f a s
-1.9590328	k a s
-1.3559285	w a s
-1.3386675	y a s
-1.9950144	z a s
-2.818944	# m s
-3.690976	i m s
-2.1376479	n m s
-3.6519997	c m s
-3.5887935	t m s
-3.9814007	r m s
-3.4613008	e m s
-3.2318313	s m s
-2.227637	u m s
-2.4407926	a m s
-3.6316352	m m s
-3.6072412	d m s
-1.584641	h m s
-3.0930057	o m s
-0.275409	f m s
-1.8059776	w m s
-3.2458193	y m s
-3.2146997	# d s
-3.9163475	i d s
-3.5735464	n d s
-2.1537797	c d s
-1.6879475	p d s
-1.9771383	t d s
-3.651885	r d s
-4.0711284	e d s
-3.8307712	s d s
-3.723735	u d s
-3.614629	l d s
-2.848097	a d s
-3.4786694	m d s
-3.168439	d d s
-3.22554	o d s
-3.2558918	y d s
-3.6350725	# b s
-4.113704	i b s
-2.577291	n b s
-1.9552461	t b s
-3.075545	r b s
-2.8413062	e b s
-2.7501972	s b s
-0.87280154	u b s
-1.0561146	a b s
-3.8570318	m b s
-4.1098123	b b s
-2.544466	x b s
-0.81140316	o b s
-1.9924613	z b s
-3.3925161	# x s
-2.8691995	i x s
-2.3897424	n x s
-1.8704609	r x s
-2.2001379	e x s
-3.9504313	u x s
-3.0420396	a x s
-1.5998938	m x s
-3.8622532	# h s
-2.3068228	i h s
-3.2204838	n h s
-3.3859646	c h s
-3.5859134	p h s
-3.2012305	t h s
-2.6394556	e h s
-2.5678158	g h s
-1.6261656	u h s
-2.0285056	l h s
-3.180159	a h s
-2.9813678	d h s
-1.6847984	b h s
-3.6908479	o h s
-1.5562667	f h s
-1.8444115	# o s
-1.2760801	i o s
-1.0283297	n o s
-1.6814584	c o s
-0.44443494	p o s
-1.4013814	t o s
-1.2206151	r o s
-0.7553372	e o s
-2.0616126	g o s
-1.6235561	s o s
-0.80062973	u o s
-1.0640516	l o s
-2.3269405	a o s
-1.7766109	m o s
-1.4644297	d o s
-1.7327738	b o s
-2.0456133	x o s
-0.80227333	h o s
-1.4273024	o o s
-1.7972572	f o s
-1.7818985	k o s
-2.0772114	w o s
-1.2945657	q o s
-1.9587128	y o s
-2.4430559	z o s
-3.527816	# f s
-3.3613834	i f s
-1.4511873	p f s
-2.8870783	r f s
-3.9129555	e f s
-3.44171	s f s
-3.2321115	a f s
-3.8838177	o f s
-3.8564131	f f s
-3.7593915	# k s
-2.2722633	n k s
-1.1539253	p k s
-2.176572	r k s
-2.2418315	e k s
-1.9859134	o k s
-1.5650412	f k s
-2.7584517	# w s
-2.14844	i w s
-1.6500131	n w s
-1.5320636	c w s
-1.6603253	t w s
-1.6005789	r w s
-1.6795392	e w s
-2.0453272	s w s
-1.8427184	u w s
-1.1717277	a w s
-1.0898771	b w s
-2.1137092	o w s
-0.7835099	f w s
-1.5342696	w w s
-3.4532576	c q s
-4.2262034	s q s
-0.9083018	# y s
-1.3819703	i y s
-0.24485898	n y s
-2.124209	c y s
-1.3560374	p y s
-2.313021	t y s
-1.1178817	r y s
-1.0405008	e y s
-1.0092914	g y s
-2.4319952	s y s
-0.9385649	u y s
-1.3085915	l y s
-1.2927368	a y s
-0.95146376	m y s
-1.7103097	d y s
-1.7141683	b y s
-1.2093451	x y s
-1.0977284	h y s
-0.67967236	o y s
-0.92336875	f y s
-1.1918938	w y s
-2.2909608	# z s
-1.8768406	i z s
-1.9108424	n z s
-1.7923006	c z s
-1.5917894	p z s
-1.0536389	t z s
-1.3299112	r z s
-1.9484063	e z s
-0.7774927	g z s
-1.0758452	s z s
-1.5102205	u z s
-1.4885418	l z s
-2.2643108	a z s
-1.1940725	m z s
-1.6462644	d z s
-1.2888359	b z s
-1.5058532	x z s
-1.6285077	h z s
-1.5934321	o z s
-0.707357	f z s
-0.26273122	k z s
-1.1442921	w z s
-1.2051647	z z s
-1.1632216	<s> # u
-1.3088518	i # u
-1.4853164	n # u
-1.1777123	c # u
-1.2430081	p # u
-1.2667319	t # u
-1.3058593	r # u
-1.2089336	e # u
-1.504604	g # u
-1.3172684	s # u
-1.2872506	u # u
-1.5623422	l # u
-1.2960904	a # u
-1.3354876	m # u
-1.1545624	d # u
-1.4124913	b # u
-1.3976511	x # u
-1.5510057	h # u
-1.4650031	o # u
-0.63187206	f # u
-1.7549645	k # u
-1.6247853	w # u
-1.1363863	q # u
-1.5062109	y # u
-1.5434077	z # u
-1.0657749	# i u
-3.0209465	i i u
-1.1287516	n i u
-0.93080884	c i u
-2.1106076	p i u
-1.321129	t i u
-1.5016646	r i u
-1.519695	e i u
-1.5351452	g i u
-1.5077031	s i u
-1.8604076	u i u
-1.4552518	l i u
-1.7220125	a i u
-2.328928	m i u
-1.4196717	d i u
-2.271729	b i u
-1.6768514	x i u
-2.0352926	h i u
-2.4057627	o i u
-2.7995143	f i u
-2.2890134	k i u
-2.8182883	w i u
-1.1294363	q i u
-1.389042	y i u
-1.6171179	z i u
-1.0107473	# n u
-1.2822906	i n u
-1.0083276	n n u
-2.5971103	c n u
-1.3967954	p n u
-0.80065274	t n u
-1.5182922	r n u
-1.5657573	e n u
-1.2429154	g n u
-2.6525722	s n u
-1.3392211	u n u
-1.8124449	l n u
-1.3087686	a n u
-1.8142208	m n u
-3.023651	d n u
-1.0474555	b n u
-0.20654015	x n u
-3.2546976	h n u
-1.230855	o n u
-1.4788089	f n u
-1.2423475	w n u
-1.220242	y n u
-1.4120572	z n u
-0.91404706	# c u
-1.0394576	i c u
-1.2495812	n c u
-1.4956841	c c u
-1.668143	p c u
-1.7864089	t c u
-1.4169154	r c u
-1.2061645	e c u
-1.6547639	g c u
-1.1744893	s c u
-1.9548559	u c u
-1.2789108	l c u
-1.2520062	a c u
-0.33795825	m c u
-2.515658	d c u
-1.5670264	b c u
-1.3393338	x c u
-0.89906776	o c u
-3.0947247	f c u
-1.0990269	q c u
-1.3218683	y c u
-1.7270877	z c u
-1.8644873	# p u
-1.9213324	i p u
-1.2351738	n p u
-1.5115018	c p u
-1.3969007	p p u
-2.7859147	t p u
-1.470253	r p u
-1.3272886	e p u
-2.4903615	s p u
-2.4250712	u p u
-3.0246007	l p u
-0.7601196	a p u
-1.3690274	m p u
-1.6077532	d p u
-1.8714085	b p u
-1.974977	x p u
-1.275583	h p u
-0.79996157	o p u
-2.3066132	y p u
-1.4687346	z p u
-0.6734614	# t u
-0.8064818	i t u
-1.1714789	n t u
-0.8150823	c t u
-0.902696	p t u
-1.6946692	t t u
-0.9892783	r t u
-1.7177603	e t u
-1.705319	g t u
-1.377358	s t u
-1.1917069	u t u
-1.0659918	l t u
-0.9070582	a t u
-0.6571985	m t u
-1.5989234	d t u
-1.3870032	b t u
-0.9488744	x t u
-0.9753271	h t u
-1.1704059	o t u
-1.4347796	f t u
-1.1014363	q t u
-1.604228	y t u
-1.2339922	z t u
-1.6987065	# r u
-1.6914667	i r u
-3.391146	n r u
-0.9550418	c r u
-2.2579803	p r u
-0.87610614	t r u
-1.608235	r r u
-1.0984241	e r u
-1.1260056	g r u
-1.6002462	s r u
-1.5300146	u r u
-1.1134138	l r u
-0.8374684	a r u
-2.2625709	m r u
-1.8817036	d r u
-0.8613888	b r u
-1.562319	x r u
-2.4036684	h r u
-0.5869911	o r u
-1.0937409	f r u
-1.0727054	q r u
-1.4802418	y r u
-1.3989847	z r u
-1.6481439	# e u
-2.0053983	i e u
-1.8948588	n e u
-2.809215	c e u
-2.993719	p e u
-2.9321074	t e u
-1.7526627	r e u
-1.5258349	e e u
-2.793322	g e u
-1.101846	s e u
-2.228596	u e u
-2.01351	l e u
-2.0708032	a e u
-2.149561	m e u
-1.7346334	d e u
-1.8611476	b e u
-2.2682183	x e u
-1.4857466	h e u
-2.6838148	o e u
-1.6131631	f e u
-1.6514928	k e u
-2.473518	w e u
-2.2001257	y e u
-2.168706	z e u
-0.6532828	# g u
-1.7252223	i g u
-0.52487636	n g u
-1.5117308	c g u
-1.1546892	p g u
-1.3367454	t g u
-1.2688696	r g u
-1.3491994	e g u
-2.36091	g g u
-0.51811075	s g u
-0.40587968	u g u
-2.6121726	l g u
-1.422127	a g u
-1.3997389	d g u
-0.98411703	b g u
-1.8437121	o g u
-0.4895885	q g u
-1.1249487	y g u
-1.5238793	z g u
-0.609824	# s u
-2.4982133	i s u
-0.89605993	n s u
-3.0803685	c s u
-1.4264667	p s u
-1.1843026	t s u
-1.2094458	r s u
-1.7660115	e s u
-1.2521852	g s u
-1.0459001	s s u
-1.9509509	u s u
-1.3378172	l s u
-2.375967	a s u
-1.9338682	m s u
-2.2284875	d s u
-0.86875737	b s u
-1.3942609	x s u
-1.5570028	h s u
-1.8534595	o s u
-1.4967283	f s u
-1.5514292	w s u
-2.1058254	y s u
-1.4878054	z s u
-2.2602935	# u u
-2.2510245	i u u
-2.2435367	n u u
-2.9698272	c u u
-2.724518	p u u
-1.6097982	t u u
-2.343484	r u u
-2.5462995	e u u
-2.694402	g u u
-1.8337169	s u u
-3.4315042	u u u
-2.2086806	l u u
-2.3891203	a u u
-3.1584325	m u u
-2.4878647	d u u
-3.7541509	b u u
-2.5856183	x u u
-3.872136	h u u
-2.0523813	o u u
-2.6210527	f u u
-1.5521295	k u u
-1.9369704	w u u
-2.7021298	q u u
-1.8417847	y u u
-2.088034	z u u
-1.1555319	# l u
-2.0477939	i l u
-1.6335266	n l u
-1.5086284	c l u
-1.1229767	p l u
-1.5480683	t l u
-1.5982169	r l u
-1.7261411	e l u
-2.1720347	g l u
-2.0604038	s l u
-1.3298472	u l u
-1.0490863	l l u
-1.3401213	a l u
-1.7759761	m l u
-1.4691956	d l u
-2.5900342	b l u
-1.1293771	x l u
-1.3877609	h l u
-0.6521949	o l u
-1.0099525	f l u
-4.099155	k l u
-0.51127696	w l u
-1.7484694	y l u
-1.7091889	z l u
-1.0381526	# a u
-2.4339721	i a u
-1.8139766	n a u
-1.320513	c a u
-1.4043322	p a u
-1.6533229	t a u
-1.3544263	r a u
-2.1080396	e a u
-1.0618036	g a u
-1.4389646	s a u
-2.07138	u a u
-1.0686518	l a u
-1.168071	a a u
-1.9665506	m a u
-1.741396	d a u
-1.7342474	b a u
-1.5542419	x a u
-1.9383963	h a u
-1.4710636	o a u
-1.0593356	f a u
-1.1990904	k a u
-2.071832	w a u
-1.6317265	y a u
-0.5803325	z a u
-1.2228305	# m u
-1.3986598	i m u
-1.576057	n m u
-3.0320756	c m u
-3.7918794	p m u
-2.8737502	t m u
-1.5524807	r m u
-1.2780256	e m u
-1.8057294	g m u
-1.3859701	s m u
-2.4884143	u m u
-0.49756318	l m u
-1.673198	a m u
-0.5896218	m m u
-1.5211332	d m u
-2.1178389	b m u
-1.3791248	x m u
-1.3013064	o m u
-0.51816624	y m u
-0.86611795	z m u
-1.2127545	# d u
-1.1484578	i d u
-0.79183614	n d u
-2.4686713	c d u
-1.2975906	t d u
-1.1326252	r d u
-1.4370537	e d u
-0.108932674	g d u
-2.737251	s d u
-1.0731566	u d u
-0.6301038	l d u
-1.2177236	a d u
-1.7451596	m d u
-1.6757519	d d u
-1.1987139	b d u
-0.53422236	h d u
-0.7232379	o d u
-0.98548335	f d u
-1.3652186	w d u
-3.1911476	y d u
-1.9701338	z d u
-1.1945603	# b u
-0.1648214	i b u
-0.89593846	n b u
-1.0282159	c b u
-3.5816805	p b u
-0.65590674	t b u
-1.2189909	r b u
-1.1751821	e b u
-0.6794515	g b u
-1.0650034	s b u
-1.4130299	u b u
-1.650018	l b u
-1.323315	a b u
-1.4966809	m b u
-0.74723464	d b u
-2.0542908	b b u
-0.73842794	h b u
-1.2707051	o b u
-0.71507233	f b u
-0.91316205	k b u
-0.6026721	y b u
-0.24170084	z b u
-0.7300415	# x u
-1.6084117	i x u
-1.3566997	c x u
-1.7221674	r x u
-2.2281227	e x u
-0.92099154	g x u
-3.0403252	u x u
-1.2322177	l x u
-3.4138544	a x u
-0.7307258	m x u
-1.0300412	d x u
-0.60107887	x x u
-2.6830919	o x u
-0.96965384	f x u
-0.69244367	k x u
-1.0128865	w x u
-0.5516679	# h u
-1.5542306	i h u
-1.5211756	n h u
-1.5690813	c h u
-1.3723046	p h u
-1.9846919	t h u
-1.8324182	r h u
-1.5425917	e h u
-2.6015282	g h u
-1.2480894	s h u
-1.3284898	u h u
-1.5076998	l h u
-1.6420165	a h u
-1.3018798	m h u
-0.35295424	d h u
-2.3454442	x h u
-3.2247224	o h u
-1.6102139	f h u
-1.1673024	w h u
-0.6298436	y h u
-1.2743396	z h u
-2.2666965	# o u
-2.6522644	i o u
-1.4394895	n o u
-2.6387248	c o u
-2.730721	p o u
-3.0279179	t o u
-0.8734275	r o u
-3.5107038	e o u
-2.6328354	g o u
-2.5778086	s o u
-2.195812	u o u
-2.302932	l o u
-2.3992586	a o u
-1.5477397	m o u
-1.9074378	d o u
-1.9117817	b o u
-0.97040963	x o u
-2.647546	h o u
-1.7520272	o o u
-1.6500118	f o u
-1.0808054	k o u
-1.3477556	w o u
-1.1387001	q o u
-2.6585972	y o u
-1.3391008	z o u
-0.9526178	# f u
-2.5511634	i f u
-1.9026033	n f u
-2.42406	c f u
-0.696646	p f u
-1.4567974	t f u
-0.63973063	r f u
-1.6596377	e f u
-2.3618505	s f u
-2.0572681	u f u
-0.73705	l f u
-2.379355	a f u
-1.2328312	m f u
-1.1373072	d f u
-0.63536555	b f u
-0.77863824	h f u
-1.6864655	o f u
-1.5966425	f f u
-1.2423579	z f u
-2.89098	# k u
-1.6509365	i k u
-1.2885647	t k u
-1.4167473	r k u
