\data\
ngram 1=28
ngram 2=615
ngram 3=9580
ngram 4=68575

\1-grams:
-2.6404552	<unk>	0
0	<s>	-4.9626927
-2.5084317	</s>	0
-1.3754512	#	-1.187111
-1.3925465	i	-1.151426
-1.3925465	n	-1.0474669
-1.3925465	c	-1.0210146
-1.3925465	p	-0.9806078
-1.3925465	t	-1.0251905
-1.3925465	r	-1.0494365
-1.3925465	e	-1.1681904
-1.3925465	g	-0.90370125
-1.3925465	s	-1.0394979
-1.3925465	u	-1.135603
-1.4103427	l	-1.0157375
-1.3925465	a	-1.1435865
-1.3925465	m	-0.969862
-1.4103427	d	-0.919888
-1.4103427	b	-0.9327121
-1.3925465	x	-0.8254527
-1.3925465	h	-0.8753059
-1.3925465	o	-1.136408
-1.4288992	f	-0.84682894
-1.4288992	k	-0.70643634
-1.4103427	w	-0.8280647
-1.4482841	q	-0.59009075
-1.3925465	y	-0.9416831
-1.4103427	z	-0.975723

\2-grams:
-1.4148419	# </s>	0
-0.000004530068	<s> #	-3.591041
-2.4171016	# #	-0.31525737
-1.3480176	i #	-1.1425469
-1.2617267	n #	-0.9586005
-1.2176061	c #	-0.938099
-1.1724582	p #	-0.79990923
-1.221782	t #	-1.0597452
-1.2636963	r #	-1.0363191
-1.3647819	e #	-1.1733834
-1.1757371	g #	-0.73561054
-1.2360895	s #	-1.0940495
-1.3321946	u #	-1.1258413
-1.2299974	l #	-0.97937244
-1.3401781	a #	-1.1359416
-1.1664536	m #	-1.0278654
-1.1525655	d #	-0.9054094
-1.182316	b #	-0.69379413
-1.0161684	x #	-0.8080966
-1.1272168	h #	-0.7537332
-1.3329995	o #	-1.1367728
-1.1804384	f #	-0.6544809
-0.9262896	k #	-0.48420963
-1.0392853	w #	-0.6396784
-0.83169794	q #	-0.37533152
-1.1807038	y #	-0.762407
-1.2084005	z #	-0.8745303
-1.3882347	# i	-1.056716
-1.3853118	i i	-0.9387354
-1.2451704	n i	-0.93362385
-1.2549003	c i	-0.8815855
-1.2133082	p i	-0.77865434
-1.2406085	t i	-0.9559696
-1.2471399	r i	-1.0213671
-1.3658937	e i	-0.9375257
-1.1982292	g i	-0.7062306
-1.292672	s i	-0.891383
-1.3510209	u i	-0.997584
-1.2311554	l i	-1.0128239
-1.34129	a i	-0.90584654
-1.18528	m i	-0.83170795
-1.1730621	d i	-0.89006037
-1.162232	b i	-0.78564
-1.1190597	x i	-0.6740725
-1.1486648	h i	-0.75148666
-1.4097669	o i	-0.8085968
-1.0897198	f i	-0.76243436
-0.95285463	k i	-0.56634724
-1.0404353	w i	-0.64380044
-1.4314966	q i	-0.30552858
-1.3485445	y i	-0.35708922
-1.2702509	z i	-0.7405511
-1.3882347	# n	-0.94009787
-1.3491294	i n	-1.0263412
-1.300641	n n	-0.6556489
-1.3860481	c n	-0.5858557
-1.3605505	p n	-0.48618662
-1.4165214	t n	-0.5652693
-1.3227954	r n	-0.64215803
-1.3836082	e n	-1.0464952
-1.1982292	g n	-0.61864686
-1.3797358	s n	-0.5458169
-1.3333064	u n	-0.9156429
-1.4350616	l n	-0.5084408
-1.3590045	a n	-1.0148681
-1.2866437	m n	-0.6641277
-1.3691347	d n	-0.44412833
-1.4075404	b n	-0.35252732
-1.3195763	x n	-0.34119827
-1.4291213	h n	-0.4067873
-1.3341113	o n	-0.97195494
-1.5708807	f n	-0.35037068
-1.7567877	k n	-0.30759487
-1.3441283	w n	-0.323057
-1.3186256	q n	-0.29808646
-1.1625984	y n	-0.64433694
-1.2925048	z n	-0.61336154
-1.3882347	# c	-0.9950417
-1.3853118	i c	-0.87071717
-1.3642486	n c	-0.58996797
-1.3155425	c c	-0.73174894
-1.4966714	p c	-0.36630118
-1.4165214	t c	-0.54379755
-1.3227954	r c	-0.6368124
-1.3836082	e c	-0.9220142
-1.2950323	g c	-0.3972802
-1.2733839	s c	-0.7569747
-1.3694888	u c	-0.85077417
-1.3325193	l c	-0.57538944
-1.3774724	a c	-0.889897
-1.389186	m c	-0.44247746
-1.4012723	d c	-0.434361
-1.5342532	b c	-0.32542452
-1.2522631	x c	-0.43295056
-1.3913975	h c	-0.40727562
-1.3518258	o c	-0.85891855
-1.4141562	f c	-0.40371066
-1.5096223	k c	-0.3956207
-1.484439	w c	-0.33760747
-1.6540027	q c	-0.31525737
-1.3485445	y c	-0.5555283
-1.367054	z c	-0.609316
-1.3882347	# p	-0.9825916
-1.3668439	i p	-0.79150194
-1.5635585	n p	-0.43584257
-1.5748299	c p	-0.37163037
-1.2346367	p p	-0.5934888
-1.474437	t p	-0.43464383
-1.5308207	r p	-0.5217731
-1.3836082	e p	-0.85323775
-1.4988316	g p	-0.32688957
-1.3797358	s p	-0.69596696
-1.4089619	u p	-0.6269933
-1.5318291	l p	-0.41786915
-1.4169455	a p	-0.787621
-1.361193	m p	-0.5878391
-1.560681	d p	-0.3249349
-1.4458121	b p	-0.40263754
-1.445371	x p	-0.34186572
-1.8670963	h p	-0.30843958
-1.389582	o p	-0.7397353
-1.5708807	f p	-0.3292539
-1.8195099	k p	-0.30759487
-1.7929122	w p	-0.31525737
-1.7511959	q p	-0.31525737
-1.3485445	y p	-0.38216257
-1.616516	z p	-0.3059329
-1.3882347	# t	-0.9559696
-1.3668439	i t	-0.9259779
-1.3419948	n t	-0.66717464
-1.2741886	c t	-0.72371787
-1.2807189	p t	-0.66142035
-1.2985494	t t	-0.70890784
-1.3227954	r t	-0.66376585
-1.3658937	e t	-0.91249865
-1.5444943	g t	-0.40537977
-1.2549158	s t	-0.7913099
-1.3510209	u t	-0.85466075
-1.3325193	l t	-0.6984154
-1.34129	a t	-0.94269437
-1.4191086	m t	-0.5909464
-1.5150185	d t	-0.4292153
-1.37237	b t	-0.45691073
-1.3195763	x t	-0.4898914
-1.3566902	h t	-0.45514807
-1.3341113	o t	-0.82402176
-1.3342682	f t	-0.4428105
-1.8195099	k t	-0.31525737
-1.5434865	w t	-0.3339238
-1.4314966	q t	-0.31013402
-1.3204602	y t	-0.54249495
-1.3159609	z t	-0.54238
-1.4059396	# r	-0.9532217
-1.3668439	i r	-0.90359306
-1.3208258	n r	-0.5724989
-1.2943735	c r	-0.65969265
-1.1929785	p r	-0.71313894
-1.2783645	t r	-0.7427411
-1.3227954	r r	-0.6610846
-1.3658937	e r	-1.0567603
-1.1568754	g r	-0.66098744
-1.4045315	s r	-0.59076715
-1.3333064	u r	-0.92876023
-1.3325193	l r	-0.7498466
-1.3590045	a r	-1.0175673
-1.389186	m r	-0.5048376
-1.3392122	d r	-0.6064741
-1.1418915	b r	-0.7302714
-1.3992709	x r	-0.40914536
-1.3245525	h r	-0.48443744
-1.3341113	o r	-0.9938567
-1.1570017	f r	-0.65742344
-1.5096223	k r	-0.30967128
-1.2707565	w r	-0.45785606
-1.2291205	q r	-0.42909527
-1.2456948	y r	-0.65202874
-1.2925048	z r	-0.48521435
-1.3882347	# e	-1.0967895
-1.3668439	i e	-1.0177553
-1.2628849	n e	-0.9152007
-1.2364324	c e	-0.86203176
-1.1929785	p e	-0.7459481
-1.2406085	t e	-0.91658163
-1.2648544	r e	-1.019244
-1.3658937	e e	-0.8490213
-1.1375871	g e	-0.72094905
-1.2733839	s e	-0.8851387
-1.3510209	u e	-0.94702756
-1.2496233	l e	-0.9672743
-1.3590045	a e	-0.8639274
-1.2037479	m e	-0.781599
-1.1537739	d e	-0.8880931
-1.162232	b e	-0.7500353
-1.1426306	x e	-0.5336644
-1.1091918	h e	-0.76281846
-1.3518258	o e	-0.7805485
-1.0500364	f e	-0.71751153
-0.8807409	k e	-0.6380448
-1.0607651	w e	-0.62761045
-1.3186256	q e	-0.31086224
-1.2021623	y e	-0.5237212
-1.2096089	z e	-0.71121395
-1.3882347	# g	-0.855562
-1.3853118	i g	-0.8180435
-1.4667909	n g	-0.6228681
-1.6161449	c g	-0.321934
-1.6369822	p g	-0.30224258
-1.6203208	t g	-0.4188951
-1.4687605	r g	-0.5545153
-1.4020761	e g	-0.8130162
-1.4575167	g g	-0.4345284
-1.5555896	s g	-0.44174826
-1.4089619	u g	-0.682902
-1.5318291	l g	-0.5184898
-1.3590045	a g	-0.797663
-1.5236773	m g	-0.3156356
-1.6117148	d g	-0.33891863
-2.025834	b g	-0.31525737
-1.6231796	x g	-0.30507046
-1.8670963	h g	-0.3041565
-1.389582	o g	-0.7179598
-1.9470515	f g	-0.30911657
-1.7567877	k g	-0.31525737
-1.6930096	w g	-0.30911657
-1.2291205	q g	-0.3711033
-1.3785713	y g	-0.39785388
-1.4249697	z g	-0.39180762
-1.3882347	# s	-0.98776233
-1.3491294	i s	-0.98780966
-1.2813528	n s	-0.6332312
-1.4403386	c s	-0.4917972
-1.3057337	p s	-0.56079006
-1.3197184	t s	-0.61772627
-1.41447	r s	-0.57710445
-1.3836082	e s	-0.9658605
-1.4197929	g s	-0.42065823
-1.2733839	s s	-0.69301295
-1.3333064	u s	-0.9410054
-1.3807709	l s	-0.53271544
-1.3590045	a s	-0.9179334
-1.3348955	m s	-0.5974276
-1.311219	d s	-0.46968764
-1.3398355	b s	-0.4200564
-1.4969523	x s	-0.37379223
-1.29463	h s	-0.4387077
-1.3341113	o s	-0.8643559
-1.4603854	f s	-0.3619525
-1.3530804	k s	-0.3065112
-1.2382497	w s	-0.4899757
-1.6540027	q s	-0.30006522
-1.2021623	y s	-0.6093869
-1.2096089	z s	-0.58652407
-1.3882347	# u	-1.0495937
-1.3491294	i u	-0.94179296
-1.2813528	n u	-0.81816286
-1.2741886	c u	-0.7855988
-1.2346367	p u	-0.67221713
-1.2590764	t u	-0.8521573
-1.2833223	r u	-0.902145
-1.3836082	e u	-0.91360384
-1.2204831	g u	-0.6914841
-1.2733839	s u	-0.825465
-1.3333064	u u	-0.8014958
-1.2311554	l u	-0.90359306
-1.3590045	a u	-0.9755587
-1.2643899	m u	-0.75925803
-1.1932471	d u	-0.7877498
-1.1418915	b u	-0.6660701
-1.1939965	x u	-0.49947932
-1.1486648	h u	-0.58481693
-1.3341113	o u	-0.86937535
-1.1333971	f u	-0.65563
-1.3530804	k u	-0.3641099
-1.1797347	w u	-0.4195756
-0.6292503	q u	-0.67872596
-1.2940822	y u	-0.4067873
-1.2702509	z u	-0.6295926
-1.3893583	# l	-0.9378606
-1.3865236	i l	-0.9024316
-1.4686495	n l	-0.53669953
-1.3392632	c l	-0.6878096
-1.235906	p l	-0.648801
-1.3434392	t l	-0.72175556
-1.284534	r l	-0.6196027
-1.3847694	e l	-0.93546695
-1.3872303	g l	-0.61477196
-1.4061711	s l	-0.6151477
-1.3344212	u l	-0.9476861
-1.2701784	l l	-0.69328135
-1.3601657	a l	-0.9925953
-1.453391	m l	-0.42709735
-1.3410707	d l	-0.5458792
-1.3112545	b l	-0.58393645
-1.4019258	x l	-0.42159253
-1.4316564	h l	-0.40486085
-1.352987	o l	-0.8975969
-1.1584466	f l	-0.6320294
-1.3562217	k l	-0.30112237
-1.9317597	w l	-0.30949786
-1.2707187	y l	-0.5569259
-1.3969057	z l	-0.5185026
-1.3882347	# a	-1.0894439
-1.3491294	i a	-0.958136
-1.2628849	n a	-0.88514733
-1.2364324	c a	-0.8535181
-1.2133082	p a	-0.73020506
-1.2590764	t a	-0.9138154
-1.2648544	r a	-1.0108685
-1.3836082	e a	-0.9042221
-1.1982292	g a	-0.68979967
-1.2733839	s a	-0.805845
-1.3510209	u a	-0.9039325
-1.2311554	l a	-0.93616456
-1.3967607	a a	-0.64165825
-1.223036	m a	-0.7890296
-1.1730621	d a	-0.7564438
-1.1835724	b a	-0.75191355
-1.3195763	x a	-0.50297
-1.0730094	h a	-0.7753986
-1.389582	o a	-0.6745652
-1.1110096	f a	-0.70946527
-0.95285463	k a	-0.5295676
-1.0820936	w a	-0.49743438
-1.584414	q a	-0.30507046
-1.2940822	y a	-0.5849662
-1.2925048	z a	-0.70815176
-1.3882347	# m	-0.9179252
-1.3668439	i m	-0.8761471
-1.3642486	n m	-0.61938345
-1.3612524	c m	-0.4525509
-1.5850104	p m	-0.38797045
-1.3419722	t m	-0.6391895
-1.41447	r m	-0.61707485
-1.3836082	e m	-0.93904155
-1.4197929	g m	-0.45394558
-1.458822	s m	-0.58719736
-1.3510209	u m	-0.89828813
-1.5318291	l m	-0.58403444
-1.3590045	a m	-0.931085
-1.2866437	m m	-0.6589034
-1.4737034	d m	-0.36117083
-1.6454341	b m	-0.30165192
-1.555496	x m	-0.3625268
-1.4704363	h m	-0.32565838
-1.3518258	o m	-0.83377707
-1.7194507	f m	-0.30381373
-1.7567877	k m	-0.30507046
-1.3058947	w m	-0.49235785
-1.4314966	q m	-0.31013402
-1.2456948	y m	-0.66081446
-1.3159609	z m	-0.42831123
-1.3893583	# d	-0.98798376
-1.3865236	i d	-0.79142344
-1.3433883	n d	-0.6044547
-1.4140878	c d	-0.56105644
-1.4252611	p d	-0.3502075
-1.5087194	t d	-0.58725953
-1.470619	r d	-0.51392394
-1.3847694	e d	-0.8329331
-1.5475934	g d	-0.39978766
-1.4061711	s d	-0.60697365
-1.3344212	u d	-0.74793
-1.4669755	l d	-0.5288331
-1.378684	a d	-0.78920484
-1.6137542	m d	-0.45167273
-1.4383032	d d	-0.472681
-1.409653	b d	-0.37965897
-1.4483243	x d	-0.3046132
-1.6289585	h d	-0.30552858
-1.352987	o d	-0.7210593
-2.0132148	f d	-0.30911657
-1.698215	w d	-0.41486955
-1.7615516	q d	-0.31525737
-1.3221526	y d	-0.5524974
-1.5320735	z d	-0.4588626
-1.3893583	# b	-0.9033752
-1.3865236	i b	-0.78957653
-1.4405401	n b	-0.53316295
-1.577365	c b	-0.39589128
-1.4989948	p b	-0.47132522
-1.5436057	t b	-0.5519679
-1.5006744	r b	-0.57720256
-1.4032879	e b	-0.7946817
-1.7247632	g b	-0.30759487
-1.4606805	s b	-0.54068696
-1.3707005	u b	-0.7146049
-1.43692	l b	-0.4890589
-1.3601657	a b	-0.8463352
-1.453391	m b	-0.5721786
-1.403417	d b	-0.39581394
-1.4481198	b b	-0.4504294
-1.6276348	x b	-0.30112237
-1.4732252	h b	-0.39988336
-1.4110941	o b	-0.7397353
-1.7247497	f b	-0.30507046
-1.514134	k b	-0.31525737
-1.7994742	w b	-0.30507046
-1.4860331	y b	-0.45446214
-1.4941382	z b	-0.3596791
-1.4059396	# x	-0.8573532
-1.4046001	i x	-0.603358
-1.6425973	n x	-0.42636365
-1.6618074	c x	-0.42911687
-2.1321235	p x	-0.30507046
-1.9204971	t x	-0.30572507
-1.6445669	r x	-0.42396381
-1.3836082	e x	-0.7245938
-1.8954917	g x	-0.30306143
-1.7313248	s x	-0.38436005
-1.4523847	u x	-0.6519939
-1.5318291	l x	-0.5529487
-1.4603683	a x	-0.6314806
-1.7195283	m x	-0.42491394
-1.7362978	d x	-0.3054228
-2.1593347	b x	-0.31525737
-1.2522631	x x	-0.5517052
-1.6917157	h x	-0.30759487
-1.555732	o x	-0.52334535
-1.9470515	f x	-0.30911657
-1.8195099	k x	-0.31525737
-1.9795804	w x	-0.31525737
-1.7511959	q x	-0.31525737
-1.8274498	y x	-0.31013402
-1.4918146	z x	-0.39235082
-1.3882347	# h	-0.87515604
-1.4459538	i h	-0.6772698
-1.5288512	n h	-0.5383375
-1.2943735	c h	-0.71875954
-1.3322779	p h	-0.6462187
-1.3419722	t h	-0.6538457
-1.4687605	r h	-0.5312758
-1.4020761	e h	-0.6942894
-1.4197929	g h	-0.59101963
-1.4308289	s h	-0.5083256
-1.554927	u h	-0.41037005
-1.4070685	l h	-0.6065585
-1.4838244	a h	-0.60478604
-1.6616888	m h	-0.32368344
-1.560681	d h	-0.3462394
-1.4877852	b h	-0.4039648
-1.7033944	x h	-0.3535828
-1.7706125	h h	-0.3054228
-1.4766458	o h	-0.61335427
-1.7194507	f h	-0.33608118
-1.5096223	k h	-0.36610854
-2.0557692	w h	-0.31525737
-1.6540027	q h	-0.31525737
-1.7478218	y h	-0.29871073
-1.7253892	z h	-0.3542826
-1.3882347	# o	-0.999196
-1.3491294	i o	-0.8588501
-1.2451704	n o	-0.82123756
-1.2364324	c o	-0.8044925
-1.1549687	p o	-0.7266522
-1.2590764	t o	-0.89173174
-1.2648544	r o	-0.93940914
-1.3836082	e o	-0.7869669
-1.2439392	g o	-0.63975453
-1.3128569	s o	-0.6871478
-1.3333064	u o	-0.77895355
-1.2689116	l o	-0.8378831
-1.4169455	a o	-0.6085592
-1.2037479	m o	-0.7267825
-1.1932471	d o	-0.7365248
-1.1224611	b o	-0.6987183
-1.3195763	x o	-0.50592625
-1.0907239	h o	-0.6835397
-1.4309359	o o	-0.5299043
-1.1333971	f o	-0.6177849
-1.0725212	k o	-0.45167273
-1.1531906	w o	-0.39823893
-1.4314966	q o	-0.31525737
-1.3485445	y o	-0.46993214
-1.3159609	z o	-0.64012736
-1.3904848	# f	-0.9143795
-1.3877387	i f	-0.7482285
-1.5331511	n f	-0.5739778
-1.6217408	c f	-0.4149536
-1.5907278	p f	-0.30185494
-1.5108747	t f	-0.54249495
-1.6964501	r f	-0.48803478
-1.4442078	e f	-0.77492756
-1.9095765	g f	-0.30759487
-1.5983984	s f	-0.57211995
-1.4789435	u f	-0.6708179
-1.574638	l f	-0.5753947
-1.440906	a f	-0.7229337
-1.5705882	m f	-0.4657962
-1.6187174	d f	-0.35689586
-1.8056674	b f	-0.30552858
-1.5631485	x f	-0.30381373
-2.0101774	h f	-0.30759487
-1.4337275	o f	-0.74410677
-1.2705481	f f	-0.5267983
-1.8061368	w f	-0.29916173
-1.6883674	y f	-0.33871853
-1.3987721	z f	-0.38268292
-1.4268428	# k	-0.71510106
-1.4711467	i k	-0.58409595
-1.8051426	n k	-0.38789055
-1.6217408	c k	-0.44187227
-2.2328513	p k	-0.31525737
-1.6259167	t k	-0.29916173
-1.6501627	r k	-0.48022956
-1.5365094	e k	-0.6686713
-1.9095765	g k	-0.30759487
-1.5602492	s k	-0.45446214
-1.5888414	u k	-0.5345981
-1.6164638	l k	-0.4291944
-1.538409	a k	-0.5095641
-1.6686915	m k	-0.3044609
-2.0547595	d k	-0.31525737
-2.183811	b k	-0.31525737
-1.8811812	h k	-0.30759487
-1.5896465	o k	-0.58393645
-2.0236988	f k	-0.31183514
-1.8382313	k k	-0.30306143
-2.080308	w k	-0.31525737
-1.6883674	y k	-0.54174876
-1.8014873	z k	-0.30572507
-1.40711	# w	-0.82047504
-1.5726086	i w	-0.52369523
-1.5309958	n w	-0.3970888
-1.7163286	c w	-0.38352036
-2.1422505	p w	-0.31525737
-1.5087194	t w	-0.43785965
-1.6057869	r w	-0.37097555
-1.5099767	e w	-0.5796516
-1.5016205	g w	-0.32800394
-1.5579132	s w	-0.42435148
-1.5567856	u w	-0.4790554
-1.6596296	l w	-0.36963937
-1.5948246	a w	-0.472681
-1.7235146	m w	-0.3054228
-1.6152021	d w	-0.36523736
-1.7182025	b w	-0.30843958
-1.708759	x w	-0.29601294
-1.6289585	h w	-0.3036584
-1.4546567	o w	-0.5581138
-1.64324	f w	-0.30552858
-1.698215	w w	-0.30967128
-1.7615516	q w	-0.31525737
-2.0602713	y w	-0.30911657
-1.5736423	z w	-0.2989039
-1.3916142	# q	-0.73976433
-1.4963261	i q	-0.7409074
-1.7498405	n q	-0.5355081
-1.5441146	c q	-0.48024777
-2.245661	p q	-0.31525737
-1.7275641	t q	-0.6508932
-1.6995941	r q	-0.49771953
-1.445543	e q	-0.7782436
-1.9167941	g q	-0.31013402
-1.4947462	s q	-0.60655856
-1.6970685	u q	-0.775832
-1.8462557	l q	-0.5943623
-1.5135578	a q	-0.6629514
-1.5313275	m q	-0.66130906
-1.6816245	d q	-0.54174876
-1.8224027	x q	-0.30196995
-2.0199192	h q	-0.30507046
-1.4813081	o q	-0.7139546
-2.0106986	w q	-0.30507046
-1.6058441	q q	-0.31525737
-2.2168028	y q	-0.31525737
-1.9888159	z q	-0.41827106
-1.4243969	# y	-0.84271926
-1.6675177	i y	-0.30415627
-1.6012822	n y	-0.4370134
-1.6618074	c y	-0.34418097
-1.6369822	p y	-0.30251536
-1.5790058	t y	-0.41918397
-1.4687605	r y	-0.44052392
-1.3836082	e y	-0.6795059
-1.720111	g y	-0.327942
-1.5555896	s y	-0.41584104
-1.4758408	u y	-0.4382395
-1.464984	l y	-0.4342189
-1.4169455	a y	-0.730091
-1.6616888	m y	-0.329459
-1.6117148	d y	-0.30580342
-1.3398355	b y	-0.41491482
-1.9847934	x y	-0.31525737
-1.3913975	h y	-0.3859517
-1.5014415	o y	-0.61864686
-1.9470515	f y	-0.31013402
-1.5096223	k y	-0.35805774
-1.2382497	w y	-0.38459978
-1.7511959	q y	-0.31525737
-2.05109	y y	-0.31525737
-1.8710296	z y	-0.31013402
-1.5322387	# z	-0.7641683
-1.4058669	i z	-0.73635805
-1.3892533	n z	-0.5809289
-1.5045435	c z	-0.5331493
-1.6997124	p z	-0.30185494
-1.4463731	t z	-0.5278148
-1.3241227	r z	-0.59275484
-1.4226313	e z	-0.68765616
-1.4600518	g z	-0.40336388
-1.5958484	s z	-0.43490738
-1.4102892	u z	-0.6384184
-1.4669755	l z	-0.5036875
-1.378684	a z	-0.69631255
-1.5262125	m z	-0.38574576
-1.4762385	d z	-0.41809672
-1.4903277	b z	-0.30415627
-1.5002794	x z	-0.3026835
-1.5191981	h z	-0.37620905
-1.4110941	o z	-0.5629557
-1.4632957	f z	-0.35669112
-1.9166222	k z	-0.31525737
-1.5471692	w z	-0.3041565
-1.6257236	y z	-0.34687987
-1.3423963	z z	-0.5488888

\3-grams:
-0.27186456	# # </s>	0
-1.3451205	i # </s>	0
-1.2864654	n # </s>	0
-1.1988156	c # </s>	0
-1.1984916	p # </s>	0
-1.3002034	t # </s>	0
-1.3406286	r # </s>	0
-1.3759569	e # </s>	0
-1.2021754	g # </s>	0
-1.3760157	s # </s>	0
-1.3284148	u # </s>	0
-1.2198306	l # </s>	0
-1.3385152	a # </s>	0
-1.3098317	m # </s>	0
-1.2581809	d # </s>	0
-1.1581988	b # </s>	0
-1.2725012	x # </s>	0
-1.1789482	h # </s>	0
-1.3974893	o # </s>	0
-1.1235676	f # </s>	0
-1.3214874	k # </s>	0
-1.2913364	w # </s>	0
-1.1759744	q # </s>	0
-1.2787236	y # </s>	0
-1.2482641	z # </s>	0
-5.3423705	<s> # #	-0.28518954
-1.2436227	# i #	-1.9501749
-1.1026033	i i #	-3.1625977
-1.1278636	n i #	-3.0294435
-1.1760014	c i #	-2.9309661
-1.0754738	p i #	-2.774365
-1.2323636	t i #	-3.1014042
-1.2267164	r i #	-3.1848216
-1.1148309	e i #	-2.8502283
-1.1094213	g i #	-2.0092273
-1.1912103	s i #	-2.7130911
-1.2164016	u i #	-3.0780838
-1.2728071	l i #	-2.9020119
-1.1367131	a i #	-1.7888191
-1.1594827	m i #	-1.9772428
-1.2029638	d i #	-2.6616101
-1.2040476	b i #	-2.7470646
-1.0713447	x i #	-1.4447459
-1.0602775	h i #	-1.6659305
-1.0408666	o i #	-2.1619167
-1.2105656	f i #	-1.2018561
-0.92702514	k i #	-0.39893714
-1.0331259	w i #	-0.36767903
-0.770772	q i #	-0.2600444
-1.1820637	y i #	-0.28518954
-1.026055	z i #	-0.8678021
-1.0918108	# n #	-1.5434161
-1.2122957	i n #	-3.4267244
-1.0530956	n n #	-1.8060572
-0.868864	c n #	-0.32717317
-0.99694884	p n #	-0.2992239
-1.2610981	t n #	-0.49026668
-1.019469	r n #	-0.7273862
-1.2324498	e n #	-3.2647123
-1.5185404	g n #	-0.269557
-1.1904807	s n #	-0.2626257
-1.1015974	u n #	-1.2039791
-1.2351106	l n #	-0.4949981
-1.2063248	a n #	-1.961675
-0.8963621	m n #	-0.47157788
-1.1048381	d n #	-0.27484635
-1.1698186	b n #	-0.28518954
-1.17702	x n #	-0.6004203
-1.1707628	h n #	-0.25397918
-1.170418	o n #	-2.8660934
-0.9915514	f n #	-0.26495832
-0.85876465	w n #	-0.29460493
-0.85116494	q n #	-0.28518954
-1.0049105	y n #	-0.5189917
-1.3502901	z n #	-0.4625438
-1.2482276	# c #	-1.8699784
-1.1514528	i c #	-1.9727528
-1.1028849	n c #	-2.308877
-1.0030646	c c #	-0.8214046
-1.0052098	p c #	-0.29223183
-1.0148281	t c #	-2.0563822
-1.1321331	r c #	-0.7530484
-1.1202264	e c #	-2.4087174
-0.94566184	g c #	-0.44264075
-1.0523136	s c #	-0.8693948
-1.0801525	u c #	-1.6296476
-1.0039436	l c #	-0.9216242
-1.0627319	a c #	-2.8544087
-0.99245894	m c #	-0.31574026
-0.9653368	d c #	-0.28979045
-1.2640382	b c #	-0.28518954
-0.64910054	x c #	-0.37599885
-0.5822222	h c #	-0.32838243
-1.0839738	o c #	-2.4458933
-1.2663907	f c #	-0.35054278
-0.28483215	k c #	-0.3615517
-1.1890095	w c #	-0.29651272
-1.0276469	q c #	-0.2362758
-1.5263207	y c #	-0.28518954
-0.8471632	z c #	-0.5964945
-1.1998587	# p #	-1.6213229
-1.1829406	i p #	-0.614898
-1.3813789	n p #	-0.28518954
-0.7900729	c p #	-0.2792719
-1.2217013	p p #	-0.86148554
-0.9608912	t p #	-0.29081422
-1.0452136	r p #	-0.4452355
-1.2231919	e p #	-0.7230282
-1.2193707	g p #	-0.28518954
-1.380459	s p #	-0.31450576
-1.0081857	u p #	-0.55285877
-1.2103084	l p #	-0.25518546
-1.141406	a p #	-0.789875
-1.1354008	m p #	-0.57672596
-1.2487975	d p #	-0.28518954
-1.0107311	x p #	-0.47069618
-1.0438758	h p #	-0.28518954
-1.135496	o p #	-0.49769008
-1.0086997	f p #	-0.28518954
-0.790116	k p #	-0.28518954
-0.7916698	w p #	-0.28518954
-0.5367234	q p #	-0.28518954
-1.3658717	y p #	-0.28518954
-1.1396029	# t #	-1.5911343
-1.1054006	i t #	-3.324264
-1.0196738	n t #	-3.162381
-0.95123535	c t #	-1.0340608
-0.9287903	p t #	-2.0781186
-0.9287872	t t #	-0.7506049
-0.9285108	r t #	-1.8062204
-1.0782061	e t #	-3.730111
-0.8789896	g t #	-0.31629345
-1.0877306	s t #	-2.4592354
-1.0459868	u t #	-3.1937995
-1.0283415	l t #	-0.84605414
-1.1030508	a t #	-3.1073763
-0.8490165	m t #	-1.350916
-0.77893335	d t #	-0.30412477
-1.0738083	b t #	-0.28153843
-0.9646534	x t #	-0.5306982
-0.8287876	h t #	-1.3257588
-1.0507764	o t #	-1.372607
-0.79052436	f t #	-0.3744713
-0.54197466	k t #	-0.25197613
-0.715131	w t #	-0.27064314
-0.7084576	q t #	-0.28518954
-1.01708	y t #	-0.272435
-0.6591793	z t #	-0.25197613
-1.1224549	# r #	-1.7308536
-1.0178082	i r #	-1.9038143
-1.0029924	n r #	-1.7629708
-1.077089	c r #	-0.32095212
-1.0873808	p r #	-0.53954625
-1.0723152	t r #	-0.58582735
-0.887532	r r #	-1.3748767
-1.2483841	e r #	-3.1752021
-1.1384254	g r #	-1.5700946
-0.95626247	s r #	-1.4175441
-1.1411605	u r #	-2.197372
-1.0523989	l r #	-0.296547
-1.2406319	a r #	-1.4715725
-0.8978979	m r #	-0.8824626
-1.0845873	d r #	-0.2682654
-1.136759	b r #	-1.4392685
-0.72835964	x r #	-1.2249513
-1.144941	h r #	-0.5058066
-1.2311262	o r #	-2.4284723
-1.3674781	f r #	-1.7791109
-1.0271895	w r #	-0.26736307
-1.0715997	q r #	-0.28518954
-1.3141525	y r #	-0.29223183
-0.9141574	z r #	-0.38134387
-1.3145092	# e #	-2.4242399
-1.195233	i e #	-3.144862
-1.1722124	n e #	-3.1207001
-1.1567516	c e #	-2.786321
-1.0982405	p e #	-2.2688837
-1.1535031	t e #	-3.320811
-1.2369637	r e #	-3.2953842
-1.027662	e e #	-1.7030159
-1.1757572	g e #	-1.6923286
-1.1220602	s e #	-2.783296
-1.1293675	u e #	-3.1336443
-1.224286	l e #	-2.5638227
-1.0289489	a e #	-2.9151587
-1.0198734	m e #	-2.5492167
-1.1451048	d e #	-3.501392
-1.2536458	b e #	-2.2899134
-0.8805866	x e #	-0.715236
-1.0945233	h e #	-1.3254026
-1.0224552	o e #	-2.9455972
-1.1611552	f e #	-0.9888154
-0.9161976	k e #	-0.66823846
-0.8026083	w e #	-0.6112587
-0.7861026	q e #	-0.25782907
-0.823274	y e #	-0.84543234
-0.9220148	z e #	-1.0261351
-1.0731912	# g #	-1.572295
-1.15163	i g #	-0.4199438
-1.0497991	n g #	-0.8889266
-1.1006942	c g #	-0.2600444
-0.9355312	r g #	-1.1792506
-1.1216682	e g #	-0.74875605
-0.8972771	g g #	-0.3651935
-1.0577816	s g #	-0.28518954
-1.0361876	u g #	-0.594339
-1.0472891	l g #	-0.272435
-1.1886659	a g #	-0.37128195
-0.8949008	m g #	-0.2362758
-1.1532019	d g #	-0.2682654
-0.926999	b g #	-0.28518954
-0.70038897	x g #	-0.2362758
-0.5549401	h g #	-0.2600444
-1.1955662	o g #	-0.26852903
-0.63395023	f g #	-0.28518954
-0.63395023	w g #	-0.28518954
-1.2139603	y g #	-0.28518954
-1.2272804	z g #	-0.28518954
-1.1715044	# s #	-2.4854245
-1.1660609	i s #	-3.907372
-0.9165742	n s #	-2.5603049
-0.5803386	c s #	-1.8711894
-0.8468799	p s #	-2.2522385
-0.70545197	t s #	-1.0694538
-0.8351055	r s #	-1.596289
-1.1496025	e s #	-3.3039393
-0.5532489	g s #	-0.2934303
-0.93957496	s s #	-1.2919436
-1.072203	u s #	-3.641454
-0.70093054	l s #	-1.0122691
-1.0852586	a s #	-3.1406796
-0.683724	m s #	-1.0514543
-0.54286474	d s #	-0.93554515
-0.8339941	b s #	-0.70411825
-0.7207279	x s #	-0.2738338
-0.66293705	h s #	-0.32372317
-1.0312332	o s #	-3.1547475
-0.61563605	f s #	-0.47211182
-0.7664771	k s #	-0.28518954
-0.46380654	w s #	-0.3165265
-0.2773786	q s #	-0.2362758
-0.9582789	y s #	-0.6431656
-0.62405246	z s #	-0.6951821
-1.2593541	# u #	-2.1563835
-1.1719091	i u #	-3.0065446
-1.0622103	n u #	-2.4658225
-1.0870035	c u #	-2.146127
-1.0609423	p u #	-1.2852749
-1.0993185	t u #	-3.068789
-1.1026568	r u #	-2.4451976
-1.151265	e u #	-2.4505062
-1.2592022	g u #	-0.7094193
-1.1424052	s u #	-2.2995083
-0.99442405	u u #	-2.0908015
-1.1989826	l u #	-2.228544
-1.2342281	a u #	-1.7540284
-1.0830078	m u #	-1.8358865
-1.141375	d u #	-2.5388129
-1.1253743	b u #	-1.6333243
-0.95331466	x u #	-1.736374
-1.2419268	h u #	-1.2580215
-1.1631783	o u #	-0.927134
-1.2100054	f u #	-0.6693518
-1.2808322	k u #	-0.28518954
-0.9909317	w u #	-0.3024773
-0.9998364	q u #	-0.78130853
-0.8012701	y u #	-0.26495832
-0.9328941	z u #	-0.39045644
-1.1919794	# l #	-1.2930228
-1.0810184	i l #	-2.2782083
-0.89615613	n l #	-0.66191745
-1.1376239	c l #	-1.2600546
-1.1305796	p l #	-0.30601192
-1.0697294	t l #	-0.5994712
-0.7694155	r l #	-0.46633816
-1.1241326	e l #	-2.1129222
-1.3589221	g l #	-0.44264075
-0.9905326	s l #	-0.48628515
-1.1955596	u l #	-2.8348274
-1.1399322	l l #	-0.8143029
-1.2266458	a l #	-1.1879466
-0.95436317	m l #	-0.272435
-0.8812361	d l #	-0.26004443
-1.2366508	b l #	-0.36359286
-0.9561148	x l #	-0.71524423
-1.0082148	h l #	-0.28518954
-1.1853869	o l #	-1.4434812
-1.6982398	f l #	-0.28518954
-1.0615696	k l #	-2.7114148
-1.2137384	w l #	-0.28518954
-1.0531479	y l #	-0.2993038
-1.3339295	z l #	-0.28518954
-1.287049	# a #	-2.6014786
-1.1334342	i a #	-3.3232455
-1.1501489	n a #	-2.8122647
-1.1624987	c a #	-2.7408333
-1.102517	p a #	-2.223552
-1.1688564	t a #	-3.1300993
-1.2403668	r a #	-2.9408965
-1.0476781	e a #	-2.3469176
-1.1914269	g a #	-1.5464389
-1.1667944	s a #	-2.4626234
-1.1403192	u a #	-2.5169888
-1.2287354	l a #	-2.5454795
-0.94586295	a a #	-0.5292004
-1.138937	m a #	-2.407511
-1.04397	d a #	-2.7986505
-1.1972066	b a #	-1.5172478
-0.94912386	x a #	-1.2664272
-1.1083424	h a #	-1.5221115
-1.0892011	o a #	-0.41134784
-1.1990421	f a #	-0.66339844
-0.94659555	k a #	-0.554126
-0.80756164	w a #	-0.34396496
-0.7237002	q a #	-0.28518954
-0.8541917	y a #	-0.8074024
-0.99762124	z a #	-0.92078936
-1.1203169	# m #	-2.3909209
-1.0013776	i m #	-2.8124802
-0.7430867	n m #	-1.2289779
-0.6273222	c m #	-2.2107725
-0.6359664	p m #	-2.4174144
-0.72611046	t m #	-0.30412477
-0.8820882	r m #	-2.338721
-1.064759	e m #	-3.2084322
-0.82908976	g m #	-0.4023278
-0.8238297	s m #	-0.9614573
-1.0354648	u m #	-3.5759993
-0.93742514	l m #	-1.0906966
-1.08014	a m #	-3.263652
-0.89094186	m m #	-0.5941781
-0.7476815	d m #	-1.8102837
-1.113272	b m #	-0.28518954
-0.5831491	x m #	-0.3761819
-0.9056131	h m #	-0.37569395
-1.0324241	o m #	-1.9091842
-0.7997363	f m #	-0.28518954
-0.43609464	k m #	-0.28518954
-0.36269563	w m #	-0.44412214
-0.69968647	q m #	-0.28518954
-0.97002465	y m #	-0.41933817
-1.199302	z m #	-0.4158799
-1.1833389	# d #	-1.6732385
-0.92526126	i d #	-2.3054025
-1.0431486	n d #	-0.79410386
-0.7608013	c d #	-0.3952209
-1.0755402	p d #	-0.24562775
-0.67814434	t d #	-0.2682654
-0.9962185	r d #	-1.4615797
-0.9599609	e d #	-2.0360098
-1.0358222	g d #	-0.29223183
-0.9922693	s d #	-0.27276766
-0.9365563	u d #	-2.5584207
-1.0089978	l d #	-0.6341848
-0.9958379	a d #	-3.0607176
-1.2658303	m d #	-0.2619358
-0.97307897	d d #	-0.94301486
-1.0960397	b d #	-0.2682654
-1.1084113	x d #	-0.28518954
-1.0632972	h d #	-0.28518954
-0.9309823	o d #	-1.3227196
-0.8608688	f d #	-0.28518954
-1.0735503	w d #	-0.28518954
-0.25950375	q d #	-2.849571
-1.2017466	z d #	-0.28518954
-1.0420936	# b #	-1.677619
-1.1391544	i b #	-0.49416983
-1.427182	n b #	-0.28518954
-1.178339	c b #	-0.28518954
-1.3681011	p b #	-0.28518954
-1.5165445	t b #	-0.25197613
-1.0422585	r b #	-0.25818002
-1.1612792	e b #	-0.368009
-1.1227695	g b #	-0.28518954
-0.9577687	s b #	-0.78557754
-1.1613567	u b #	-2.0990734
-1.1176376	l b #	-0.28518954
-1.0999849	a b #	-2.503447
-1.133012	m b #	-0.32816952
-1.3855002	d b #	-0.3615517
-1.2786765	b b #	-0.32372594
-1.0589232	o b #	-2.6201472
-0.9260114	f b #	-0.28518954
-0.7014729	w b #	-0.28518954
-1.1421268	z b #	-0.28518954
-0.93323773	# x #	-1.7782378
-0.60803705	i x #	-1.4461579
-0.70806974	n x #	-0.37325394
-0.84657294	c x #	-0.53612185
-0.41985232	p x #	-0.26495832
-0.58819765	t x #	-0.28518954
-0.69432503	r x #	-0.37118715
-0.8782141	e x #	-2.6253169
-0.44915357	s x #	-0.2792719
-0.8151889	u x #	-1.2248936
-0.6661492	l x #	-0.4387169
-0.79642016	a x #	-0.9524722
-0.58523345	m x #	-0.35123923
-0.9050401	d x #	-0.25197613
-0.51615965	b x #	-0.28518954
-0.9877366	x x #	-0.81941175
-0.7640373	h x #	-0.28518954
-0.7507409	o x #	-0.6445835
-0.60758567	f x #	-0.28518954
-0.6602339	k x #	-0.28518954
-0.8773278	w x #	-0.28518954
-0.24969634	q x #	-0.28518954
-0.6706643	y x #	-0.28518954
-0.6166378	z x #	-0.27535772
-1.1275744	# h #	-1.2351912
-1.216152	i h #	-0.286371
-0.96485454	n h #	-0.3094444
-1.0372599	c h #	-1.1835716
-1.1208686	p h #	-0.6890769
-1.0485368	t h #	-0.9235875
-0.9023223	r h #	-0.49033606
-1.0466512	e h #	-0.32288668
-0.92614955	g h #	-0.4332798
-1.215249	s h #	-0.28518954
-1.2680455	u h #	-0.272435
-1.2086691	l h #	-0.26495832
-1.4699849	a h #	-0.28518954
-0.8945533	m h #	-0.28518954
-1.0735804	d h #	-0.2600444
-1.1377883	b h #	-0.28518954
-1.072303	x h #	-0.28518954
-0.9443145	h h #	-0.2600444
-1.3851928	o h #	-0.75510716
-1.1622916	f h #	-0.26495832
-0.7821736	w h #	-0.28518954
-0.6816451	q h #	-0.28518954
-1.1962802	# o #	-1.2942448
-1.0877879	i o #	-3.1401393
-1.064644	n o #	-3.1340642
-1.0534271	c o #	-2.6674397
-1.0275521	p o #	-2.6795144
-1.1118731	t o #	-3.0936968
-1.2147932	r o #	-3.0374691
-0.9769884	e o #	-2.3020754
-1.0663538	g o #	-1.9122682
-1.0231003	s o #	-1.9176699
-0.9662965	u o #	-2.593479
-1.075609	l o #	-2.5689728
-0.8296625	a o #	-1.4628295
-1.0586249	m o #	-2.5254679
-1.0480212	d o #	-2.7478538
-0.95474756	b o #	-1.8733202
-0.9430857	x o #	-0.9541523
-1.1337886	h o #	-1.4463999
-0.76179945	o o #	-0.38301378
-1.042384	f o #	-1.1439865
-0.6844373	k o #	-0.35952687
-0.9680923	w o #	-0.2742789
-1.2266337	q o #	-0.28518954
-0.69909644	y o #	-1.1944637
-0.7691537	z o #	-0.89682806
-1.1415734	# f #	-2.0355277
-1.0598239	i f #	-0.49322045
-1.2036358	n f #	-0.27276766
-1.0198237	c f #	-1.8880723
-1.0682714	p f #	-0.28518954
-1.3808746	t f #	-0.30839628
-1.3602375	r f #	-0.45581567
-1.1881151	e f #	-0.7858284
-1.4289602	s f #	-0.28518954
-1.23201	u f #	-0.4901383
-1.4553071	l f #	-0.24562775
-1.4484807	a f #	-0.25444275
-0.9168867	d f #	-0.28518954
-1.074313	b f #	-0.28518954
-1.0118657	x f #	-0.28518954
-1.1798818	o f #	-0.49322045
-1.1505866	f f #	-1.051739
-1.0646569	# k #	-0.29700065
-0.68312925	i k #	-0.24907899
-0.88217676	c k #	-0.2615799
-0.7392872	t k #	-0.2993903
-0.8840004	r k #	-0.31554353
-0.7391593	e k #	-0.33272752
-0.7272567	g k #	-0.29651272
-0.82639354	s k #	-0.29651272
-0.66273725	u k #	-0.28518954
-0.7097082	l k #	-0.2682654
-0.8801563	a k #	-0.2682654
-0.7704546	m k #	-0.28518954
-0.7296287	d k #	-0.28518954
-0.9105388	h k #	-0.28518954
-0.73251307	o k #	-0.28311843
-0.58749306	k k #	-0.28518954
-0.9675084	y k #	-0.28518954
-0.8783008	z k #	-0.28518954
-1.009894	# w #	-1.0192603
-0.6399821	i w #	-0.7226037
-0.73114586	n w #	-0.4141543
-0.54320306	c w #	-0.2860556
-0.8853135	p w #	-0.28518954
-1.1292856	t w #	-0.28518954
-1.0850761	r w #	-0.28518954
-0.93847734	e w #	-0.28393826
-1.1238849	g w #	-0.28518954
-0.8831876	s w #	-0.2792719
-0.8010128	u w #	-0.27843308
-0.93353784	l w #	-0.28518954
-1.2634447	a w #	-0.28518954
-0.9137542	m w #	-0.28518954
-1.0718514	d w #	-0.2600444
-0.60948604	x w #	-0.28518954
-1.0347064	h w #	-0.28518954
-0.58719003	o w #	-0.36234745
-1.0140511	f w #	-0.28518954
-0.86811614	w w #	-0.29382387
-0.6650605	q w #	-0.28518954
-0.8295742	y w #	-0.28518954
-0.90562826	# q #	-0.34428132
-0.90072894	i q #	-0.25656822
-0.89934945	n q #	-0.28518954
-0.88405	c q #	-0.28518954
-1.0444942	t q #	-0.28518954
-0.8615609	r q #	-0.41954365
-1.2110891	e q #	-0.2600444
-0.8009096	g q #	-0.28518954
-1.2057939	s q #	-0.28518954
-1.143115	a q #	-0.28518954
-0.8621304	m q #	-0.28518954
-1.1749417	o q #	-0.28518954
-0.6107935	w q #	-0.28518954
-0.6138029	q q #	-0.6004203
-1.0465693	# y #	-0.8071215
-1.0141437	i y #	-0.2600444
-0.6641673	n y #	-0.57750165
-0.7264585	c y #	-0.4250083
-1.0821933	p y #	-0.28518954
-0.80843985	t y #	-0.3159976
-0.54401374	r y #	-0.35816345
-0.99847245	e y #	-0.5426639
-0.7927249	g y #	-0.2682654
-0.9468108	s y #	-0.3807472
-0.7893099	u y #	-0.4373588
-0.8876504	l y #	-0.30839628
-1.0126388	a y #	-0.673235
-1.0477692	m y #	-0.24799752
-1.2333909	d y #	-0.2362758
-0.61504745	b y #	-0.4973833
-0.69046265	x y #	-0.55178523
-1.0724287	h y #	-0.8935037
-0.8612119	o y #	-0.4367696
-1.306442	w y #	-0.28518954
-0.69046265	y y #	-0.28518954
-0.92695624	z y #	-0.28518954
-1.0742966	# z #	-0.5815433
-0.8505762	i z #	-0.7309349
-0.875509	n z #	-0.9119106
-0.81023943	c z #	-0.4820518
-1.0788375	p z #	-0.41105863
-0.65267915	t z #	-0.6633903
-0.91216475	r z #	-0.6388407
-0.8339618	e z #	-1.0266668
-1.2253138	g z #	-0.28518954
-0.9191206	s z #	-0.45243567
-0.8869877	u z #	-0.6449569
-0.75769997	l z #	-0.355228
-1.0483613	a z #	-0.35009262
-0.8040347	m z #	-0.35619825
-0.7302712	d z #	-0.41594645
-1.2140923	b z #	-0.28518954
-0.8411939	x z #	-0.8016627
-0.70318085	h z #	-0.4002064
-0.92439485	o z #	-0.3468722
-1.0659362	f z #	-0.28518954
-0.81393063	w z #	-0.28518954
-0.5604134	y z #	-0.28518954
-0.9258048	z z #	-0.2662752
-0.9397943	<s> # i	-2.7116616
-1.361897	i # i	-2.917736
-1.2607878	n # i	-2.5724392
-1.3147725	c # i	-2.3276196
-1.2633941	p # i	-0.7441462
-1.3396955	t # i	-3.1544645
-1.2749448	r # i	-2.339302
-1.3742771	e # i	-3.1682014
-1.5042837	g # i	-0.7741574
-1.332675	s # i	-3.270091
-1.3451912	u # i	-2.6966836
-1.3049972	l # i	-2.342926
-1.3552916	a # i	-2.9130278
-1.266491	m # i	-2.9927235
-1.2820828	d # i	-2.5650153
-1.2276055	b # i	-2.0707605
-1.2694364	x # i	-1.6918145
-1.2914594	h # i	-0.73250794
-1.3561229	o # i	-2.7521672
-1.2624177	f # i	-1.0640662
-1.3142896	k # i	-0.52607775
-1.1469489	w # i	-0.70484895
-1.4248276	q # i	-0.2682654
-1.3169446	y # i	-0.63698286
-1.2457751	z # i	-0.74909174
-1.2838813	# i i	-2.2883418
-1.1660653	i i i	-2.388912
-1.3464586	n i i	-2.241239
-1.3560026	c i i	-2.3860836
-1.3335192	p i i	-1.334147
-1.28382	t i i	-3.009297
-1.3868877	r i i	-2.7057805
-1.2567989	e i i	-1.0832453
-1.2951105	g i i	-2.2781312
-1.3710059	s i i	-2.0980296
-1.2827938	u i i	-2.2726007
-1.3215396	l i i	-2.935849
-1.2370458	a i i	-2.1649873
-1.3271958	m i i	-0.8930519
-1.2609181	d i i	-1.9365201
-1.2433804	b i i	-1.8193158
-1.1568913	x i i	-2.0322247
-1.2286775	h i i	-2.6532152
-1.3042629	o i i	-0.39836255
-1.357578	f i i	-1.022075
-1.5402237	w i i	-0.3615517
-1.4656532	y i i	-0.28518954
-1.2829401	z i i	-0.87342155
-1.0905029	# n i	-2.4878135
-1.2108806	i n i	-3.114873
-1.0920644	n n i	-2.6162202
-0.9696832	c n i	-0.37599885
-0.75578856	p n i	-1.6522663
-1.0463524	t n i	-0.54160464
-0.9857008	r n i	-2.1948128
-1.2310346	e n i	-2.6872094
-0.7993684	g n i	-2.7013667
-1.1013639	s n i	-2.5738893
-1.1772028	u n i	-2.8168054
-1.2302155	l n i	-1.8971771
-1.2416502	a n i	-2.8064656
-0.89478815	m n i	-1.39829
-0.9460919	d n i	-2.487146
-1.0088055	b n i	-0.5794631
-1.1707362	x n i	-0.3963003
-1.1654313	h n i	-0.6445767
-1.1877782	o n i	-3.1128368
-0.6815676	f n i	-0.32568294
-0.80400753	k n i	-0.4754815
-1.0269277	w n i	-0.5405586
-0.97725475	q n i	-0.2687048
-1.1627535	y n i	-0.78102976
-0.9168344	z n i	-0.6751436
-1.1748402	# c i	-2.8444445
-1.0703859	i c i	-3.1222765
-1.1602035	n c i	-2.5747714
-1.036986	c c i	-1.5247097
-1.0147419	p c i	-0.34426394
-1.1789294	t c i	-0.29223183
-1.052482	r c i	-2.269987
-1.1663475	e c i	-2.8352046
-1.4496641	g c i	-0.28518954
-0.99402833	s c i	-2.8990462
-1.0091814	u c i	-2.211124
-1.0097915	l c i	-1.195744
-1.0659676	a c i	-2.6964867
-1.4214653	m c i	-1.0255547
-1.0592645	d c i	-2.763362
-0.82407725	b c i	-0.25197613
-0.94161844	x c i	-1.4492674
-0.88840926	h c i	-0.28518954
-1.1138244	o c i	-2.386226
-1.0137101	f c i	-1.9110138
-1.2046673	w c i	-0.28518954
-0.8951638	y c i	-0.8009303
-1.0248348	z c i	-0.2766085
-1.2042028	# p i	-2.2441752
-1.0566565	i p i	-2.983491
-1.3242207	n p i	-0.43769297
-1.0826737	c p i	-0.738723
-0.8776019	p p i	-1.8130225
-1.2334076	t p i	-1.2102581
-0.9832898	r p i	-1.1119233
-0.9501617	e p i	-2.6511023
-0.9559689	g p i	-0.2600444
-0.7525395	s p i	-2.6312156
-0.9729892	u p i	-1.7252092
-1.0772736	l p i	-1.1617641
-1.051738	a p i	-2.730993
-1.2903258	m p i	-1.548432
-1.1165068	d p i	-0.3963003
-0.99247026	b p i	-0.2600444
-1.023134	x p i	-2.3401058
-0.8509589	h p i	-0.2362758
-1.063042	o p i	-1.6904883
-1.3918803	y p i	-0.6515728
-1.2174413	z p i	-0.28518954
-1.1232303	# t i	-2.4731953
-1.088131	i t i	-2.9331002
-0.9949992	n t i	-3.3338954
-0.9531063	c t i	-3.013687
-0.93084145	p t i	-2.4785807
-0.9306254	t t i	-2.3641021
-1.0195328	r t i	-2.9449267
-1.0978914	e t i	-2.82573
-1.000514	g t i	-0.25656822
-1.039779	s t i	-3.2685213
-1.067462	u t i	-2.5239007
-0.95697564	l t i	-1.9707273
-1.1046532	a t i	-3.298649
-0.93246543	m t i	-2.2175426
-1.0631251	d t i	-0.2600444
-0.67430615	b t i	-2.5044308
-0.7987742	x t i	-2.1087832
-1.1097789	h t i	-1.5947927
-1.0074779	o t i	-2.5765269
-0.9594573	f t i	-0.5739957
-1.2143601	w t i	-0.28518954
-0.94250596	q t i	-0.28518954
-1.3013865	y t i	-0.43496466
-1.0792265	z t i	-0.27843308
-1.1210994	# r i	-2.0644262
-1.0166137	i r i	-2.4803808
-1.0463371	n r i	-2.592197
-0.818168	c r i	-2.5828838
-0.8466883	p r i	-3.059941
-0.86952424	t r i	-2.8678734
-1.0109916	r r i	-2.3139014
-1.246957	e r i	-3.2374215
-0.8903389	g r i	-2.0021534
-0.95413435	s r i	-0.6201762
-1.120817	u r i	-2.8130774
-0.78999865	l r i	-1.1879412
-1.2022777	a r i	-3.203277
-0.8321939	m r i	-0.2619358
-0.7965605	d r i	-1.7427233
-0.82087886	b r i	-2.5514655
-1.2289991	x r i	-1.1514065
-0.7978535	h r i	-1.9692807
-1.1729971	o r i	-3.1344793
-0.7737292	f r i	-2.6059752
-0.9264569	k r i	-0.25197613
-0.73147297	w r i	-0.35345644
-0.34177688	q r i	-0.28518954
-0.70764995	y r i	-1.5314654
-0.91169536	z r i	-0.2600444
-1.2961965	# e i	-3.1670554
-1.3019634	i e i	-1.7187499
-1.3790977	n e i	-1.8831307
-1.2887061	c e i	-0.8455259
-1.3020325	p e i	-1.0048916
-1.3188472	t e i	-1.0681254
-1.3675472	r e i	-1.8740721
-1.3118603	e e i	-0.5615802
-1.3015759	g e i	-0.4114836
-1.3834753	s e i	-1.0898553
-1.2084432	u e i	-1.0594459
-1.3155776	l e i	-1.3243951
-1.1359144	a e i	-1.4292508
-1.5448017	m e i	-1.67147
-1.2903585	d e i	-2.2014616
-1.4505082	b e i	-1.1688702
-1.390338	x e i	-0.44814923
-1.2107446	h e i	-1.4427859
-1.125854	o e i	-0.73654014
-1.2036484	f e i	-1.057952
-1.848473	k e i	-0.2362758
-1.4723089	w e i	-0.26043245
-1.0232822	q e i	-0.28518954
-1.690927	y e i	-0.28518954
-1.2040808	z e i	-0.53579235
-1.1638213	# g i	-1.562022
-1.0406246	i g i	-2.598264
-1.0537254	n g i	-1.7966173
-1.1095717	c g i	-0.2600444
-0.9777892	p g i	-0.28518954
-1.1934216	t g i	-0.35944936
-1.0937681	r g i	-2.1133533
-0.9519538	e g i	-2.8542516
-0.9015427	g g i	-0.85858953
-1.3143132	s g i	-0.28518954
-0.944261	u g i	-1.5593659
-1.0522594	l g i	-1.2467697
-0.89590704	a g i	-2.271574
-1.1611184	m g i	-0.30422896
-1.1628444	d g i	-0.28518954
-0.8993172	o g i	-1.6208627
-0.8718745	f g i	-0.28518954
-0.9970249	q g i	-0.2362758
-1.2236439	y g i	-0.28518954
-1.1353489	z g i	-0.25197613
-1.1587832	# s i	-3.1254563
-1.1889297	i s i	-2.7670696
-1.0003463	n s i	-2.7796803
-1.0442001	c s i	-0.41104248
-0.9444093	p s i	-1.7880385
-1.0207855	t s i	-1.3468056
-1.1172311	r s i	-2.4175045
-1.1914854	e s i	-2.99562
-1.2695765	g s i	-0.28518954
-0.9202535	s s i	-2.9860175
-1.1550152	u s i	-2.2318966
-1.122644	l s i	-1.5664904
-1.1270894	a s i	-2.3472176
-1.0406353	m s i	-1.4541466
-1.0085286	d s i	-0.7672701
-1.1743312	b s i	-2.2636645
-1.2327769	x s i	-0.56209266
-0.81216186	h s i	-0.37569395
-1.1357732	o s i	-2.692043
-1.2643433	f s i	-0.2362758
-0.9166401	y s i	-1.4177551
-1.0596387	z s i	-0.31784004
-1.2423806	# u i	-3.069808
-1.1126465	i u i	-2.8815362
-1.173728	n u i	-2.13574
-1.1471179	c u i	-2.4696739
-1.2435474	p u i	-1.188692
-1.2253573	t u i	-2.5630257
-1.2157829	r u i	-2.1098032
-1.1527495	e u i	-1.9415867
-1.046411	g u i	-2.4399838
-1.1744603	s u i	-2.438658
-1.0446603	u u i	-1.1757663
-1.1491472	l u i	-1.8882308
-1.1945987	a u i	-2.6078262
-1.1205307	m u i	-1.4468839
-1.291007	d u i	-1.5316131
-1.2160946	b u i	-1.7750833
-0.76846623	x u i	-1.9008389
-1.174725	h u i	-2.9832566
-1.0729327	o u i	-2.7378361
-1.0316644	f u i	-2.5446742
-1.3491594	w u i	-0.29460493
-0.84549254	q u i	-3.1926239
-1.0234084	y u i	-0.25197613
-1.182163	z u i	-0.32184166
-1.0757695	# l i	-2.9610093
-1.0811212	i l i	-3.25746
-0.84871584	n l i	-1.9659069
-0.91510445	c l i	-3.329186
-0.73257464	p l i	-3.010759
-0.81122893	t l i	-1.1170251
-0.96852916	r l i	-1.9540713
-1.1608859	e l i	-2.7832706
-0.7358389	g l i	-2.0020275
-0.90068114	s l i	-1.965715
-1.1335331	u l i	-2.6985912
-0.938245	l l i	-2.720592
-1.1704124	a l i	-3.3549025
-0.8643502	m l i	-1.6349565
-0.8039692	d l i	-0.7623978
-0.6713737	b l i	-2.2812274
-0.7399231	x l i	-1.0550784
-1.0084882	h l i	-0.54128474
-1.1008904	o l i	-2.6871629
-0.93168646	f l i	-1.4114751
-0.8531847	k l i	-0.28518954
-1.0402054	w l i	-0.28518954
-0.7323306	y l i	-1.6514672
-0.6357941	z l i	-0.28996453
-1.3875837	# a i	-1.9178599
-1.4697986	i a i	-0.7002485
-1.4477288	n a i	-0.9717654
-1.3674641	c a i	-0.8599855
-1.5512227	p a i	-0.65201133
-1.285688	t a i	-0.9076745
-1.3773719	r a i	-1.5360256
-1.4399786	e a i	-0.384076
-1.3482447	g a i	-1.1919389
-1.263474	s a i	-1.2934017
-1.3269328	u a i	-0.8703897
-1.2766371	l a i	-2.1396065
-1.5334342	a a i	-0.32372594
-1.3412724	m a i	-2.4517424
-1.5960097	d a i	-0.7345498
-1.373473	b a i	-1.68303
-1.5311931	x a i	-0.25197613
-1.5322694	h a i	-0.7291291
-1.3612193	o a i	-0.43769297
-1.3567301	f a i	-0.91874766
-1.4421649	k a i	-0.45549664
-1.4083806	w a i	-0.2362758
-0.9641914	q a i	-0.28518954
-1.4981402	y a i	-0.37569395
-1.5099558	z a i	-0.25656822
-1.0859015	# m i	-2.7276282
-1.0398424	i m i	-2.616596
-0.9713639	n m i	-0.6789971
-1.2229156	c m i	-0.28518954
-0.8565737	p m i	-0.26495832
-0.65055954	t m i	-2.775049
-0.9978556	r m i	-2.157514
-1.0844414	e m i	-2.4474967
-1.1946955	g m i	-0.3963003
-0.92801046	s m i	-1.6473339
-1.1354555	u m i	-2.1121614
-1.0137327	l m i	-1.9154754
-1.1184915	a m i	-2.2697697
-1.0540016	m m i	-2.4781644
-1.1105808	d m i	-2.3045046
-0.8086791	b m i	-1.5532694
-1.202496	x m i	-0.2362758
-1.200016	h m i	-0.28518954
-0.99199367	o m i	-2.9254596
-0.80368847	f m i	-0.28518954
-1.3620435	w m i	-0.2362758
-0.92820066	q m i	-0.28518954
-0.92496395	y m i	-1.4745104
-1.0567048	z m i	-0.4991659
-1.1491834	# d i	-3.4306087
-0.9063393	i d i	-2.6775045
-0.97070944	n d i	-2.8478184
-0.6572075	c d i	-1.2310895
-0.81243694	p d i	-0.80023557
-0.6798848	t d i	-0.5023693
-0.80175	r d i	-3.058992
-0.90201396	e d i	-3.3082142
-1.0419599	g d i	-0.5767897
-0.8578299	s d i	-2.1242197
-0.89115417	u d i	-2.769286
-0.9422166	l d i	-1.8724186
-0.9130178	a d i	-2.43701
-0.8088503	m d i	-1.7909616
-0.8890337	d d i	-2.215835
-0.9458095	b d i	-2.0900786
-0.8067209	x d i	-0.34426394
-1.0714393	h d i	-0.4291677
-0.88595486	o d i	-2.2022781
-0.3853821	w d i	-0.49707156
-0.76739794	y d i	-0.61815923
-0.50756305	z d i	-0.9635909
-1.0402384	# b i	-1.9390875
-0.8797115	i b i	-2.797764
-0.99355197	n b i	-0.32740492
-0.68489367	c b i	-0.27276766
-1.1995435	p b i	-0.28518954
-1.2710726	t b i	-0.29324728
-0.9053949	r b i	-2.2422497
-0.9290224	e b i	-2.4996617
-0.9316437	g b i	-0.2362758
-1.3020406	s b i	-1.5562725
-0.8054192	u b i	-2.3257856
-0.9146214	l b i	-1.5512264
-0.94467306	a b i	-2.7658732
-1.0429642	m b i	-1.641961
-1.1564107	d b i	-0.3785939
-1.0126127	b b i	-2.8396997
-0.83782136	x b i	-0.2993903
-1.3105737	h b i	-0.2362758
-0.9607379	o b i	-2.5661085
-1.1703541	y b i	-0.44264075
-1.0263271	z b i	-0.2600444
-1.0708448	# x i	-2.1950023
-0.91708803	i x i	-1.7709303
-0.8166607	n x i	-1.1743734
-1.0595455	c x i	-0.49029696
-1.3537918	r x i	-0.28518954
-1.0183747	e x i	-2.4250827
-0.78172755	s x i	-0.25197613
-0.6902235	u x i	-2.3481789
-0.85064024	l x i	-0.5472714
-0.8095196	a x i	-1.8329898
-0.8174814	m x i	-0.2792719
-1.1116538	d x i	-0.2362758
-0.94268507	x x i	-1.4192418
-0.99159086	h x i	-0.28518954
-0.8653555	o x i	-1.9878685
-0.85222244	f x i	-0.2362758
-0.9107836	w x i	-0.28518954
-0.9092425	y x i	-0.2362758
-1.068721	z x i	-0.28518954
-1.0663524	# h i	-2.2629077
-0.7522243	i h i	-1.3379664
-0.96904343	n h i	-2.058095
-0.92768264	c h i	-2.879101
-0.89440155	p h i	-2.0653048
-1.0162815	t h i	-1.4439709
-1.1703136	r h i	-1.2005323
-0.82655686	e h i	-0.6768085
-0.7345199	g h i	-1.2214814
-0.9543425	s h i	-0.2992239
-0.94144887	u h i	-0.61061484
-0.8822824	l h i	-0.48379022
-0.87741065	a h i	-1.3814013
-0.90040493	m h i	-0.29651272
-1.081995	d h i	-1.9493707
-1.0359063	b h i	-0.2362758
-0.55474293	x h i	-2.681272
-0.9511662	h h i	-0.37325203
-0.82480496	o h i	-1.8020384
-1.0031749	f h i	-0.336425
-0.786773	w h i	-0.4291677
-1.5411547	# o i	-0.43457472
-1.3956087	i o i	-0.6255876
-1.4406489	n o i	-2.9458
-1.4289436	c o i	-2.0702682
-1.4034085	p o i	-0.40129825
-1.2099056	t o i	-3.1027317
-1.2917383	r o i	-1.6039255
-1.7261835	e o i	-0.336425
-1.2809983	g o i	-1.485613
-1.4399599	s o i	-0.8598806
-1.3830314	u o i	-0.7929105
-1.2584493	l o i	-0.92196083
-1.6682673	a o i	-0.35123923
-1.2307202	m o i	-0.88803303
-1.446171	d o i	-0.9659082
-1.4509747	b o i	-0.86244774
-1.6355054	h o i	-0.34743956
-1.3387563	o o i	-0.27731717
-1.4473844	f o i	-0.7185074
-1.254139	q o i	-0.28518954
-1.8466289	z o i	-0.2362758
-1.0558238	# f i	-3.016665
-0.8760344	i f i	-2.2752397
-0.8025318	n f i	-2.539779
-0.7062538	c f i	-0.44264075
-1.0310264	p f i	-0.28518954
-0.8305801	t f i	-0.3852301
-0.90017116	r f i	-1.3061615
-0.92892665	e f i	-2.5937097
-0.77386945	s f i	-1.157499
-0.8575871	u f i	-1.3101141
-0.92943716	l f i	-1.6131489
-0.9114395	a f i	-0.7631923
-0.9681554	m f i	-0.55178523
-0.59716725	d f i	-0.2682654
-1.036873	b f i	-1.003199
-0.7718917	h f i	-0.28518954
-0.8919184	o f i	-1.5045112
-1.045934	f f i	-2.6435683
-0.54306877	w f i	-0.4563594
-1.0953012	y f i	-0.2362758
-0.641716	z f i	-0.717376
-0.8955628	# k i	-0.90023756
-0.85053	i k i	-0.2862182
-0.98161924	n k i	-0.4458046
-0.78425926	c k i	-0.4458046
-0.74778235	t k i	-0.4291677
-0.8107743	r k i	-0.6894976
-0.78969127	e k i	-0.67472506
-0.7208962	s k i	-1.2174871
-0.57189757	u k i	-0.79425925
-1.0712341	l k i	-0.2362758
-1.0402827	a k i	-0.24562775
-0.7376301	d k i	-0.28518954
-0.24408582	b k i	-0.2362758
-0.92295367	h k i	-0.28518954
-1.0977067	o k i	-0.2362758
-0.78191674	f k i	-0.25197613
-0.57579184	z k i	-0.27575967
-0.9733371	# w i	-1.6602784
-0.8024568	i w i	-0.43053454
-1.0674185	n w i	-0.33042443
-1.1781771	c w i	-0.28518954
-0.6715107	t w i	-0.41924685
-0.8509948	r w i	-1.5274965
-0.9387171	e w i	-0.7327976
-0.7046858	g w i	-0.48954192
-0.8834895	s w i	-0.6850196
-0.9961212	u w i	-0.25656822
-0.9339224	l w i	-0.32740492
-0.8626896	a w i	-0.42595974
-1.0716169	m w i	-0.4291677
-0.81898236	d w i	-0.3615517
-0.9908455	b w i	-0.28518954
-0.46760315	x w i	-0.26495832
-0.86650294	h w i	-0.3761819
-1.0116599	o w i	-1.1171721
-0.71578807	f w i	-0.27575967
-0.8684958	w w i	-0.28518954
-0.66529536	q w i	-0.28518954
-0.82100785	z w i	-0.27731717
-1.3053912	# q i	-0.41757458
-1.3652779	e q i	-0.28518954
-1.2287812	s q i	-0.28518954
-0.91472465	x q i	-0.28518954
-1.5488563	# y i	-0.25518546
-1.0639914	i y i	-0.2600444
-1.5510664	n y i	-0.28518954
-1.3175087	p y i	-0.28518954
-1.5322449	t y i	-0.2362758
-1.666562	e y i	-0.28518954
-1.5634669	s y i	-0.28518954
-1.586762	u y i	-0.28518954
-1.3485193	l y i	-0.25197613
-1.5991489	a y i	-0.26495832
-1.3683114	b y i	-0.25197613
-1.5166731	h y i	-0.28518954
-1.6500088	o y i	-0.28518954
-1.3908396	w y i	-0.25197613
-0.71281415	y y i	-0.28518954
-1.2146413	# z i	-0.83182067
-0.9991802	i z i	-0.9895584
-1.0880059	n z i	-0.7533142
-0.98295677	c z i	-0.4111895
-1.1640334	t z i	-0.29324728
-1.1609311	r z i	-1.0520391
-0.96397245	e z i	-0.7159195
-1.2496611	g z i	-0.26495832
-1.4255698	s z i	-0.28518954
-0.961323	u z i	-0.6908087
-1.2412925	l z i	-0.4113071
-0.8796675	a z i	-0.82351005
-1.184363	m z i	-0.40486416
-1.3748317	d z i	-0.28518954
-1.0688661	b z i	-0.28518954
-0.985118	x z i	-0.24562775
-1.3724191	h z i	-0.30422896
-0.97996813	o z i	-0.88440967
-1.120567	y z i	-0.28518954
-1.512072	z z i	-0.85858953
-1.3096031	<s> # n	-2.4404237
-1.361897	i # n	-2.8830948
-1.309	n # n	-2.3914645
-1.372631	c # n	-2.374889
-1.4415596	p # n	-1.0889089
-1.4364187	t # n	-2.9001176
-1.3162695	r # n	-2.429875
-1.3565732	e # n	-2.918417
-1.3772608	g # n	-0.6989372
-1.3739997	s # n	-3.0252404
-1.3451912	u # n	-2.5593636
-1.4460069	l # n	-1.9853083
-1.3947382	a # n	-2.7819402
-1.3782649	m # n	-2.828315
-1.3399413	d # n	-2.450993
-1.4904184	b # n	-1.6857207
-1.3832492	x # n	-1.6971209
-1.3898576	h # n	-0.6135771
-1.3561229	o # n	-2.7303581
-1.474667	f # n	-0.77857435
-1.5482982	k # n	-0.2600444
-1.4937929	w # n	-0.43053454
-1.3251324	q # n	-0.28518954
-1.3169446	y # n	-0.5556262
-1.3358701	z # n	-0.6390417
-1.2260674	# i n	-3.6858513
-1.1422333	i i n	-1.0570138
-1.2848111	n i n	-2.0389812
-1.2549622	c i n	-1.9693743
-1.2015934	p i n	-1.8896695
-1.2324578	t i n	-3.072307
-1.2660637	r i n	-2.7168078
-1.1149057	e i n	-1.6170686
-1.1479672	g i n	-2.366576
-1.2160087	s i n	-2.676819
-1.2164841	u i n	-2.7074904
-1.2518232	l i n	-2.4230964
-1.07609	a i n	-1.51997
-1.0626593	m i n	-3.2344017
-1.2293295	d i n	-3.073164
-1.1420224	b i n	-2.0549402
-1.2514291	x i n	-1.9517181
-1.2240402	h i n	-1.8319044
-1.0926028	o i n	-1.2584715
-1.1371351	f i n	-2.1632931
-0.776124	k i n	-0.7853781
-1.0718292	w i n	-1.2160465
-1.1321801	q i n	-0.28518954
-0.79735994	y i n	-0.272435
-1.0591866	z i n	-0.70860326
-1.3921245	# n n	-0.8926246
-1.3382545	i n n	-2.1789622
-1.2580816	n n n	-0.38134387
-1.4681098	c n n	-0.28518954
-1.4582419	p n n	-0.28518954
-1.5149843	t n n	-0.28518954
-1.2342209	r n n	-0.5291668
-1.3134967	e n n	-2.2322357
-1.2804356	g n n	-0.4563594
-1.4560559	s n n	-0.58095545
-1.2776537	u n n	-0.9651825
-1.6175712	l n n	-0.28518954
-1.2276891	a n n	-3.3072612
-1.661352	m n n	-0.30422896
-1.3668613	d n n	-0.52607775
-1.1834061	b n n	-0.60525894
-1.3534333	x n n	-0.28518954
-1.4468111	h n n	-0.28518954
-1.2783952	o n n	-2.1955647
-0.813395	k n n	-0.27843308
-1.7794433	y n n	-0.25197613
-1.2506187	z n n	-0.47290888
-1.4507477	# c n	-0.5109601
-1.5805693	i c n	-0.32372594
-1.6372852	n c n	-0.26043245
-1.4334352	c c n	-0.32233346
-1.483244	p c n	-0.25197613
-1.4801257	t c n	-0.27731717
-1.6721785	r c n	-0.28518954
-1.5053767	e c n	-2.4588077
-1.6194552	s c n	-0.32568294
-1.873208	u c n	-0.25197613
-2.039296	a c n	-0.25197613
-1.3856502	m c n	-0.28518954
-1.2028542	d c n	-0.2993903
-1.344495	b c n	-0.28518954
-1.4141535	h c n	-0.28518954
-1.8949105	o c n	-0.26495832
-1.0449638	w c n	-0.2362758
-1.39272	# p n	-0.6059247
-1.6707671	i p n	-0.28518954
-1.3877441	n p n	-0.29460493
-1.7572575	p p n	-0.28518954
-1.3940351	t p n	-0.28518954
-1.6741456	r p n	-0.28518954
-1.4531486	e p n	-0.31010237
-1.1193573	g p n	-0.28518954
-1.6964126	s p n	-0.28518954
-1.6091771	u p n	-0.763225
-1.5339555	l p n	-0.28518954
-1.6661026	a p n	-0.41550338
-1.173209	m p n	-2.5870218
-1.3447886	d p n	-0.28518954
-1.482475	o p n	-0.40543994
-1.3715838	# t n	-0.85749966
-1.6268129	i t n	-0.3037884
-1.4474541	n t n	-0.5510323
-1.8330829	c t n	-0.28518954
-1.6365966	p t n	-0.28518954
-1.5691938	t t n	-0.29651272
-1.4752135	r t n	-0.26495832
-1.6337441	e t n	-0.46884555
-1.4759085	s t n	-0.34972468
-1.6349401	u t n	-0.45065793
-1.9163543	l t n	-0.28518954
-1.5478219	a t n	-0.36003694
-1.6605304	m t n	-0.25197613
-1.3923093	d t n	-0.28518954
-1.5944738	h t n	-0.28518954
-1.9750721	o t n	-0.2600444
-1.4245691	# r n	-0.73395455
-1.4486345	i r n	-0.5699729
-1.5613285	n r n	-0.4291677
-1.6402402	c r n	-0.25197613
-1.4519794	p r n	-0.6358516
-1.580625	t r n	-0.35494092
-1.41324	r r n	-1.4302605
-1.29041	e r n	-2.531054
-1.6682312	g r n	-0.2993903
-1.3087835	s r n	-0.28518954
-1.2568331	u r n	-1.5373433
-1.831095	l r n	-0.2362758
-1.2865723	a r n	-2.202314
-1.0739899	m r n	-0.2766085
-1.1857375	d r n	-0.5006327
-1.4833164	b r n	-0.2682654
-1.2793094	o r n	-1.9315426
-1.7716653	f r n	-2.0618773
-1.1534834	k r n	-0.30422896
-1.4913198	y r n	-0.27731717
-1.5596898	z r n	-0.2362758
-1.355241	# e n	-1.8907294
-1.1964316	i e n	-3.1553433
-1.1947887	n e n	-3.1548393
-1.1583223	c e n	-2.9552836
-1.073649	p e n	-2.8129919
-1.1548778	t e n	-3.0934691
-1.2575401	r e n	-2.8804967
-1.096604	e e n	-1.0617621
-0.95443267	g e n	-2.8538778
-1.1869447	s e n	-2.8716402
-1.1305796	u e n	-3.1223454
-1.2468623	l e n	-2.7647183
-1.2171837	a e n	-1.1518868
-1.1469055	m e n	-2.3983817
-1.1898991	d e n	-2.7733936
-0.97387636	b e n	-2.8474503
-1.0672362	x e n	-1.1199856
-1.0713911	h e n	-2.1077268
-1.1275127	o e n	-1.595104
-1.0255374	f e n	-2.0502093
-1.0174176	k e n	-0.8035736
-1.0436304	w e n	-0.9177278
-0.78472275	y e n	-1.219281
-1.0704374	z e n	-1.0275801
-1.1889881	# g n	-1.068296
-0.95030665	i g n	-3.0357692
-1.2295008	n g n	-1.0791484
-1.2614965	c g n	-0.28518954
-0.9777892	p g n	-0.29460493
-1.3487968	t g n	-0.28518954
-1.2396353	r g n	-0.9983603
-1.0177677	e g n	-2.6563823
-1.4148355	g g n	-0.28518954
-1.2169286	s g n	-0.28518954
-1.07653	u g n	-1.6841305
-1.5298631	l g n	-0.28518954
-1.0324571	a g n	-2.7402544
-1.1611184	m g n	-0.25197613
-1.1628444	d g n	-0.28518954
-0.93302244	b g n	-0.2362758
-1.061878	o g n	-2.1358855
-0.8718745	w g n	-0.28518954
-0.6694307	y g n	-0.71851957
-1.1353489	z g n	-0.25197613
-1.261508	# s n	-2.6382766
-1.3265003	i s n	-1.1852541
-1.2838782	n s n	-0.3528218
-1.4600289	c s n	-0.28518954
-1.7363837	p s n	-0.71851957
-1.6747922	t s n	-0.28518954
-1.6833589	r s n	-0.25197613
-1.4608274	e s n	-0.72801375
-1.4732523	g s n	-0.28518954
-1.6030074	s s n	-0.37325203
-1.4239916	u s n	-0.61815923
-1.522405	a s n	-0.73019767
-1.7468324	m s n	-0.2362758
-1.3151183	d s n	-0.28518954
-1.3547072	b s n	-0.28518954
-1.5197049	o s n	-1.2415831
-1.0253721	k s n	-0.28518954
-1.4444418	w s n	-0.28518954
-1.2411265	# u n	-2.680577
-1.2423683	i u n	-2.2680492
-1.1136544	n u n	-2.4348867
-1.1152152	c u n	-2.265706
-1.3689153	p u n	-1.6642739
-1.1956522	t u n	-2.467383
-1.2681416	r u n	-1.89712
-1.2422942	e u n	-2.3677623
-1.1604251	g u n	-1.7482338
-1.2400832	s u n	-2.0889566
-1.2766569	u u n	-0.8297508
-1.1477313	l u n	-2.1613774
-1.2796675	a u n	-1.752921
-0.9911354	m u n	-2.729831
-1.1738354	d u n	-2.249488
-1.3232893	b u n	-1.2861784
-1.4355208	x u n	-0.25776678
-1.1109207	h u n	-1.3331603
-1.3142468	o u n	-0.5272317
-1.1575847	f u n	-2.037134
-0.6249857	k u n	-0.78135026
-1.191594	w u n	-0.29324728
-1.5079771	q u n	-0.2682654
-1.4644318	y u n	-0.28518954
-1.2512274	z u n	-0.2792719
-1.540306	# l n	-0.6468129
-1.7739975	i l n	-0.24799752
-1.5961076	n l n	-0.28518954
-1.805547	c l n	-0.28518954
-1.7137594	p l n	-0.28518954
-1.7734473	t l n	-0.28518954
-1.6718345	r l n	-0.29651272
-1.5226625	e l n	-1.2128689
-1.8244839	s l n	-0.2362758
-1.7267526	u l n	-1.6488396
-1.7274517	a l n	-1.3457584
-1.7335211	b l n	-0.28518954
-1.5214795	h l n	-0.28518954
-1.6224582	o l n	-1.936918
-1.8279034	f l n	-0.28518954
-1.2883779	# a n	-3.1432781
-1.1925504	i a n	-2.7485662
-1.2219104	n a n	-2.376281
-1.1127467	c a n	-3.128187
-1.1368954	p a n	-1.9296815
-1.1703734	t a n	-2.8878806
-1.2417972	r a n	-2.8804007
-1.048851	e a n	-2.5511804
-1.194107	g a n	-2.131206
-1.0894784	s a n	-2.7105765
-1.1205678	u a n	-2.5349665
-1.1670933	l a n	-2.536877
-1.084605	a a n	-0.52092594
-1.089829	m a n	-3.0128295
-1.1547061	d a n	-2.292776
-1.1995599	b a n	-2.325268
-1.0147166	x a n	-2.0492225
-1.1682087	h a n	-2.748521
-0.9534047	o a n	-1.4257653
-1.1210352	f a n	-1.3383236
-1.2926531	k a n	-0.34426394
-1.1438528	w a n	-0.5849204
-0.94936544	y a n	-0.5380655
-1.0579351	z a n	-1.6442014
-1.3241379	# m n	-0.71845424
-1.2746046	i m n	-0.5142685
-1.1741414	n m n	-0.2993903
-1.50677	c m n	-0.28518954
-1.1771318	p m n	-0.25197613
-1.67272	t m n	-0.28518954
-1.4292974	r m n	-0.27992544
-1.3062047	e m n	-1.6569095
-1.3382977	g m n	-0.2993903
-1.6688738	s m n	-0.28518954
-1.3081802	u m n	-0.93256974
-1.23802	a m n	-1.3870373
-1.4458416	m m n	-0.3094444
-1.4011661	d m n	-0.2362758
-1.1759198	o m n	-2.4115982
-0.70412326	k m n	-0.28518954
-1.4081141	w m n	-0.28518954
-1.5305698	y m n	-0.34426394
-1.3481287	z m n	-0.28518954
-1.2439396	# d n	-2.6082468
-1.5669937	i d n	-0.25197613
-1.3918146	n d n	-0.25656822
-1.3295739	c d n	-0.28518954
-1.261867	p d n	-0.29651272
-1.5598693	r d n	-0.55784637
-1.5181428	e d n	-0.2993903
-1.6175315	u d n	-0.28518954
-1.4196694	l d n	-0.28518954
-1.8253238	a d n	-0.82673216
-1.5187389	m d n	-0.28518954
-1.4184978	d d n	-0.28518954
-1.4481926	b d n	-0.28518954
-1.6068958	o d n	-0.27843308
-1.5693327	# b n	-0.27791768
-1.7964178	i b n	-0.5424283
-1.6809595	n b n	-0.28518954
-1.2746758	p b n	-0.2687048
-1.5732524	r b n	-0.28518954
-1.8807908	e b n	-0.25197613
-1.9195054	u b n	-0.52607775
-1.4398346	a b n	-0.79878205
-1.7257847	m b n	-0.28518954
-1.2379389	d b n	-0.29651272
-1.5368785	b b n	-0.28518954
-1.9650886	o b n	-0.94105107
-1.5503756	# x n	-0.7053475
-1.7408857	i x n	-0.28518954
-1.4391077	n x n	-0.28518954
-1.4725105	r x n	-0.6515728
-1.4984827	e x n	-1.2326756
-1.1759256	s x n	-0.28518954
-1.7484888	u x n	-0.28518954
-1.5057274	l x n	-0.28518954
-1.5908544	a x n	-0.67220575
-1.517679	x x n	-0.28518954
-0.9606771	y x n	-0.28518954
-1.4142295	z x n	-0.2362758
-1.209572	# h n	-2.2501507
-1.8583679	c h n	-0.28518954
-1.564069	t h n	-0.24293514
-1.5260648	r h n	-0.3963003
-1.65251	e h n	-0.34426394
-1.6774491	g h n	-0.28518954
-1.7383583	l h n	-0.28518954
-1.6090763	a h n	-0.3615517
-1.4612861	d h n	-0.28518954
-1.2356133	h h n	-0.28518954
-1.7661778	o h n	-0.28518954
-1.2537351	# o n	-2.7022092
-1.0687549	i o n	-3.036821
-1.0647343	n o n	-3.109251
-1.0744855	c o n	-3.4574509
-1.0557725	p o n	-2.6121895
-1.1119587	t o n	-2.1438324
-1.2148905	r o n	-2.2578135
-1.0440875	e o n	-1.8509276
-1.0664916	g o n	-2.180585
-0.9687783	s o n	-2.7669628
-1.0721917	u o n	-2.5261347
-1.166653	l o n	-2.1629384
-0.7649614	a o n	-1.10218
-0.96221733	m o n	-3.1186597
-1.0481269	d o n	-2.532039
-0.9796994	b o n	-2.6196885
-1.0187088	x o n	-1.5475084
-0.983174	h o n	-2.3096645
-1.0472409	o o n	-0.32740492
-0.87540984	f o n	-1.7889053
-0.926177	k o n	-0.35054278
-0.96828395	w o n	-0.27276766
-1.2270545	q o n	-0.28518954
-0.80569863	y o n	-1.5151012
-0.7692232	z o n	-1.5077113
-1.4855559	# f n	-0.28273115
-1.9217472	i f n	-0.28518954
-1.5302217	e f n	-0.27575967
-1.9083756	u f n	-0.28518954
-1.7906171	l f n	-0.28518954
-1.5497885	a f n	-0.26410758
-1.3832464	m f n	-0.28518954
-1.9270349	# k n	-0.5424283
-0.7434998	p k n	-0.67220575
-1.5438163	s k n	-0.28518954
-1.6612258	# w n	-0.519638
-1.3130687	i w n	-0.30422896
-1.1298656	c w n	-0.28518954
-0.9668672	p w n	-0.28518954
-1.3542234	t w n	-0.28518954
-1.4628048	r w n	-0.28518954
-1.7169776	e w n	-0.2362758
-1.3491294	s w n	-0.28518954
-1.1436062	l w n	-0.28518954
-1.4088931	a w n	-0.28518954
-1.0267843	z w n	-0.25197613
-1.043046	# q n	-0.71653336
-1.3130953	i q n	-0.28518954
-1.2441167	n q n	-0.2362758
-1.5075482	a q n	-0.28518954
-0.98130196	o q n	-0.28518954
-1.3824254	# y n	-0.3988322
-1.1105855	i y n	-0.2600444
-1.2319349	n y n	-0.37569395
-1.1164156	c y n	-0.47987968
-0.9668715	p y n	-0.35494092
-0.9630135	t y n	-0.527929
-1.4220284	r y n	-0.30422896
-0.9300781	e y n	-0.9886326
-0.9591813	g y n	-0.28518954
-1.0245734	s y n	-1.6689739
-1.281071	u y n	-0.2993903
-1.1374829	l y n	-0.34915918
-0.9278874	a y n	-1.9952753
-0.9249502	m y n	-0.6515728
-0.9679128	d y n	-0.32209954
-1.401347	b y n	-0.28518954
-0.9623759	h y n	-0.24050175
-1.2446274	o y n	-0.5321454
-0.6990397	f y n	-0.24562775
-0.5157696	k y n	-0.25197613
-1.213934	w y n	-0.7631335
-0.26011807	q y n	-0.28518954
-0.9219386	z y n	-0.28518954
-1.1804096	# z n	-0.8355227
-1.1662098	i z n	-0.43540317
-1.0917646	n z n	-0.57526636
-1.4122807	c z n	-0.28518954
-0.9872353	p z n	-0.6640148
-1.0814462	t z n	-0.50529444
-1.466455	r z n	-0.3615517
-1.448119	e z n	-0.93989265
-1.2579118	g z n	-0.28518954
-1.2013769	s z n	-0.41060185
-1.5957729	u z n	-0.25656822
-1.4901865	l z n	-0.27575967
-1.6758615	a z n	-0.37117577
-1.0281781	m z n	-0.4174365
-1.2882178	d z n	-0.7116319
-1.0756927	b z n	-0.25197613
-1.3841174	h z n	-0.28518954
-1.4989682	o z n	-0.5703027
-0.8295113	w z n	-0.28518954
-1.1066239	<s> # c	-2.616793
-1.361897	i # c	-3.0895853
-1.309	n # c	-2.8080919
-1.372631	c # c	-2.227033
-1.2633941	p # c	-0.9300854
-1.2983708	t # c	-3.1929364
-1.3162695	r # c	-2.4169092
-1.3742771	e # c	-3.2628195
-1.2372603	g # c	-1.0120993
-1.3739997	s # c	-3.1447718
-1.3090311	u # c	-2.716479
-1.3560458	l # c	-2.199734
-1.3368354	a # c	-3.0156784
-1.3300529	m # c	-2.9559984
-1.3100493	d # c	-2.4496481
-1.2689468	b # c	-2.1016421
-1.3041623	x # c	-2.0306625
-1.176147	h # c	-1.1704695
-1.3376665	o # c	-2.9190903
-1.1204697	f # c	-1.1915231
-1.3142896	k # c	-0.41104248
-1.2349145	w # c	-0.74123144
-1.5564423	q # c	-0.29651272
-1.2752713	y # c	-0.77837324
-1.194662	z # c	-1.1008016
-1.4501958	# i c	-1.0534757
-1.2920768	i i c	-1.2301021
-1.2135103	n i c	-2.796472
-1.435628	c i c	-1.2026253
-1.3861051	p i c	-2.0347314
-1.3383181	t i c	-2.6842372
-1.2292972	r i c	-2.7263513
-1.6904634	e i c	-0.9008458
-1.5093488	g i c	-1.3267949
-1.2456965	s i c	-2.6655116
-1.2827938	u i c	-2.6302419
-1.275735	l i c	-3.277058
-1.5415181	a i c	-2.1322336
-1.2538757	m i c	-2.2742658
-1.1813293	d i c	-3.3614674
-1.2815802	b i c	-1.6741388
-1.7139844	x i c	-0.355855
-1.0919341	h i c	-1.2354418
-1.2617648	o i c	-3.1552944
-1.1079799	f i c	-2.997344
-1.0013413	w i c	-1.4460436
-1.3073541	y i c	-0.25197613
-1.2289772	z i c	-0.35183775
-1.3034396	# n c	-0.6196404
-1.2777675	i n c	-2.7936893
-1.6689246	n n c	-0.2993903
-1.5939466	c n c	-0.25197613
-1.4869349	p n c	-0.2362758
-1.6339375	t n c	-0.2993903
-1.6876374	r n c	-0.28518954
-1.2979215	e n c	-1.5011432
-1.7850759	g n c	-0.67672396
-1.2131152	s n c	-0.45340842
-1.2103173	u n c	-2.6369379
-1.2517499	a n c	-2.6042426
-1.6145035	d n c	-0.28518954
-1.385011	x n c	-0.28518954
-1.4805586	h n c	-0.2362758
-1.2844334	o n c	-2.8629909
-1.356506	w n c	-0.28518954
-1.2561071	y n c	-0.49775207
-1.5349613	z n c	-0.29651272
-1.4102954	# c c	-1.22798
-1.2399762	i c c	-1.6580119
-1.2305238	n c c	-0.36288673
-1.1111445	c c c	-1.1379212
-0.9102478	p c c	-0.25197613
-1.3284115	r c c	-0.26446185
-1.1952406	e c c	-3.5177653
-1.0820384	g c c	-0.4563594
-1.8167363	s c c	-0.40665436
-1.117659	u c c	-2.2639444
-1.498369	l c c	-0.25197613
-1.2083297	a c c	-2.486388
-1.3588816	m c c	-1.4294475
-1.3361384	d c c	-0.7089212
-1.2391241	x c c	-0.3373707
-1.3833027	h c c	-0.28518954
-1.1195215	o c c	-2.3851526
-1.4593297	f c c	-0.28518954
-0.9112645	k c c	-0.28518954
-1.0292109	w c c	-0.70654273
-1.5140352	# p c	-0.58959883
-1.8643682	i p c	-0.28518954
-1.6897558	n p c	-0.28518954
-1.6894442	p p c	-0.25197613
-1.9099603	e p c	-0.28518954
-1.9107177	s p c	-0.3963003
-1.5012286	u p c	-0.28518954
-1.8597584	a p c	-0.26495832
-1.6333137	m p c	-0.2600444
-1.4016844	d p c	-0.28518954
-2.0215793	o p c	-0.28518954
-1.6771549	# t c	-0.4049902
-1.6961427	i t c	-0.37639117
-1.5293694	n t c	-0.7080542
-1.5901191	c t c	-0.2792719
-1.937214	t t c	-0.28518954
-1.4752135	r t c	-0.2792719
-1.3607124	e t c	-2.4400449
-1.6293703	s t c	-0.26736307
-1.9498158	u t c	-0.71136117
-1.501267	a t c	-0.41081375
-1.6605304	m t c	-0.28518954
-1.5552266	d t c	-0.28518954
-1.5748385	b t c	-0.28518954
-1.8894593	o t c	-0.78090966
-1.5676916	f t c	-0.28518954
-1.4728037	y t c	-0.30422896
-1.3013191	# r c	-0.70619506
-1.2562212	i r c	-2.410772
-1.4264536	n r c	-0.27731717
-1.8301693	c r c	-0.28518954
-1.7770765	p r c	-1.0138311
-1.7184669	t r c	-0.2600444
-1.3302608	r r c	-0.75639313
-1.3312411	e r c	-2.7154648
-1.7927675	g r c	-0.29651272
-1.5671211	s r c	-0.28518954
-1.3716668	u r c	-1.6041791
-1.831095	l r c	-0.28518954
-1.2456932	a r c	-3.0641055
-1.4630251	d r c	-0.26495832
-1.731962	b r c	-0.29460493
-1.2557656	x r c	-0.2362758
-1.3529347	o r c	-1.4870481
-1.6394404	f r c	-0.28518954
-1.4919982	w r c	-0.2362758
-1.4913198	y r c	-0.27731717
-1.5596898	z r c	-0.28518954
-1.2973812	# e c	-3.3399925
-1.2797977	i e c	-2.205599
-1.2914214	n e c	-2.62243
-1.2907072	c e c	-1.9213521
-1.3047304	p e c	-2.79476
-1.3826592	t e c	-1.8526717
-1.2988319	r e c	-3.0563486
-1.1768985	e e c	-1.9311688
-1.664001	g e c	-0.47499365
-1.2892958	s e c	-2.816357
-1.3067938	u e c	-1.5626122
-1.2690803	l e c	-3.09937
-1.2799673	a e c	-1.722013
-1.4224164	m e c	-1.0129864
-1.2643138	d e c	-3.002872
-1.3956666	b e c	-1.060222
-1.5400195	x e c	-2.512465
-1.3727491	h e c	-1.9573433
-1.2256186	o e c	-2.5059035
-1.0561144	f e c	-2.8979518
-1.523558	k e c	-0.2766085
-1.281111	w e c	-0.36707562
-1.3167574	y e c	-0.2362758
-1.2482845	z e c	-0.5152511
-1.3600581	# g c	-0.94505364
-1.9819622	i g c	-0.28518954
-1.6602898	n g c	-0.27731717
-1.1446649	c g c	-0.24562775
-1.2917261	p g c	-0.28518954
-1.3982931	t g c	-0.28518954
-1.5916109	r g c	-0.2362758
-1.6830657	e g c	-0.280449
-1.4708321	g g c	-0.28518954
-1.8424582	u g c	-0.28518954
-1.8607635	a g c	-0.28518954
-1.3530092	m g c	-0.6742839
-1.2011347	d g c	-0.28518954
-1.7554314	o g c	-0.30422896
-0.81372374	k g c	-0.28518954
-0.8924409	w g c	-0.28518954
-1.1746839	# s c	-3.2001565
-1.2467804	i s c	-2.6640484
-1.4546998	n s c	-1.75931
-1.3141141	c s c	-0.25197613
-1.553567	p s c	-0.5006327
-1.0717385	t s c	-0.28587502
-1.1723262	r s c	-0.8800006
-1.2302663	e s c	-2.3720412
-1.4199276	g s c	-0.28518954
-1.4690455	s s c	-0.45680445
-1.1753881	u s c	-2.4775019
-0.9867276	l s c	-0.6201548
-1.1660872	a s c	-2.3912382
-1.2000997	m s c	-0.27731717
-1.5218459	d s c	-0.807437
-1.1686592	b s c	-1.6341884
-1.2255712	x s c	-0.6004203
-1.3041646	h s c	-0.28518954
-1.1811628	o s c	-2.4664924
-1.0679475	f s c	-0.27575967
-0.9998277	k s c	-0.28518954
-1.4950454	y s c	-0.26495832
-1.3257998	z s c	-0.2362758
-1.5432107	# u c	-0.55491644
-1.435659	i u c	-0.5550951
-1.3706532	n u c	-1.2336131
-1.395852	c u c	-0.8284924
-1.5643233	p u c	-0.9421994
-1.5585263	t u c	-0.6706758
-1.217445	r u c	-2.5049808
-1.5720582	e u c	-0.93989265
-1.7197717	g u c	-0.39137915
-1.3717581	s u c	-2.3308043
-1.441637	u u c	-0.69805545
-1.3672967	l u c	-2.0599084
-1.2372558	a u c	-2.7371
-1.4379318	m u c	-1.0029372
-1.1777735	d u c	-2.6378276
-1.2712351	b u c	-1.1078691
-1.3354325	h u c	-2.0311406
-1.3986409	o u c	-0.75973165
-1.6751026	f u c	-0.48719645
-1.2947834	k u c	-0.28518954
-1.5851755	w u c	-0.28518954
-1.7557046	q u c	-0.717376
-1.8171732	z u c	-0.47798926
-1.5741568	# l c	-0.27165583
-1.4930124	i l c	-0.405242
-1.5499498	n l c	-0.28518954
-1.8620528	c l c	-0.28518954
-1.6670387	p l c	-0.28518954
-1.855885	t l c	-0.28518954
-1.7540698	r l c	-0.28518954
-1.3950382	e l c	-1.1403816
-1.6652915	g l c	-0.28518954
-1.6379105	s l c	-0.28518954
-1.3691692	u l c	-1.7492298
-1.7001462	l l c	-0.28518954
-1.3804572	a l c	-1.6635901
-1.5138947	m l c	-0.28518954
-1.5773286	d l c	-0.28518954
-1.6773736	b l c	-0.28518954
-1.4691993	h l c	-0.28518954
-1.4933796	o l c	-0.67355627
-1.2740365	f l c	-0.43333507
-1.3474325	# a c	-3.0299501
-1.1939098	i a c	-2.9101562
-1.3077887	n a c	-2.4279814
-1.4192233	c a c	-1.8758739
-1.2123634	p a c	-2.268593
-1.3173251	t a c	-1.7646744
-1.306654	r a c	-2.5541227
-1.2491275	e a c	-0.99928087
-1.4246781	g a c	-0.83224374
-1.2006845	s a c	-2.2100782
-1.268647	u a c	-2.652838
-1.2097325	l a c	-2.1527474
-1.7648335	a a c	-0.4022559
-1.2676708	m a c	-1.7550682
-1.3495717	d a c	-1.627114
-1.2017831	b a c	-1.3762044
-1.4498941	x a c	-1.8172616
-1.2755677	h a c	-2.3332503
-1.1363113	o a c	-1.4829202
-1.0876088	f a c	-2.9429445
-1.5233469	w a c	-0.45340842
-0.85723746	y a c	-0.7996638
-1.1278639	z a c	-1.1357797
-1.3685994	# m c	-1.4030036
-1.7114584	i m c	-0.26495832
-1.7932094	n m c	-0.28518954
-1.5638443	c m c	-0.28518954
-1.3961562	p m c	-0.28518954
-1.7025759	r m c	-0.28518954
-1.5123608	e m c	-1.2135544
-1.7299471	s m c	-0.28518954
-1.3204836	u m c	-1.5392995
-1.4000007	a m c	-1.1891456
-1.4757507	m m c	-0.28518954
-1.4562795	d m c	-0.28518954
-1.7518835	o m c	-0.44264075
-1.815755	y m c	-0.28518954
-1.545814	z m c	-0.28518954
-1.1853667	# d c	-2.9124804
-1.6820302	i d c	-0.8308329
-1.733521	n d c	-0.25197613
-1.4418321	p d c	-0.28518954
-1.3187634	r d c	-0.26495832
-1.950934	e d c	-0.26495832
-1.861877	u d c	-0.28518954
-1.8399565	a d c	-0.33042443
-1.5344721	m d c	-0.2600444
-1.2927161	b d c	-0.25197613
-1.2027769	x d c	-0.28518954
-1.84644	o d c	-1.196763
-1.5941463	y d c	-0.28518954
-1.6637872	# b c	-0.27064314
-2.0905735	i b c	-0.2362758
-1.5154588	p b c	-0.28518954
-2.0836384	e b c	-0.28518954
-1.8442229	u b c	-0.8645518
-1.6788869	l b c	-0.28518954
-2.0101707	a b c	-0.25197613
-1.7918023	m b c	-0.28518954
-1.5768641	d b c	-0.28518954
-1.3595378	# x c	-0.6207859
-0.9849701	c x c	-0.7484102
-1.4351553	r x c	-0.30422896
-1.0358754	e x c	-2.8746834
-1.7069755	u x c	-0.28518954
-1.3105797	a x c	-0.27064314
-1.3294301	m x c	-0.2362758
-1.171401	d x c	-0.25197613
-0.5449621	b x c	-0.28518954
-1.6116772	x x c	-0.28518954
-1.0359026	h x c	-0.52607775
-0.7009121	k x c	-0.28518954
-0.9465814	w x c	-0.28518954
-1.3790114	z x c	-0.28518954
-1.6391232	# h c	-0.738723
-1.667649	i h c	-0.28518954
-1.9489663	c h c	-0.28518954
-1.4469986	t h c	-0.2682654
-1.5118043	r h c	-0.28518954
-1.587859	s h c	-0.28518954
-1.5423084	u h c	-0.28518954
-1.5598465	l h c	-0.28518954
-1.4847554	a h c	-0.26495832
-1.4425728	d h c	-0.28518954
-1.7458032	o h c	-0.28518954
-1.2746036	f h c	-0.28518954
-1.2982793	# o c	-2.7369108
-1.3873835	i o c	-2.9997463
-1.3855551	n o c	-1.845068
-1.295717	c o c	-0.878789
-1.5409502	p o c	-0.96978414
-1.2591658	t o c	-0.99652135
-1.2617583	r o c	-2.836867
-1.3023932	e o c	-0.8342447
-1.4229605	g o c	-1.3543983
-1.3000655	s o c	-2.175612
-1.2145792	u o c	-2.680197
-1.1683711	l o c	-2.6051414
-1.1924165	a o c	-0.77737397
-1.5651072	m o c	-0.9812456
-1.2383953	d o c	-1.9070582
-1.437546	b o c	-0.96424097
-1.4946213	x o c	-0.28518954
-1.5171857	h o c	-2.6992786
-1.5688268	o o c	-0.28518954
-1.4313855	f o c	-0.97438484
-1.3461305	k o c	-0.25197613
-1.5084444	w o c	-0.60525894
-1.3269788	y o c	-0.53598124
-1.2494744	z o c	-0.44007766
-1.1846621	# f c	-2.614207
-1.607777	i f c	-0.26495832
-1.5464008	n f c	-0.25197613
-1.4596868	r f c	-0.28518954
-1.6150589	e f c	-0.47798926
-1.8285729	u f c	-0.28518954
-1.7144841	l f c	-0.2362758
-1.9187938	o f c	-0.30422896
-1.4799007	f f c	-0.4563594
-1.4156183	z f c	-0.28518954
-1.7341223	# k c	-0.30422896
-1.6230878	r k c	-0.2362758
-1.7907366	e k c	-0.28518954
-1.4691267	l k c	-0.28518954
-1.0982845	h k c	-0.28518954
-1.3821844	# w c	-1.0713421
-1.6443346	e w c	-0.2362758
-1.3218602	g w c	-0.28518954
-1.5739198	s w c	-0.28518954
-1.0316327	m w c	-0.25197613
-1.4248624	d w c	-0.28518954
-1.5992925	o w c	-0.25197613
-1.1685734	f w c	-0.28518954
-1.409099	# q c	-0.32920322
-1.4435295	c q c	-0.28518954
-1.2401325	# y c	-1.2646418
-1.3021945	n y c	-0.7114861
-1.1828109	c y c	-0.3963003
-1.5322449	t y c	-0.28518954
-1.5255797	e y c	-0.90351737
-1.4345342	s y c	-0.6968219
-1.3603175	u y c	-0.4291677
-1.5781349	l y c	-0.28518954
-1.4114641	a y c	-1.202698
-1.319031	d y c	-0.2362758
-1.5160729	b y c	-0.60525894
-1.5166731	h y c	-0.28518954
-1.2020515	o y c	-0.527929
-1.1135225	k y c	-0.2362758
-0.8535226	w y c	-0.35494092
-1.8912796	# z c	-0.25197613
-1.7103903	i z c	-0.28518954
-1.378767	n z c	-0.66047937
-1.6796919	c z c	-0.28518954
-1.6870024	t z c	-0.28518954
-1.0788865	r z c	-0.8370112
-1.4687215	e z c	-0.40239176
-1.473726	s z c	-0.25197613
-1.4844631	u z c	-0.25197613
-1.5714198	a z c	-0.27843308
-1.3277647	m z c	-0.25197613
-1.1538801	d z c	-0.2600444
-1.4212308	h z c	-0.78135026
-1.6239687	o z c	-0.28518954
-0.9765483	f z c	-0.25197613
-1.294317	z z c	-0.25197613
-1.2120327	<s> # p	-2.5083745
-1.3811725	i # p	-3.2118504
-1.2842252	n # p	-2.8927276
-1.2402864	c # p	-2.6525052
-1.137422	p # p	-1.1157209
-1.3853699	t # p	-3.285509
-1.3619438	r # p	-2.5259898
-1.3742771	e # p	-3.3500822
-1.2372603	g # p	-1.1064131
-1.3133994	s # p	-3.3534653
-1.326735	u # p	-2.9029741
-1.3049972	l # p	-2.3759456
-1.3191315	a # p	-3.1456513
-1.266491	m # p	-3.2272172
-1.3720438	d # p	-2.7160187
-1.2689468	b # p	-2.1187494
-1.2372829	x # p	-2.3342965
-1.176147	h # p	-1.0828198
-1.3561229	o # p	-3.1088705
-1.1628314	f # p	-1.6518767
-1.2321209	k # p	-0.43769297
-1.1088551	w # p	-0.8629749
-1.4248276	q # p	-0.29651272
-1.2752713	y # p	-0.6043752
-1.3037165	z # p	-0.8731761
-1.2633257	# i p	-3.3287148
-1.4259483	i i p	-0.43596303
-1.5869067	n i p	-1.168573
-1.4328547	c i p	-2.8172853
-1.693815	p i p	-1.3661815
-1.3663633	t i p	-1.8973838
-1.3850888	r i p	-2.6392968
-1.381103	e i p	-1.2948076
-1.741284	g i p	-1.003199
-1.4476781	s i p	-1.2797982
-1.5178972	u i p	-1.0174394
-1.398921	l i p	-2.0110872
-1.4405584	a i p	-0.88761485
-1.4640346	m i p	-0.76327884
-1.6579679	d i p	-1.2684287
-1.6245733	b i p	-1.4606495
-1.7055498	x i p	-0.37569395
-1.6751084	h i p	-2.0681527
-1.3486725	o i p	-0.814492
-1.9847282	f i p	-0.28518954
-1.6962888	k i p	-0.28518954
-1.8594362	w i p	-0.4754815
-1.4557905	y i p	-0.28518954
-1.9442937	z i p	-0.2362758
-1.833435	# n p	-0.32184166
-1.5050954	i n p	-0.83449584
-1.7467334	n n p	-0.4754815
-1.5623275	p n p	-0.28518954
-1.6171075	r n p	-0.26495832
-1.6009597	e n p	-0.5750284
-1.9004989	g n p	-0.28518954
-1.6610094	s n p	-0.25197613
-2.0931487	u n p	-0.54128474
-1.7676597	l n p	-0.28518954
-1.7826226	a n p	-0.558638
-1.6128128	o n p	-0.5694783
-1.6918538	# c p	-0.519638
-2.132877	i c p	-0.28518954
-1.9501561	n c p	-0.28518954
-1.6756954	c c p	-0.24562775
-1.6561916	t c p	-0.28518954
-1.850015	r c p	-0.25197613
-2.1740136	e c p	-0.28518954
-1.9413633	s c p	-0.2600444
-1.8635098	l c p	-0.28518954
-2.138619	a c p	-0.24562775
-2.0727596	o c p	-0.28518954
-1.3766481	# p p	-1.2705395
-1.1551845	i p p	-2.2602715
-1.5213795	n p p	-0.28518954
-1.3505722	c p p	-0.28518954
-1.4809282	p p p	-0.24562775
-1.4684799	t p p	-0.28518954
-1.2505293	r p p	-0.26495832
-1.2324181	e p p	-1.1180182
-1.5455623	s p p	-0.28518954
-1.1157798	u p p	-2.5989516
-0.97073793	l p p	-0.25197613
-1.0000572	a p p	-2.5981538
-1.6921608	m p p	-0.28518954
-1.2827761	d p p	-0.28518954
-1.0655885	h p p	-0.28518954
-1.0308232	o p p	-1.9344108
-0.8034941	w p p	-0.28518954
-0.54325765	q p p	-0.28518954
-1.0136483	y p p	-0.4022559
-1.2279558	z p p	-0.28518954
-1.758621	# t p	-0.4022559
-1.6373749	i t p	-0.32740492
-1.6499385	n t p	-0.9820577
-1.7611942	c t p	-0.28518954
-1.762166	p t p	-0.28518954
-1.8384924	r t p	-0.4754815
-1.7992555	e t p	-0.62216026
-1.894408	s t p	-2.310244
-1.976488	u t p	-1.5934005
-1.9521089	l t p	-0.28518954
-1.9298167	a t p	-0.29651272
-1.6241012	h t p	-0.30422896
-2.122911	o t p	-0.28518954
-1.3014265	w t p	-0.28518954
-1.5311742	# r p	-0.5866605
-1.6690086	i r p	-1.1636229
-1.8845912	n r p	-0.28518954
-1.8266784	c r p	-0.28518954
-2.0185106	p r p	-0.27575967
-1.7999943	t r p	-0.28518954
-1.8374273	r r p	-0.25197613
-1.5741233	e r p	-2.2324743
-1.7482665	u r p	-1.4639298
-1.9380165	l r p	-0.28518954
-1.5687146	a r p	-1.2205336
-1.7092081	m r p	-0.28518954
-1.6306707	o r p	-2.033913
-1.3158243	# e p	-3.041766
-1.4456499	i e p	-2.7342248
-1.4535192	n e p	-2.1581779
-1.3228216	c e p	-2.7659414
-1.8312105	p e p	-0.9478033
-1.5924486	t e p	-2.0482364
-1.4234011	r e p	-2.5927086
-1.5156028	e e p	-0.57526636
-1.664001	g e p	-0.33042443
-1.4234571	s e p	-2.4238663
-1.5569583	u e p	-0.71174043
-1.7007387	l e p	-1.2077138
-1.5529209	a e p	-1.9851276
-1.4224164	m e p	-0.4104561
-1.5131146	d e p	-2.374881
-1.9060175	b e p	-0.27575967
-1.7456133	x e p	-0.28518954
-1.8511848	h e p	-0.24907899
-1.5326779	o e p	-0.7082367
-1.9495718	f e p	-0.28518954
-1.6637673	k e p	-0.2600444
-1.8338553	w e p	-0.28518954
-1.7020538	y e p	-0.28518954
-1.5546252	z e p	-0.31439707
-1.8547782	# g p	-0.28518954
-1.9968706	i g p	-0.2362758
-1.6922307	r g p	-0.28518954
-1.9956377	e g p	-0.28518954
-1.6073045	s g p	-0.28518954
-1.9816235	u g p	-0.28518954
-1.7004645	l g p	-0.28518954
-1.8706118	a g p	-0.2362758
-1.2657558	d g p	-0.28518954
-1.9942117	o g p	-0.28518954
-1.200933	# s p	-2.953297
-1.3807836	i s p	-2.732611
-1.2838782	n s p	-2.3934262
-1.6121964	c s p	-0.28518954
-1.5071001	p s p	-0.25197613
-1.5779483	t s p	-0.27731717
-1.5960643	r s p	-1.2467697
-1.4261858	e s p	-2.1933973
-1.6030074	s s p	-0.38134387
-1.3857005	u s p	-2.3881915
-1.1385745	l s p	-0.6540805
-1.3001654	a s p	-1.7872982
-1.220716	m s p	-2.209834
-1.5825814	d s p	-0.28518954
-1.4346921	x s p	-1.5285497
-1.3426994	h s p	-0.28518954
-1.4225564	o s p	-2.699976
-1.535503	y s p	-1.25236
-1.4810097	# u p	-0.9031222
-1.8942063	i u p	-0.5006327
-1.6438559	n u p	-2.3390522
-1.5327108	c u p	-2.338824
-1.917572	p u p	-1.5417595
-1.5077015	t u p	-0.9822354
-1.3737673	r u p	-1.5429138
-1.4396706	e u p	-0.97438484
-1.2128606	s u p	-3.3478572
-1.8514048	u u p	-0.26495832
-1.4146209	l u p	-1.2624829
-1.6414156	a u p	-2.1360822
-1.9939624	m u p	-0.28518954
-1.9382704	d u p	-1.393227
-1.9226917	b u p	-0.28518954
-1.5648072	x u p	-0.738723
-1.8136779	h u p	-0.28518954
-1.8169954	o u p	-0.8542994
-1.609436	w u p	-0.28518954
-1.7753837	q u p	-0.29651272
-1.8427309	z u p	-0.28518954
-1.461519	# l p	-0.41623038
-1.9070182	i l p	-0.3963003
-1.9711347	t l p	-0.28518954
-1.5829533	e l p	-0.86388797
-1.7242868	s l p	-0.2993903
-1.3247259	u l p	-2.0588737
-1.8833233	l l p	-0.28518954
-1.4298959	a l p	-1.4597977
-1.615725	m l p	-0.28518954
-1.7118487	o l p	-1.2404608
-1.3309859	w l p	-0.28518954
-1.7831465	y l p	-0.28518954
-1.2921462	# a p	-3.3027256
-1.5686322	i a p	-0.6186091
-1.6163299	n a p	-0.7676859
-1.2282047	c a p	-2.916847
-1.4196687	p a p	-2.5499616
-1.544468	t a p	-0.78682053
-1.4755085	r a p	-1.4403769
-1.504416	e a p	-1.8516076
-1.844666	g a p	-1.7016517
-1.4525036	s a p	-1.2517202
-1.8631189	u a p	-1.3852994
-1.5156108	l a p	-1.855463
-1.5588253	a a p	-0.29651272
-1.7603555	m a p	-0.40239176
-1.8515778	d a p	-1.1233771
-1.91873	b a p	-1.7713486
-1.948255	h a p	-0.49360424
-1.3768771	o a p	-1.1185212
-1.7716495	f a p	-0.28518954
-1.6823305	w a p	-0.45749015
-1.8597339	z a p	-0.63748753
-1.4785609	# m p	-0.43866575
-1.2511547	i m p	-2.7979805
-1.5463307	n m p	-0.2600444
-1.7127562	t m p	-0.28518954
-1.6884391	r m p	-0.24562775
-1.2561897	e m p	-2.828524
-1.5710218	s m p	-0.28518954
-1.2005004	u m p	-2.2115653
-1.5351887	l m p	-0.30422896
-1.2715889	a m p	-2.3447022
-1.8339297	m m p	-0.28518954
-1.4418317	d m p	-0.28518954
-1.2516649	o m p	-2.778413
-0.96926486	q m p	-0.28518954
-1.2807964	y m p	-1.1310354
-1.530615	z m p	-0.30422896
-1.5255482	# d p	-0.4940329
-2.1280823	i d p	-0.4291677
-1.9474506	n d p	-0.28518954
-1.5127172	p d p	-0.28518954
-2.1665437	e d p	-0.28518954
-2.078093	u d p	-0.28518954
-2.0047727	a d p	-0.66047937
-1.6665726	d d p	-0.28518954
-1.9235936	o d p	-0.28518954
-1.8402016	# b p	-0.24293514
-2.036726	i b p	-0.25197613
-1.4554062	c b p	-0.28518954
-1.9431095	u b p	-1.1595461
-1.6366297	l b p	-0.28518954
-1.8735572	a b p	-0.27575967
-1.5354135	d b p	-0.28518954
-1.253054	h b p	-0.52607775
-1.8632375	o b p	-1.1712638
-0.9188034	k b p	-0.28518954
-1.4191941	z b p	-0.2362758
-1.1003392	# x p	-2.8491235
-1.6786082	i x p	-0.2362758
-1.4966382	n x p	-0.28518954
-1.5910923	c x p	-0.2362758
-1.0387279	t x p	-0.28518954
-1.5353594	r x p	-0.28518954
-1.1631851	e x p	-2.7745264
-1.7997496	a x p	-0.28518954
-1.72549	x x p	-0.28518954
-1.9389617	# h p	-0.26495832
-2.0298033	c h p	-0.67220575
-1.5258293	s h p	-0.28518954
-1.680584	l h p	-0.28518954
-1.2792512	# o p	-2.4378486
-1.4342096	i o p	-0.52163285
-1.6137156	n o p	-1.710527
-1.4766722	c o p	-2.057011
-1.2872518	p o p	-2.3297482
-1.3986735	t o p	-0.9569696
-1.3441887	r o p	-2.650117
-1.3544471	e o p	-1.1973019
-1.7628167	g o p	-0.34426394
-1.366321	s o p	-1.3448178
-1.7365873	u o p	-0.55613184
-1.5001739	l o p	-0.84741324
-1.659136	a o p	-0.28518954
-1.6759087	m o p	-0.630397
-1.5906752	d o p	-0.8918526
-1.8440785	b o p	-0.45340842
-1.6555284	x o p	-0.5424283
-1.447017	h o p	-0.4022559
-1.5867862	o o p	-1.5829825
-1.8146738	f o p	-0.28518954
-1.60138	y o p	-0.28518954
-1.8338791	z o p	-0.2362758
-1.652172	# f p	-0.48456895
-1.9217472	i f p	-0.2362758
-1.711477	t f p	-0.28518954
-1.8207773	e f p	-0.28518954
-1.9083756	u f p	-0.28518954
-2.0040462	a f p	-0.28518954
-1.1877322	b f p	-0.28518954
-1.81235	# k p	-0.28518954
-1.1888525	f k p	-0.28518954
-2.0562317	# w p	-0.30422896
-1.6568575	r w p	-0.30422896
-1.7516949	a w p	-0.2362758
-1.2610953	w w p	-0.28518954
-2.1390076	# q p	-0.28518954
-1.1132914	# y p	-1.566808
-1.1828109	c y p	-1.6944054
-1.3175087	p y p	-0.6515728
-1.3890412	t y p	-0.6659123
-1.3851309	r y p	-0.52607775
-1.8651875	e y p	-0.2362758
-1.1332568	g y p	-0.99052763
-1.5634669	s y p	-1.0823802
-1.586762	u y p	-0.28518954
-1.5781349	l y p	-0.28518954
-1.319031	d y p	-0.4563594
-1.119502	h y p	-0.2792719
-1.7750516	o y p	-0.28518954
-1.5235198	w y p	-0.28518954
-0.9667236	z y p	-0.28518954
-1.5435472	# z p	-0.3615517
-1.824129	t z p	-0.28518954
-1.7265922	r z p	-0.72057366
-1.9138461	e z p	-0.28518954
-1.7423291	s z p	-0.2362758
-1.9855332	u z p	-0.28518954
-1.7947114	l z p	-0.28518954
-1.5225968	h z p	-0.30422896
-1.8269001	z z p	-0.28518954
-1.6958034	<s> # t	-2.0539849
-1.3811725	i # t	-2.7556384
-1.3931324	n # t	-2.4992719
-1.372631	c # t	-2.1351774
-1.301559	p # t	-0.987313
-1.3185418	t # t	-2.7060711
-1.3162695	r # t	-2.2908335
-1.3927333	e # t	-2.8964522
-1.1990955	g # t	-1.0572728
-1.419674	s # t	-2.8374228
-1.3451912	u # t	-2.3250408
-1.3840122	l # t	-1.7352563
-1.3552916	a # t	-2.6931553
-1.3782649	m # t	-2.5968528
-1.3399413	d # t	-2.2569897
-1.2689468	b # t	-1.61505
-1.2372829	x # t	-1.8568544
-1.3898576	h # t	-0.87034607
-1.3753984	o # t	-2.7091424
-1.3918539	f # t	-0.53462964
-1.5482982	k # t	-0.25197613
-1.4132559	w # t	-0.33230233
-0.96446943	q # t	-0.34338436
-1.2022891	y # t	-0.447586
-1.4083416	z # t	-0.5710082
-1.2825725	# i t	-2.5681376
-1.2903275	i i t	-1.5850378
-1.235482	n i t	-3.0073276
-1.177633	c i t	-2.938253
-1.2420285	p i t	-2.9466815
-1.25738	t i t	-3.1213155
-1.3107476	r i t	-3.1459215
-1.2037017	e i t	-1.4318291
-1.2394496	g i t	-2.714895
-1.2439435	s i t	-3.094369
-1.217772	u i t	-3.139361
-1.319961	l i t	-3.1859334
-1.2936263	a i t	-1.4291677
-1.1612448	m i t	-2.9975388
-1.3213403	d i t	-2.8318968
-1.241157	b i t	-2.8892736
-1.1120833	x i t	-2.128765
-1.2682784	h i t	-1.1343732
-1.2595648	o i t	-1.7949855
-1.2128918	f i t	-1.7164243
-1.5525327	k i t	-0.25197613
-1.1636646	w i t	-0.70246166
-1.0169623	y i t	-0.29460493
-1.3414619	z i t	-0.6803211
-1.3310369	# n t	-0.66539794
-1.2368333	i n t	-3.060189
-1.3360316	n n t	-0.5185823
-1.1208481	c n t	-0.2626257
-1.6124175	p n t	-0.28518954
-1.0615566	t n t	-0.4458046
-1.5483179	r n t	-0.33042443
-1.2386491	e n t	-3.534295
-1.7708322	g n t	-0.28518954
-1.5686241	s n t	-0.24562775
-1.1653118	u n t	-2.5650125
-1.5122846	l n t	-0.4754815
-1.2500502	a n t	-3.2097204
-1.6814237	m n t	-0.29651272
-1.3837072	d n t	-0.28518954
-1.3096867	h n t	-2.4817655
-1.2591344	o n t	-3.0729144
-1.1377434	f n t	-0.29651272
-1.3395112	y n t	-0.55178523
-1.2592671	z n t	-0.25656822
-1.2987267	# c t	-1.2200295
-1.1346042	i c t	-3.2916112
-1.0681409	n c t	-2.6080651
-1.4872528	c c t	-0.41104248
-1.1790662	p c t	-0.27843308
-1.527734	t c t	-0.28518954
-1.1423072	r c t	-0.91486055
-1.1253297	e c t	-3.3852546
-1.2285508	g c t	-0.24562775
-1.5828289	s c t	-0.47472772
-1.0106947	u c t	-3.0052135
-1.0126531	l c t	-0.95015264
-1.0675439	a c t	-2.834898
-1.3419107	m c t	-0.29460493
-1.4117095	d c t	-0.27843308
-1.0052428	b c t	-0.2993903
-1.4739665	x c t	-0.28518954
-1.1924365	h c t	-0.28518954
-1.1157151	o c t	-2.6313293
-0.8987961	f c t	-0.26495832
-1.0445477	q c t	-0.28518954
-1.6006849	z c t	-0.28518954
-1.484737	# p t	-0.49446833
-1.2867992	i p t	-2.7630248
-1.2137861	n p t	-0.72170985
-1.2172234	c p t	-0.25197613
-1.5904424	p p t	-0.28518954
-1.3605618	t p t	-0.28518954
-1.41143	r p t	-0.4458046
-1.2002857	e p t	-2.8908162
-1.2728195	g p t	-0.28518954
-1.5639626	s p t	-0.28518954
-1.3364139	u p t	-1.3397136
-1.3530712	l p t	-0.2993903
-1.1942092	a p t	-1.9674264
-1.0991563	m p t	-2.6763222
-1.3197005	b p t	-0.28518954
-1.2509632	o p t	-2.5578341
-1.0246904	y p t	-0.8759293
-1.2497805	z p t	-0.28518954
-1.3897766	# t t	-0.8396486
-1.152862	i t t	-2.9997535
-1.4172095	n t t	-0.5670067
-1.4507585	c t t	-0.4754815
-1.4473646	p t t	-0.35944936
-1.3462896	t t t	-0.45749015
-1.2961313	r t t	-0.6424847
-1.1625881	e t t	-2.0389109
-1.4448874	g t t	-0.28518954
-1.3437971	s t t	-0.43591994
-1.2167733	u t t	-0.9893184
-1.3130779	l t t	-0.4675059
-1.187442	a t t	-2.376834
-1.3696254	m t t	-0.25656822
-1.5115293	b t t	-0.2362758
-1.5300288	x t t	-0.2362758
-1.5281994	h t t	-0.2362758
-1.0345055	o t t	-1.7831665
-1.3592789	f t t	-0.3963003
-1.5825357	y t t	-0.30422896
-1.5471019	z t t	-0.2362758
-1.3585865	# r t	-0.9487984
-1.3612156	i r t	-1.8832662
-1.3236891	n r t	-0.32209954
-1.5034775	c r t	-0.28610376
-1.3681629	p r t	-0.4022559
-1.580625	t r t	-0.28518954
-1.3302608	r r t	-0.54160464
-1.3103459	e r t	-3.0119083
-1.6682312	g r t	-0.28518954
-1.3087835	s r t	-0.78090966
-1.2568331	u r t	-1.5588672
-1.685548	l r t	-0.28518954
-1.2656521	a r t	-2.991712
-1.5986993	m r t	-0.28518954
-1.705336	d r t	-0.28518954
-1.3708968	b r t	-0.29324728
-1.4241982	x r t	-0.2362758
-1.5717511	h r t	-0.28518954
-1.2163752	o r t	-2.648265
-1.7716653	f r t	-0.2687048
-1.4919982	w r t	-0.2362758
-1.2785519	# e t	-3.7468412
-1.2348832	i e t	-2.603206
-1.2896475	n e t	-2.498865
-1.2887061	c e t	-2.730137
-1.1263287	p e t	-3.083509
-1.2648848	t e t	-1.9385111
-1.2562481	r e t	-2.8822916
-1.0952841	e e t	-1.3566976
-1.1758939	g e t	-2.2986948
-1.4208829	s e t	-2.387608
-1.2306632	u e t	-2.662971
-1.2909188	l e t	-2.2516055
-1.0686784	a e t	-1.9048237
-1.1752189	m e t	-1.9915648
-1.2903585	d e t	-2.3307538
-1.2159497	b e t	-2.445337
-1.2834126	x e t	-1.1366394
-1.2107446	h e t	-1.1198167
-1.0711315	o e t	-1.0428302
-1.5154636	f e t	-0.5951034
-1.0545293	k e t	-0.879491
-1.1438756	w e t	-0.646691
-1.0232822	q e t	-0.28518954
-1.4654117	y e t	-0.81748366
-1.2040808	z e t	-0.68097967
-1.6726103	# g t	-0.2600444
-1.5546643	i g t	-0.8016627
-1.5079546	n g t	-1.0759405
-1.3975316	p g t	-0.28518954
-1.7115247	r g t	-0.25197613
-1.5557986	e g t	-0.637455
-1.6279067	s g t	-0.28518954
-1.7716588	u g t	-0.28518954
-1.7286075	a g t	-0.33042443
-1.2297046	# s t	-2.7336497
-1.204601	i s t	-3.006872
-1.1654661	n s t	-2.8746214
-1.0370852	c s t	-0.5532694
-0.9931276	p s t	-0.40299028
-1.1294739	t s t	-0.3648823
-1.1103129	r s t	-1.43699
-1.1512388	e s t	-2.9985871
-1.143234	g s t	-0.46040222
-1.1282618	s s t	-0.59232163
-1.110942	u s t	-2.7644575
-1.1989971	l s t	-0.40813738
-1.123847	a s t	-3.3941932
-1.1960914	m s t	-1.5223309
-1.1170805	d s t	-0.77038455
-1.0558724	b s t	-2.6700187
-1.3703104	x s t	-1.242081
-1.187826	h s t	-0.34426394
-1.1549212	o s t	-2.6671958
-1.0628688	f s t	-0.28518954
-0.76957315	k s t	-0.25197613
-1.2120101	w s t	-0.27731717
-0.9125799	y s t	-0.8685005
-1.0537031	z s t	-0.60525894
-1.2999854	# u t	-3.0365725
-1.2439811	i u t	-1.9877458
-1.206213	n u t	-1.7781044
-1.2146021	c u t	-2.737043
-1.143986	p u t	-2.3516924
-1.1974329	t u t	-2.7368467
-1.242054	r u t	-2.9215517
-1.1959894	e u t	-1.6661333
-1.2623827	g u t	-1.508179
-1.2421815	s u t	-1.3506131
-1.0997696	u u t	-1.6506884
-1.2289348	l u t	-2.5187454
-1.2357863	a u t	-2.6464312
-1.1205307	m u t	-2.4882185
-1.3373742	d u t	-1.8850996
-1.0545437	b u t	-2.035416
-1.1808013	x u t	-0.4863106
-1.174725	h u t	-0.7722174
-1.1912512	o u t	-2.3187568
-1.0704179	f u t	-2.1680982
-1.3491594	w u t	-0.28518954
-1.6568322	q u t	-0.4022559
-1.4737316	y u t	-0.28518954
-1.2546121	z u t	-0.2792719
-1.3335212	# l t	-0.8282005
-1.2196488	i l t	-1.4186213
-1.1898345	n l t	-0.5097256
-1.3380929	c l t	-0.8931166
-1.6670387	p l t	-0.6540805
-1.3643847	t l t	-0.38493946
-1.3759222	r l t	-0.29460493
-1.2559754	e l t	-1.4044652
-1.6652915	g l t	-0.28518954
-1.1944568	s l t	-0.5676169
-1.2051811	u l t	-2.7508047
-1.3141031	l l t	-0.43961042
-1.2159452	a l t	-2.420415
-1.3667603	m l t	-0.28518954
-1.4431202	x l t	-0.28518954
-1.2205572	o l t	-0.924969
-1.7658722	f l t	-0.2600444
-1.2591664	w l t	-0.73019767
-1.4358091	y l t	-0.30422896
-1.3245708	# a t	-2.3858805
-1.1911955	i a t	-2.5331185
-1.2462636	n a t	-2.9790628
-1.1362004	c a t	-3.0504544
-1.1348822	p a t	-2.7910285
-1.1899192	t a t	-3.523749
-1.240453	r a t	-3.2319608
-1.0680851	e a t	-2.8057764
-1.0442939	g a t	-2.7691827
-1.3423086	s a t	-2.4906158
-1.1626284	u a t	-2.8938544
-1.1857765	l a t	-3.0146878
-1.1244689	a a t	-0.39893714
-1.1129082	m a t	-2.6842916
-1.0950103	d a t	-2.9770403
-1.0723925	b a t	-2.5888393
-1.0121541	x a t	-2.1629245
-1.1983297	h a t	-1.8784372
-1.0506893	o a t	-0.9076753
-1.0210733	f a t	-2.7748113
-1.4421649	k a t	-0.9849074
-1.1403624	w a t	-0.74797446
-0.7238333	q a t	-0.28518954
-1.3441703	y a t	-0.28518954
-1.161902	z a t	-1.0260565
-1.407078	# m t	-0.58227795
-1.2262557	i m t	-2.2240806
-1.4494188	t m t	-0.25197613
-1.2681504	r m t	-1.4159395
-1.2091407	e m t	-2.1267037
-1.265067	g m t	-1.6229877
-1.5943787	s m t	-0.60525894
-1.2319638	u m t	-2.2864625
-1.1429759	l m t	-0.5079525
-1.2501509	a m t	-2.365169
-1.1399817	m m t	-0.92915374
-1.3023837	d m t	-0.25197613
-1.4405155	o m t	-1.0812289
-1.5615644	z m t	-0.28518954
-1.4457822	# d t	-0.60823154
-1.7140601	i d t	-0.26495832
-1.6926157	n d t	-0.2600444
-1.6231345	r d t	-0.27731717
-1.9062892	e d t	-0.35944936
-1.7622284	s d t	-0.28518954
-1.6586432	u d t	-0.26495832
-1.4629472	l d t	-0.28518954
-1.9835489	a d t	-0.45340842
-1.6496531	o d t	-0.2993903
-1.7143418	# b t	-0.36359754
-1.4422064	i b t	-2.135135
-1.4237146	c b t	-0.28518954
-1.9843765	e b t	-0.28518954
-1.4870601	s b t	-0.2362758
-1.677877	u b t	-1.6602218
-1.5981221	l b t	-0.28518954
-1.4342494	a b t	-1.2844957
-1.5613774	m b t	-0.28518954
-1.5197314	b b t	-0.28518954
-1.4156765	h b t	-0.28518954
-1.2652438	o b t	-2.75622
-0.97047204	w b t	-0.28518954
-1.3243111	# x t	-0.8302862
-1.1815407	i x t	-1.353447
-1.2764457	c x t	-0.28518954
-1.4725105	r x t	-0.28518954
-1.075612	e x t	-2.6948066
-1.2297735	u x t	-2.8294263
-1.4875385	a x t	-0.35494092
-1.3583716	m x t	-0.28518954
-1.1978087	d x t	-0.28518954
-1.0493119	x x t	-0.37325394
-1.6305591	o x t	-0.2362758
-0.9606771	y x t	-0.6973303
-1.20328	# h t	-2.054776
-1.6535304	i h t	-0.25197613
-1.3430766	c h t	-0.5523213
-1.5328784	p h t	-0.2600444
-1.675873	t h t	-0.2600444
-1.3899924	r h t	-0.336425
-1.8522133	e h t	-0.2362758
-1.643043	g h t	-0.8271077
-1.2681923	u h t	-0.25197613
-1.7003248	l h t	-0.28518954
-1.1913769	a h t	-0.280449
-1.2113189	h h t	-0.28518954
-1.5799725	o h t	-0.28518954
-1.319859	# o t	-1.4844683
-1.281748	i o t	-1.3275928
-1.2388486	n o t	-2.426879
-1.3303182	c o t	-1.6108993
-1.0858369	p o t	-2.72499
-1.2294399	t o t	-2.2168064
-1.2845573	r o t	-2.0655103
-1.1856117	e o t	-1.2295375
-1.0664916	g o t	-2.4123597
-1.7247767	s o t	-0.9184382
-1.325119	u o t	-2.462434
-1.3533823	l o t	-1.4737128
-1.538367	a o t	-1.8199713
-1.1484606	m o t	-2.0726964
-1.3727376	d o t	-2.0371988
-1.2105922	b o t	-1.0159582
-1.4868553	x o t	-0.28518954
-1.258298	h o t	-0.735252
-1.5601181	o o t	-0.28518954
-1.6618237	f o t	-0.25544125
-1.500916	k o t	-0.28518954
-1.3555183	w o t	-0.47987968
-1.2270545	q o t	-0.28518954
-1.4272115	y o t	-0.28518954
-1.4423991	z o t	-0.45536315
-1.3421952	# f t	-0.99582034
-1.5839825	i f t	-0.47069618
-1.662813	n f t	-0.28518954
-1.6018679	t f t	-0.28518954
-1.5922779	e f t	-0.6242405
-1.647329	s f t	-0.28518954
-1.7825049	u f t	-0.28518954
-1.6702589	l f t	-0.28518954
-1.3848338	a f t	-0.35097668
-1.4836535	o f t	-0.55380607
-1.5460222	f f t	-0.25197613
-1.3806081	z f t	-0.28518954
-2.1370406	# k t	-0.30422896
-1.6101627	a k t	-0.28518954
-1.5541344	# w t	-0.3379054
-1.54257	n w t	-0.28518954
-1.39251	c w t	-0.28518954
-1.5629351	r w t	-0.28518954
-1.8297272	e w t	-0.28518954
-1.6590998	a w t	-0.28518954
-1.619658	o w t	-0.28518954
-1.3799899	# q t	-0.37569395
-1.2692267	n q t	-0.28518954
-1.3879964	c q t	-0.28518954
-0.55913275	p q t	-0.28518954
-1.3632878	# y t	-0.8882782
-1.1731722	i y t	-0.28518954
-1.345777	c y t	-0.2362758
-1.515695	t y t	-0.4291677
-1.3738334	r y t	-0.6004203
-1.4122361	e y t	-0.27843308
-1.3042238	g y t	-0.28518954
-1.3257043	s y t	-0.37325394
-1.4448154	u y t	-0.28518954
-1.0737395	l y t	-0.6853738
-1.5896356	a y t	-1.3125471
-1.1335139	d y t	-0.67525715
-1.2505298	b y t	-1.2288092
-1.3679042	h y t	-0.8820706
-1.7568007	o y t	-0.47987968
-1.12679	w y t	-0.25197613
-1.6609505	# z t	-0.34915918
-1.2843231	i z t	-0.5767897
-1.3643879	n z t	-0.27843308
-1.5193105	c z t	-0.2993903
-1.2901096	p z t	-0.28518954
-1.6546421	t z t	-0.28518954
-1.6805373	r z t	-0.25197613
-1.5553522	e z t	-0.39364356
-1.4489808	s z t	-0.28518954
-1.4684267	u z t	-0.24562775
-1.6269268	l z t	-0.28518954
-1.8691419	a z t	-0.28518954
-1.4552598	m z t	-0.25197613
-1.5277178	d z t	-0.28518954
-1.1954215	x z t	-0.28518954
-1.597964	o z t	-0.28518954
-1.134621	y z t	-0.2362758
-1.6632433	z z t	-0.28518954
-1.2365663	<s> # r	-2.5728793
-1.4026332	i # r	-2.6982114
-1.4273181	n # r	-2.2436974
-1.4068165	c # r	-2.132075
-1.2302209	p # r	-0.9022107
-1.3868744	t # r	-2.659521
-1.2964054	r # r	-2.0263553
-1.3576566	e # r	-2.7962332
-1.2815927	g # r	-0.85753477
-1.3976622	s # r	-2.7503257
-1.3463688	u # r	-2.2812564
-1.3065017	l # r	-1.8716848
-1.3379638	a # r	-2.581836
-1.3549948	m # r	-2.6372473
-1.3741269	d # r	-2.3442814
-1.4274323	b # r	-1.7103667
-1.3443404	x # r	-1.5029566
-1.3406101	h # r	-0.9942066
-1.396859	o # r	-2.5663464
-1.5830611	f # r	-1.9370574
-1.1664534	k # r	-0.46059036
-1.4174896	w # r	-0.827664
-1.277589	y # r	-0.6047547
-1.4107742	z # r	-0.8376689
-1.3238308	# i r	-2.0743883
-1.4676872	i i r	-1.1542816
-1.41127	n i r	-2.2890725
-1.3189377	c i r	-2.42009
-1.2841233	p i r	-2.4379947
-1.3364484	t i r	-1.5892603
-1.3850888	r i r	-1.6898396
-1.2834065	e i r	-1.0093148
-1.4215885	g i r	-1.4070903
-1.3339719	s i r	-1.7252346
-1.2812982	u i r	-2.601895
-1.4287895	l i r	-1.5101945
-1.2089511	a i r	-1.4823912
-1.3247712	m i r	-1.6975523
-1.3940212	d i r	-2.653957
-1.241157	b i r	-1.5201288
-1.1120833	x i r	-1.8210585
-1.3666574	h i r	-0.7050903
-1.3018372	o i r	-1.554404
-1.13898	f i r	-2.824933
-0.7773852	k i r	-0.9277792
-1.1636646	w i r	-0.8547691
-1.4557905	y i r	-0.28518954
-1.2265916	z i r	-0.5455747
-1.1537949	# n r	-3.1779168
-1.5904218	i n r	-1.0899534
-1.7304121	n n r	-0.2600444
-1.7039907	c n r	-0.28518954
-1.4675971	p n r	-0.24562775
-1.6114097	t n r	-0.35054278
-1.4430026	r n r	-0.763225
-1.3848814	e n r	-1.9905841
-1.6364344	g n r	-0.77363396
-1.4797235	u n r	-0.8503765
-1.6304504	l n r	-0.2362758
-1.4120003	a n r	-0.61681366
-1.6712719	m n r	-0.28518954
-1.467343	d n r	-0.28518954
-1.2961797	b n r	-0.25197613
-1.3637061	x n r	-0.28518954
-1.4577714	h n r	-0.28518954
-1.2803986	o n r	-1.566269
-1.3143951	f n r	-0.28518954
-1.7931288	y n r	-0.28518954
-1.6149961	z n r	-0.3963003
-1.2351072	# c r	-2.4626498
-1.4541343	i c r	-0.336425
-1.292773	n c r	-1.788345
-1.286303	c c r	-0.9746204
-1.2908148	p c r	-0.52607775
-1.297927	t c r	-0.26495832
-1.323285	r c r	-0.5739957
-1.48959	e c r	-2.3876703
-1.3379624	g c r	-0.3963003
-0.9976648	s c r	-3.0143893
-1.2136431	u c r	-0.92629004
-1.2363857	l c r	-1.091881
-1.3667581	a c r	-2.2763379
-1.5599451	m c r	-0.2600444
-1.4217826	d c r	-0.3528218
-1.3027252	b c r	-0.25197613
-1.3400564	x c r	-1.396793
-1.5462422	o c r	-1.5237123
-1.447567	f c r	-1.715236
-1.2203969	w c r	-0.28518954
-1.0502087	q c r	-0.28518954
-1.1288902	# p r	-3.7653606
-1.0837404	i p r	-1.3383273
-1.0029521	n p r	-0.71157074
-1.1829139	c p r	-0.28518954
-1.328979	p p r	-2.3659956
-0.96544135	t p r	-0.7548139
-1.237099	r p r	-1.2572567
-1.1229906	e p r	-1.9947772
-0.77570695	g p r	-0.2600444
-1.0095001	s p r	-1.2498447
-1.1657432	u p r	-2.8068912
-1.2187449	l p r	-0.41500664
-1.0788372	a p r	-2.3089814
-1.2061446	m p r	-2.2094738
-0.9978503	d p r	-0.81127363
-1.1085281	b p r	-1.4291677
-1.1276212	x p r	-2.5417073
-1.097844	o p r	-2.4118173
-0.89192086	f p r	-0.38146827
-0.79572433	w p r	-0.2362758
-1.0028799	y p r	-1.4940708
-0.9267966	z p r	-0.2993903
-1.1088331	# t r	-2.967072
-1.22069	i t r	-2.1525283
-1.2920148	n t r	-2.968976
-1.2346336	c t r	-1.2459285
-1.1790175	p t r	-0.32648695
-1.1134229	t t r	-2.1006851
-1.2916977	r t r	-1.7750163
-1.2299204	e t r	-3.14444
-1.284882	g t r	-0.28518954
-1.0434768	s t r	-3.1207676
-1.161102	u t r	-2.1134152
-1.1250943	l t r	-1.9993213
-1.2075055	a t r	-2.8779097
-1.5050088	m t r	-0.24562775
-1.3385217	d t r	-0.2362758
-0.9687861	b t r	-1.8820896
-1.09439	x t r	-2.2650282
-1.3801248	h t r	-0.2362758
-1.2685237	o t r	-1.4125357
-1.0839785	f t r	-0.27731717
-1.0412618	w t r	-0.28518954
-1.5367234	z t r	-0.4754815
-1.3585865	# r r	-1.577779
-1.1717327	i r r	-2.1943226
-1.2406483	n r r	-0.41954365
-1.5034775	c r r	-0.29324728
-1.5559366	p r r	-0.2792719
-1.4761534	t r r	-0.2600444
-1.0585092	r r r	-0.95064706
-1.3312411	e r r	-2.8350515
-1.6682312	g r r	-0.28518954
-1.7010295	s r r	-0.28518954
-1.232312	u r r	-2.4077094
-1.685548	l r r	-0.28518954
-1.3561581	a r r	-2.243889
-1.353249	m r r	-0.25197613
-1.705336	d r r	-0.28518954
-1.4833164	b r r	-0.28518954
-0.83216894	x r r	-0.7469026
-1.5717511	h r r	-0.28518954
-1.3529347	o r r	-2.1578465
-1.6394404	f r r	-0.6973303
-1.3296926	w r r	-1.0823802
-1.3337936	# e r	-2.1574712
-1.1953051	i e r	-2.4156492
-1.1933681	n e r	-2.8725026
-1.156846	c e r	-2.7078085
-1.0015838	p e r	-3.4596062
-1.1535858	t e r	-3.2079377
-1.3936907	r e r	-2.1534805
-1.2056372	e e r	-0.8537548
-1.0239714	g e r	-2.518363
-1.1854496	s e r	-2.747822
-1.1294403	u e r	-3.158935
-1.2454417	l e r	-2.4136388
-1.215501	a e r	-1.5264837
-1.042277	m e r	-2.6020472
-1.2117375	d e r	-2.5591094
-0.9938349	b e r	-2.5327346
-0.9199084	x e r	-2.6779528
-1.0946263	h e r	-2.212297
-1.0711315	o e r	-0.7564839
-0.89732456	f e r	-2.6413898
-1.0545293	k e r	-0.705328
-0.8297663	w e r	-0.95748603
-1.0232822	q e r	-0.28518954
-0.9164944	y e r	-0.5523213
-1.0988224	z e r	-0.6187788
-1.0332685	# g r	-2.8206098
-1.2185798	i g r	-1.6053993
-1.2185295	n g r	-2.257881
-1.2382157	c g r	-0.28518954
-1.2178866	p g r	-0.28518954
-0.7812358	t g r	-1.0243996
-1.3199964	r g r	-0.7468346
-1.0630157	e g r	-2.4121387
-1.2598951	g g r	-1.7396606
-0.8541965	s g r	-1.3670198
-1.5942156	u g r	-0.5783472
-0.9563209	l g r	-0.38032544
-1.372851	a g r	-2.8241928
-1.1422752	m g r	-0.28518954
-0.83787864	d g r	-0.2600444
-0.9188769	x g r	-0.9062889
-0.918615	h g r	-0.28518954
-1.1415579	o g r	-1.1665146
-0.8619454	f g r	-0.28518954
-0.7884869	k g r	-0.28518954
-1.3403153	y g r	-0.2362758
-1.3475769	z g r	-0.28518954
-1.4187098	# s r	-0.7484102
-1.4133718	i s r	-1.1431268
-1.4966491	n s r	-0.7911705
-1.625668	c s r	-0.28518954
-1.8171571	t s r	-0.28518954
-1.6963923	r s r	-0.28518954
-1.6408663	e s r	-0.52663404
-1.4847505	g s r	-0.28518954
-1.2912152	s s r	-0.44814923
-1.4693685	u s r	-0.6075692
-1.3327757	a s r	-1.8843685
-1.4369545	d s r	-0.28518954
-1.4464155	x s r	-0.28518954
-1.5230695	h s r	-0.28518954
-1.5242751	o s r	-0.83925694
-1.45359	w s r	-0.28518954
-1.6254065	z s r	-0.2993903
-1.2411265	# u r	-2.7648883
-1.2176224	i u r	-2.8444328
-1.3188604	n u r	-0.8645959
-1.087107	c u r	-2.9059231
-1.188268	p u r	-1.4997666
-1.1448704	t u r	-2.6181862
-1.2681416	r u r	-1.234576
-1.1944482	e u r	-1.6014318
-1.2593933	g u r	-1.526304
-1.2050669	s u r	-2.1036816
-1.1284757	u u r	-0.7246271
-1.1726494	l u r	-2.268898
-1.2564031	a u r	-2.6055505
-1.0831168	m u r	-2.2494557
-1.2467911	d u r	-1.7729219
-0.9106448	b u r	-2.1051316
-1.0159874	x u r	-1.2199124
-1.6545625	h u r	-0.68975455
-1.0716472	o u r	-1.1333685
-1.2101907	f u r	-1.484924
-1.0839006	k u r	-0.28518954
-0.99112433	w u r	-0.26276743
-1.6492376	q u r	-0.2862182
-1.4644318	y u r	-0.28518954
-1.2512274	z u r	-0.599033
-1.3335212	# l r	-1.0425864
-1.4478574	i l r	-0.6853738
-1.4537256	n l r	-1.3053459
-1.4227393	c l r	-0.33849314
